"en","0","1","2","3","4","5","6","7","8","9","10","11","12","13","14","15","16","17","18","19","20","21","22","23","24","25","26","27","28","29","30","31","32","33","34","35","36","37","38","39","40","41","42","43","44","45","46","47","48","49","50","51","52","53","54","55","56","57","58","59","60","61","62","63","64","65","66","67","68","69","70","71","72","73","74","75","76","77","78","79","80","81","82","83","84","85","86","87","88","89","90","91","92","93","94","95","96","97","98","99","100","101","102","103","104","105","106","107","108","109","110","111","112","113","114","115","116","117","118","119","120","121","122","123","124","125","126","127","128","129","130","131","132","133","134","135","136","137","138","139","140","141","142","143","144","145","146","147","148","149","150","151","152","153","154","155","156","157","158","159","160","161","162","163","164","165","166","167","168","169","170","171","172","173","174","175","176","177","178","179","180","181","182","183","184","185","186","187","188","189","190","191","192","193","194","195","196","197","198","199"
"Deficit",0.08430838584899902,0.13249571621418,-0.2090253084897995,-0.03439916670322418,0.05294274911284447,0.11757169663906095,-0.08367029577493668,-0.08604272454977037,-0.09605585783720016,0.04715646803379059,-0.0678875520825386,-0.08661141991615295,-0.09698276966810226,0.016490718349814415,0.016712389886379242,0.08649565279483795,0.07235774397850038,-0.1274750530719757,-0.04874592274427414,-0.05582277476787567,-0.06781971454620361,0.04500340297818184,-0.053762748837471015,-0.056887101382017136,-0.03912870213389397,-0.08810176700353622,0.03809794038534165,-0.13447359204292295,-0.055948708206415176,-0.03437647596001625,0.11500982940196992,-0.03197365999221802,-0.010040638037025928,0.05953891947865486,0.054079387336969376,-0.08623997122049333,0.09519991278648376,0.00554920919239521,0.00925372913479805,0.039554227143526084,-0.07145868986845016,-0.006651344243437053,-0.13197581470012665,0.1397952139377594,-0.062000922858715064,0.1153787523508072,0.10761252045631407,0.1152856945991516,-0.047722335904836655,0.0322064571082592,0.01656586118042469,0.012516980990767479,0.060377418994903564,0.03486914932727814,0.06888981908559799,-0.1411447376012802,-0.05784225836396217,-0.003461433574557305,-0.002424919512122869,0.09188282489776613,-0.04409908130764961,0.0660717785358429,-0.045067790895700455,-0.09054473042488098,0.05669645220041275,0.03390797227621078,-0.04745960980653763,-0.016730165109038353,0.09040526300668716,-0.1293279379606247,0.06636979430913925,0.06336992233991623,0.0317562110722065,0.06874308735132217,-0.04029545933008194,0.11997419595718385,0.05096860602498055,-0.04733600094914436,-0.03764699026942253,-0.07655180245637894,0.09432360529899596,0.0019853569101542234,0.05046146735548973,0.09518573433160782,-0.028825201094150543,0.056028101593256,0.012267929501831532,0.041770271956920624,-0.06473904848098755,-0.15223118662834167,0.0047664204612374314,-0.03648855909705162,0.06182059645652771,-0.09430809319019318,0.01261485368013382,0.11264563351869585,0.01826951652765274,0.024050688371062282,0.01976439170539379,0.037075687199831016,-0.034565411508083344,0.0036026798188686367,-0.031097732484340668,0.06479223072528839,0.048925105482339866,-0.019644370302557945,0.08886333554983139,-0.047754041850566864,0.049186963587999344,0.14682982861995694,0.15181976556777954,0.035414524376392365,-0.007600941229611634,0.055562008172273636,-0.05534697324037552,0.08898793905973433,0.09697678685188292,0.06143835186958312,0.014218919910490513,-0.04858924448490143,-0.011368108913302422,-0.03298545256257057,-0.06414520740509032,0.032945763319730766,-0.006846171338111161,0.02277513407170773,-0.06367683410644531,0.008705340325832367,-0.01726657524704933,0.05107519030570984,-0.0019437180599197745,0.03471972048282623,-0.03798075392842293,0.031095819547772408,-0.11225597560405733,0.0033900381531566377,-0.008390093222260475,-0.007948013022542,-0.11785362660884854,-0.020077712833881375,0.016193805262446404,-0.14604604244232178,-0.10536348074674606,0.0976601168513298,0.054505858570337296,-0.01832268387079239,0.13859471678733826,-0.014846553094685078,-0.06734345853328705,-0.0792379230260849,0.10854052752256392,0.06718273460865021,-0.09720000624656676,-0.058995060622692115,-0.13171051442623138,-0.049975141882896416,-0.17238913476467133,0.042171835899353034,-0.035100340843200684,0.05577726289629936,0.0117780352011323,0.019048796966671944,-0.0033144918270409107,-0.07521290332078934,0.017126992344856262,-0.020184088498353958,-0.03802785649895668,0.1180608794093132,0.055053286254405975,-0.046388231217861176,-0.05184048414230347,-0.04020410031080246,-0.001304564531892538,-0.06715443730354309,0.04693906009197235,-0.0933723971247673,-0.010717162862420082,-0.006705018226057291,0.01575300842523575,-0.1428334265947342,-0.015873758122324944,0.07453855872154236,-0.03496109321713448,0.1108020544052124,0.06942420452833176,-0.036792628467082984,0.053318459540605545,-0.15414956212043762,0.02327047660946846,0.01244142930954695,0.0016602141549810767,0.05724281445145608,-0.053607985377311713,0.017431635409593582,0.0275003332644701,0.02608095109462738,-0.00533932913094759,0.03391797840595245,-0.10296739637851716,-0.009971428662538528
"Cautions",0.05539380386471749,-0.033914193511009216,-0.07790125906467438,-0.042476169764995575,-0.06355762481689453,-0.20683716237545013,0.026913553476333615,0.011538480408489704,-0.01157710887491703,0.03192641958594322,-0.09970937669277193,0.024913379922509197,-0.009847939014434814,-0.08157820254564285,-0.06365736573934555,0.0631711483001709,0.011401186697185041,0.042239699512720115,0.0473155602812767,0.07010506093502045,0.003203150583431125,-0.046928271651268005,0.03784823790192604,-0.029776556417346,0.0008569484925828874,-0.028397880494594574,0.031206518411636356,0.02571948803961277,-0.05663469061255455,-0.01972994767129421,0.044425588101148605,0.1109657809138298,0.08426646888256073,-0.00557017559185624,-0.08668360859155655,0.07861108332872391,0.04064805433154106,-0.12800972163677216,-0.009597944095730782,-0.008548825047910212,-0.09562459588050842,-0.012007982470095158,0.08680456876754761,0.030500229448080063,-0.07923493534326552,0.03100179135799408,-0.02676926180720329,0.016965346410870552,-0.2295198291540146,0.05433487519621849,0.03599157184362412,-0.017999518662691116,0.06269583851099014,0.033581584692001336,0.07405460625886917,-0.06218162551522255,-0.0462794303894043,-0.07311677932739258,-0.005167740397155285,-0.004620903171598911,-0.027624983340501785,0.01345402467995882,-0.018272317945957184,-0.0838276594877243,0.10598580539226532,-0.08344477415084839,-0.09954744577407837,0.0059501142241060725,-0.1023768037557602,0.1452988237142563,-0.04314412921667099,-0.01981501094996929,0.07186669856309891,0.09001684933900833,0.07168606668710709,0.013856334611773493,0.060775306075811386,-0.06566228717565536,0.06009688600897789,6.298091466305777e-05,0.15032406151294708,0.07089559733867645,-0.13471725583076474,0.02345544658601284,-0.03706158325076103,0.1257295310497284,0.015062765218317509,0.004207164514809847,-0.05244130641222,-0.016761202365159992,-0.020527072250843048,0.04379190877079964,0.07807120680809021,-0.037596788257360465,-0.03949295729398728,-0.02265642769634724,-0.02318037860095501,0.04478316381573677,0.028432054445147518,0.06562736630439757,-0.018639490008354187,0.11051545292139052,-0.12487643957138063,0.020086020231246948,-0.13606314361095428,-0.056413780897855766,0.010230230167508124,-0.028153324499726295,0.023473268374800682,-0.15956169366836548,-0.032323114573955536,0.03026161901652813,-0.07124786078929901,0.17690040171146393,-0.052120912820100784,0.060437686741352074,0.05107101798057556,-0.0865349993109703,0.029690673574805263,-0.07863714545965195,0.03924471139907837,0.0929172933101654,-0.07673080265522003,-0.010971940122544764,-0.1075245440006256,-0.07422668486833572,-0.009356198832392693,0.0129887405782938,-0.009702332317829132,0.07136168330907823,-0.11324679106473926,0.09101496636867523,0.015037728473544119,-0.039665184915065765,0.14569517970085144,-0.03122749365866184,-0.03867745772004128,0.015121097676455975,-0.029058409854769707,-0.022452404722571373,0.10752002894878387,-0.10484465956687927,0.031625669449567795,0.09854968637228012,-0.015826702117919922,-0.03672993183135986,0.030906943604350087,-0.04604126513004303,-0.1999567449092865,0.05784183740615845,0.07554905116558075,0.07947834581136702,0.03199152648448944,-0.001408237498253584,-0.08106131106615068,-0.06707800924777985,-0.005470734555274247,0.045878175646066666,0.16094361245632172,-0.03480391204357147,-0.001874108100309968,-0.1701633185148239,0.0553855374455452,0.005590871442109346,-0.060583777725696564,0.0780634805560112,0.007293012924492359,0.11289668083190918,-0.04657793045043945,0.018831068649888042,-0.034120336174964905,-0.1502867192029953,0.036614570766687386,-0.09722713381052016,-0.06881849467754364,0.1473366916179657,-0.05673408135771753,0.04450538381934166,0.038317378610372536,-0.1069878712296486,0.02657798677682877,0.019205735996365547,0.07969539612531662,0.03451598063111305,-0.039167270064353936,0.021750573068857196,-0.011361950077116491,0.03987494483590126,0.07446494698524475,0.054436009377241135,0.056163493543863297,-0.053339861333370216,-0.036642640829086304,0.04354776442050934,0.023057669401168827,-0.07731689512729645,0.01035052165389061,0.06410565227270126,0.1053372249007225,0.0014582816511392591
"Entry",0.0014662551693618298,-0.01714533194899559,0.03765964880585671,3.083980482188053e-05,0.0649876520037651,0.06313960254192352,0.08281619101762773,0.07713263481855392,-0.014036639593541622,-0.14041756093502045,-0.00035282145836390555,-0.06128178909420968,0.011151026003062723,-0.020040668547153476,-0.11284679919481275,0.053551338613033295,-2.8402600946719758e-05,0.032095976173877716,0.0039869099855422965,-0.012719987891614435,-0.04214122146368027,0.1712554097175598,0.06364293396472931,0.020326454192399982,-0.05417229235172272,-0.1217186599969864,0.0009269252768717707,-0.017689298838377,-0.020121458917856216,0.048198617994785316,0.08334095031023027,0.004913698881864548,-0.025220829993486404,0.08343833684921265,-0.09663421660661696,-0.027671242132782936,0.014557009562849997,0.016553256660699844,0.01952231116592884,0.039174742996692664,0.055323988199234016,0.01676209829747677,-0.0446404255926609,-0.05141240358352661,-0.10783751308918,0.012336961925029756,-0.12335515022277832,-0.08892564475536346,-0.05203435942530632,0.06258746236562729,-0.09493758529424667,0.11766029149293901,-0.02622427232563496,0.0017610305221751332,0.007193703204393388,-0.14930163323879242,-0.06529618799686432,0.10853078961372377,-0.06363920867443085,-0.06533037126064299,0.014133458957076073,0.06676533818244934,0.04273682832717896,-0.013870618306100368,0.03878223523497582,-0.026089971885085102,0.07223846018314363,-0.06391854584217073,-0.03959949687123298,-0.07118938118219376,-0.1096285730600357,-0.07893797755241394,-0.16423934698104858,0.01121349725872278,0.10060697048902513,0.05950363352894782,0.06565701961517334,0.030706111341714862,-0.07531807571649551,0.047098953276872635,-0.09135692566633223,-0.06780996173620224,-0.03727781772613525,-0.053579602390527725,0.15002544224262238,0.016468752175569534,-0.011687051504850388,-0.08975441008806229,0.016671311110258102,-0.005210078787058592,0.03448544070124626,0.10064716637134552,0.013945777900516987,-0.00936233252286911,-0.026593979448080063,-0.002324692206457257,-0.007034560199826957,0.041574060916900635,0.08278379589319229,0.01263292133808136,0.017103394493460655,0.1404862403869629,0.07017494738101959,-0.090901680290699,0.02445436827838421,-0.1084471195936203,0.15537428855895996,-0.014218430034816262,0.07088010758161545,0.0048227463848888865,-0.16107743978500366,0.02243652194738388,0.024406734853982925,-0.03838668018579483,0.03196199610829353,0.06452516466379166,-0.059792190790176385,0.0101903872564435,0.0420258454978466,-0.023461753502488136,-0.07814670354127884,0.09732478111982346,0.06741569936275482,0.07023148238658905,-0.04789450392127037,-0.023862220346927643,-0.08297036588191986,0.05190541967749596,0.04718626290559769,0.006088988855481148,-0.030497675761580467,0.1319948583841324,-0.035226304084062576,-0.1113438531756401,-0.06533525139093399,0.0053753480315208435,-0.04249769821763039,-0.028287956491112713,0.06187841296195984,0.07911796122789383,-0.03143760934472084,0.057585764676332474,-0.06895647943019867,0.09030136466026306,0.07119380682706833,0.0664321705698967,0.01947940327227116,0.10271265357732773,-0.057062074542045586,0.007846254855394362,0.09112682193517684,-0.04294220358133316,-0.16068676114082334,0.09227196872234343,0.07712073624134064,0.06255259364843369,-0.010500360280275343,0.03975708782672882,-0.014583752490580082,-0.059557050466537476,-0.02458907850086689,-0.1449926495552063,0.08934766799211502,-0.04540321230888367,0.0035134130157530308,-0.120758555829525,-0.1860727220773697,0.01528133451938629,-0.062459208071231835,0.01303453091531992,-0.011025751940906048,0.027608755975961685,0.004394083749502897,-0.08345171064138412,-0.09476551413536073,0.07177013903856277,-0.02454287000000477,0.0021323226392269135,0.030276685953140262,0.043401580303907394,0.016263419762253758,0.09208353608846664,0.0901721939444542,0.06698877364397049,-0.009073326364159584,0.029494885355234143,-0.07336533814668655,-0.16534845530986786,-0.19498074054718015,-0.009218189865350723,-0.05460648238658905,0.10599253326654434,-0.1719701737165451,0.012066864408552648,-0.01194151025265455,-0.011611361987888813,0.09216232597827913,0.00013382089673541486,-0.07684680819511414,0.005189569666981697
"Support",0.06475084275007248,-0.01807824894785881,-0.07457584142684938,0.010683483444154264,-0.07424480468034744,-0.07110351324081421,0.12829937040805814,-0.029553499072790142,0.06067784503102304,0.027325209230184555,0.1264728605747223,-0.062050711363554,0.00830724276602268,0.07595366984605789,-0.01271629985421896,0.08127422630786896,-0.0589633546769619,0.08299290388822557,-0.05870345234870911,-0.059582803398370736,-0.023513823747634888,-0.005025951657444239,-0.042430717498064034,0.04878698289394379,-0.1231721043586731,-0.02631300874054432,-0.03745044767856598,-0.03770475089550018,-0.05972930416464805,0.04247613251209259,0.005249219946563244,0.056714531034231186,0.0037898912560194726,0.1745769828557968,-0.09954486787319183,0.0191167201846838,-0.03417129069566727,-0.0276222825050354,-0.03815166652202606,0.1000635102391243,0.1453254073858261,0.008774194866418839,0.022388380020856857,0.07734064757823944,0.013192668557167051,0.10985213518142699,-0.048192866146564484,-0.09535527229309082,0.06240687519311905,0.06045527383685113,0.0369403287768364,0.033756572753190994,-0.04626116901636124,-0.11827882379293443,-0.033782750368118286,0.011052787303924559,0.04075320810079575,0.016649449244141582,-0.10276177525520323,0.13888998329639435,0.05711084976792336,0.012525697238743305,-0.12293562293052672,0.10535324364900588,0.12588930130004886,-0.030058875679969788,0.04760322719812393,-0.001246422529220581,0.007836484350264072,0.045623380690813065,-0.0091805262491107,0.08247994631528854,0.05943652614951134,-0.03728062659502029,0.052996695041656494,0.04518067091703415,-0.04603322967886925,-0.16591081023216248,-0.0017374013550579548,0.05350939184427261,0.061890859156847,-0.04411319270730018,0.016560392454266548,0.07861339300870895,0.0635933056473732,0.0873008519411087,-0.052165884524583817,0.027014167979359627,0.04417640343308449,-0.021609287708997726,-0.08432334661483765,0.062246978282928474,0.1505730003118515,0.19137221574783325,-0.061155699193477624,0.03368617594242096,-0.0586031898856163,-0.03547702357172966,0.045180846005678184,-0.02339773811399937,-0.08881738781929016,0.10165529698133467,-0.014089097268879412,-0.005895846989005804,0.016225172206759453,0.08646655827760696,0.006330544129014015,-0.06191585585474967,0.18501612544059756,-0.059012837707996375,-0.016115529462695122,-0.0011240100720897317,-0.04415158927440643,0.01655697263777256,-0.046802151948213584,-0.06976644694805145,0.1496943235397339,0.053768664598464966,-0.016384977847337726,-0.02115065418183804,0.02127198129892349,0.06770845502614975,0.012753163464367391,0.04060491919517517,-0.11151881515979767,0.01982316747307777,-0.035613592714071274,0.1053495705127716,0.08193507045507431,-0.024939637631177902,-0.06235428899526596,0.07055404037237167,0.05283674970269203,-0.13894598186016086,-0.05579549819231033,-0.01902751252055168,-0.08495016396045685,-0.059533271938562386,0.14959892630577087,0.0946863517165184,0.12274915724992752,0.08119306713342668,0.02384447678923607,-0.017776917666196827,-0.007004959974437952,-0.04237430915236473,0.04720272868871689,0.03130646049976349,-0.01019187830388546,-0.12576130032539368,-0.03681056573987007,-0.027033479884266853,0.0779968798160553,-0.0767611712217331,-0.031287405639886856,-0.06452004611492157,-0.002484238939359784,0.13283106684684753,0.040894657373428345,-0.03250699117779732,0.014919988811016084,0.015608599409461018,0.09975367784500122,-0.02030276134610176,0.015456593595445156,-0.11221251636743547,-0.07695701718330382,-0.09888309985399246,0.11749157309532166,-0.11375733464956285,-0.10438675433397293,0.06259143352508545,0.027436211705207825,-0.054980453103780746,0.03661806881427765,0.016401339322328568,0.06518974155187607,0.10149634629487993,0.1071419045329094,0.07579078525304794,-0.015697689726948738,0.06311345845460893,0.03267808631062508,0.04238038137555122,-0.12597797811031342,0.04069792479276657,0.04988477751612663,0.10954775661230087,-0.005867304746061564,-0.00956194382160902,0.14550110697746274,0.03595058619976044,-0.033007729798555374,0.0344669334590435,0.038411475718021386,-0.047943115234375,0.04514830559492111,0.03257762640714645,0.08419709652662277,-0.01769618131220341
"Resumption of dividends",0.016425761571608553,0.009314311203886679,-0.08860198124398877,-0.04331319312964135,-0.08258704494402022,-0.1299437223112528,0.002358426376320096,0.050839504973245526,-0.06443724429796395,-0.14174813490362229,0.014198182860470225,0.010310277863758856,0.04075726196935719,-0.06355799654154254,0.025565110103049984,-0.09128255098946787,0.14074639449323778,0.0038530256036897977,-0.06378629547183033,-0.003349493038340901,-0.1498136153391607,0.11942824029827608,0.040184264078646434,-0.009983479341955443,-0.05511187417856938,-0.03302308008070766,0.12755040107335114,-0.04990163910867748,-0.012224237266219762,-0.1360710920606119,0.09049719098388573,-0.053582228276750604,-0.06987939307963785,-0.05525113033199154,-0.023320106722002017,-0.01885520786357122,-0.16840217152476272,0.033805553211033644,0.047494290538602574,0.13466839596783256,-0.06757108373284339,-0.03600750626370547,0.052990349019736406,0.10853963628782234,-0.06555828708229984,-0.024751886359347736,-0.1457002017194074,0.08920133402528066,-0.0640354577329173,0.03741679196304782,0.07373047406435533,0.10406305623581252,0.14987811304696602,-0.06801960369040384,-0.07305772252387123,-0.004179252893670095,-0.11747737379555613,-0.052566932988211364,0.008943154155489387,-0.05251914132521363,-0.09145986753478734,0.03943284562939056,-0.03866374882584095,0.01389850028240028,-0.05038159493682252,-0.06742662218799943,-0.011915754403382387,-0.027878564955841064,-0.07708541557148957,-0.01538999032920857,-0.04196758397854738,0.031369493667709115,-0.008859106176650039,0.0274992307846652,-0.015540928118168613,0.03239018173822567,-0.1980955061727933,-0.05172795011446769,0.07428416188867103,0.006810946630094984,-0.031062979289622355,-0.10849741153859173,-0.02268593553801088,0.01319178354079102,0.12808777708015998,-0.035711589175100096,-0.04883063048658148,-0.06445348009854733,-0.021708491152870556,-0.0524862283176381,-0.0926703256673056,-0.028217598666651182,0.07648417297412367,0.0916587563129132,-0.026924006305231143,-0.042825685992459735,0.012977948598027528,-0.052251469827181096,0.006653014179279191,0.005570233762038408,0.1161064492411135,0.027719473025963032,-0.036062122655378295,-0.019936039242251114,-0.024105800848480324,0.032722538334619036,-0.03205702608021823,0.07368199117770471,-0.03688347667422024,0.022609194133490853,0.01182793762038704,0.05237220945133656,0.0906153424969726,0.07472577778594149,-0.019190235438318944,0.0954683026671558,-0.0934266091996631,-0.06436384200310087,0.07227951341260089,-0.005344213764976093,0.02374986221137681,0.0016151934470610935,-0.0015750688863205675,-0.14045979301342748,-0.10882441689714037,0.028240514454383886,-0.011478159447796038,-0.16475782121515636,0.14767006007814515,-0.13158098099622564,-0.09577110807126686,-0.033797870198257585,0.03971518662581605,-0.14051846747132846,0.06943459773034764,-0.0363934513659592,0.01219397899501058,0.07603630777861038,-0.13083792087287985,-0.06943560804829553,-0.003876137400175733,0.009072662243374543,-0.04083055289058822,-0.05101071806674507,0.027809388229613048,-0.0969560926344104,-0.04369308505289519,0.04229560230679706,0.006229168121785947,-0.05176989024219418,-0.02754560906323714,0.061812270324985534,-0.07987176551772075,-0.1069645691693372,0.08888114013664139,0.0267515130779013,-0.06689442417116323,0.015241203995966075,0.04779558052103668,-0.03206922414468091,0.07410454627337566,0.0953673725229042,0.02672640208052417,0.0386675134313878,0.05483756821514983,0.11507691492210835,-0.09781979603488074,-0.12816182109928392,-0.016771242578229602,-0.0637019202224571,0.08741159157926479,-0.026891184672649362,0.09516343679560693,-0.002144946547498481,-0.10214765604747666,0.07374635099434655,-0.031213817195880636,0.02067929029182327,0.02289053773926503,-0.060312055126415576,-0.040566890843309514,-0.05679967903511834,-0.007963539973338929,-0.03033514730066521,0.048880071761014235,0.019279141207938787,0.030900422402302744,-0.08537417185392261,0.04273229478239672,-0.04660267732580126,-0.009373622082542213,0.15768746948549658,-0.07045270122546646,0.02836783042633662,0.033799629194509816,0.08390576531823339,-0.10384208299456464,-0.07819580361169261,0.013646437887291413,-0.009564219491524854
"Addition",0.05932469293475151,-0.08253743499517441,0.11455775797367095,0.06791187077760696,0.03751760348677635,-0.0019159358926117422,-0.019469114020466805,0.1562437117099762,-0.09185908734798433,-0.009784420952200891,0.14696916937828064,0.10207876563072203,-0.08384782075881958,0.018142528831958767,0.05903580039739609,-0.040130317211151116,0.07228919118642807,-0.02873493731021881,-0.05021583288908005,-0.015096230432391168,0.051338374614715576,0.04562797769904137,-0.022795725613832474,-0.08083371818065642,-0.05946355313062668,-0.062101799994707114,-0.035973723977804184,-0.06263323128223419,-0.119306780397892,-0.04343750327825546,0.0745842233300209,0.1433815062046051,-0.10239724069833757,-0.04051580280065537,-0.05424139648675919,-0.06864655017852782,-0.08930423855781555,-0.10750839859247208,0.04264339432120323,0.004234676714986564,-0.07864032685756682,0.05036616697907448,0.007967877201735973,0.06593478471040726,-0.02125545777380466,-0.06324522197246553,0.003344815457239747,-0.06362994015216827,0.022674620151519772,0.0983314961194992,-0.11306966841220854,-0.04870549589395523,0.03731551766395569,-0.1031513586640358,-0.06991616636514664,-0.07071089744567871,0.09504308551549913,-0.02491907961666584,-0.0779644176363945,-0.12400756031274796,-0.049091015011072166,0.0018075088737532496,0.006879537831991911,-0.00245385873131454,-0.15467824041843414,0.0340140275657177,-0.0554858036339283,-0.0200701467692852,-0.054506976157426834,-0.036932222545146935,0.04230353981256485,0.06344684213399887,-0.11180578917264937,0.13225257396697998,0.01998788863420486,-0.02453112974762917,-0.024179115891456604,0.07281532883644104,-0.034048553556203835,0.09570636600255966,-0.0385296605527401,-0.04665464907884598,-0.15080316364765167,-0.07461770623922348,0.007540523074567319,0.08270363509654999,0.002611610572785139,0.0955604836344719,0.07109812647104262,-0.09711005538702012,-0.009515301324427128,-0.0436229482293129,0.07820601016283035,0.11296561360359192,-0.03367690369486809,-0.05033639818429947,-0.0648200586438179,0.10109051316976547,0.06355047225952147,-0.014698334969580172,0.13873082399368286,-0.04718438535928726,0.11966045200824738,0.011240728199481964,0.04457750543951988,-0.1685682237148285,-0.023928623646497726,0.06549350917339325,0.0873875543475151,-0.1080646514892578,0.028844675049185756,-0.027107229456305504,-0.040320437401533134,0.006408169399946928,-0.02294811233878136,0.026881875470280647,0.056873366236686713,0.02929969504475594,-0.1243487223982811,0.041814934462308884,0.07421847432851791,0.12717878818511966,-0.04417332261800766,-0.012349937111139296,-0.1441771239042282,0.06927353143692018,-0.025427967309951786,0.005525642540305853,-0.029047664254903793,-0.09479093551635742,-0.02588699385523796,-0.05205230414867401,-0.09625305235385896,0.012757332064211369,0.015490937978029253,0.07577590644359589,-0.04962719976902008,-0.12596853077411652,0.06955727934837341,-0.0044148885644972324,-0.09109033644199373,0.0017705740174278613,-0.08742134273052216,0.04270772635936737,-0.06174403429031373,-0.05541932955384255,0.07255324721336365,0.0967257097363472,-0.04268461093306541,0.007656817324459553,0.07190795242786407,0.0678471177816391,-0.06589903682470323,0.08742175996303557,0.012246502563357351,-0.08931859582662582,-0.0598047561943531,-0.03184729814529419,-0.055604804307222366,0.07002297043800354,0.01110942754894495,0.008068801835179329,0.058432061225175864,-0.11120519042015076,0.07539427280426025,-0.05697162449359894,0.044676344841718674,0.003800222417339683,0.08877462148666382,-0.0603019967675209,-0.10431049764156343,0.046188421547412865,0.07826701551675798,0.012569338083267212,-0.0723331943154335,-0.07605285942554474,0.05659284070134162,-0.00791245885193348,-0.02568703331053257,-0.12449923902750015,-0.05016347020864487,-0.0569562055170536,-0.021650463342666626,-0.012225432321429251,0.10122648626565932,0.02320412360131741,-0.15198609232902527,-0.12395312637090684,-0.07744742929935455,-0.1036207377910614,0.058391179889440536,-0.07078713178634644,0.0060045975260436535,0.0072670411318540564,0.006284104660153389,0.014402774162590504,-0.013018186204135418,-0.10303182154893877,0.006926201283931732,0.012809994630515577
"Delisting",-0.03856533765792847,-0.023951021954417232,0.12207994610071182,0.04024941101670265,0.06880416721105576,0.042298752814531326,0.06248557940125465,0.022395385429263115,-0.015030695125460625,-0.1984117776155472,-0.03209526464343071,0.032267842441797256,0.052373554557561874,-0.23127999901771545,0.035476356744766235,-0.08366412669420242,0.02630520425736904,-0.008515370078384876,-0.07271745800971985,-0.02706533670425415,0.010872907005250454,0.01564035937190056,-0.03266986459493637,-0.1189962476491928,-0.060565661638975136,-0.012098879553377628,0.09182039648294447,0.06780259311199187,0.12813493609428406,0.019577417522668842,0.04464712366461754,-0.04291374236345291,-0.19561052322387693,-0.03296105191111565,0.029050961136817925,0.015348598361015318,0.0005709574325010179,0.15354907512664795,-0.046774473041296005,0.007641985546797514,-0.10681984573602676,0.07797951996326448,-0.14184324443340302,0.05594227835536003,0.0973511040210724,-0.02342135272920132,0.043769095093011856,-0.042316276580095284,-0.02092072181403637,0.0001944847172126174,0.02641039527952671,0.07352734357118608,-0.04314396902918816,0.09917622804641724,-0.05050498619675636,-0.07665815949440002,0.009835307486355305,0.029401890933513638,-0.05584079772233963,-0.024715851992368698,0.014544482342898847,-0.04071925580501557,-0.002137831412255764,0.09533374011516572,-0.024038577452301983,-0.08130040019750595,-0.032751668244600296,0.05445148795843125,-0.13061945140361786,-0.0916052833199501,0.016963960602879524,-0.05150631070137024,-0.14819090068340302,-0.06673455238342285,0.10155387222766876,0.008259258233010769,-0.03704838082194328,-0.07846716046333313,-0.055457793176174164,0.10612484067678453,0.012197913601994514,-0.0574011318385601,-0.04743620753288269,0.06142455339431763,0.05004209652543068,-0.007310334593057632,-0.2051713764667511,-0.0030545115005224943,-0.01937839761376381,-0.045372840017080314,-0.028048420324921608,0.09717319160699844,-0.20043507218360898,-0.005871194880455732,0.019193919375538826,-0.12464861571788788,-0.035313662141561515,-0.03934717550873757,-0.061179060488939285,-0.060649238526821136,-0.026869362220168117,-0.04036194458603859,-0.0027955607511103158,-0.028714913874864575,-0.006317658815532923,-0.04010268300771713,-0.1212928295135498,-0.0863974541425705,-0.01013529859483242,0.1021159216761589,-0.13001050055027008,0.14392204582691193,0.08233274519443512,-0.019999530166387558,-0.01259983703494072,0.038620974868536,-0.09707488119602203,-0.02663799375295639,0.09052573889493942,0.0944514125585556,-0.036368731409311295,0.07883316278457643,-0.03164774551987648,0.041879504919052124,0.03131721541285515,0.05194902047514916,-0.05529223009943962,-0.025804273784160614,-0.01958491839468479,0.04421553760766983,-0.04153984412550926,-0.07479243725538254,0.030561011284589767,-0.026706350967288017,0.06646501272916794,-0.07592786103487015,-0.041001249104738235,0.048326749354600906,0.031104886904358864,-0.02623158879578114,-0.13763172924518585,0.04771983623504639,0.034361157566308975,0.030806459486484524,-0.04970678687095642,0.0727129578590393,0.06042673066258431,0.03218616172671318,0.06484822928905487,-0.06784866005182266,-0.0378764346241951,0.05606235563755035,0.0016971423756331205,0.012585620395839214,-0.01882637664675713,-0.01784415915608406,-0.0021078165154904127,-0.00765867019072175,0.06541401147842407,0.04860761016607285,0.0450085885822773,0.12416231632232665,0.06424616277217865,-0.09383419156074524,-0.015821557492017746,0.10046623647212982,-0.05576583743095398,-0.1147610917687416,-0.13256850838661194,-0.05836697667837142,0.026370273903012283,0.05888436734676361,-0.013563509099185469,0.02052910067141056,-0.1744004786014557,-0.019884338602423668,-0.0518614649772644,-0.06612983345985413,0.0031030660029500727,-0.07234477251768112,-0.04263955354690552,-0.009809935465455057,-0.0713409036397934,0.05403706431388855,-0.05094857141375542,-0.02893233112990856,-0.017622636631131172,-0.03832679986953736,0.04949745535850525,-0.09860476851463318,0.024830836802721024,0.07151030004024506,0.0546419769525528,-0.005277484189718962,-0.03985786437988281,-0.1086600199341774,-0.12584589421749115,-0.020964620634913445,-0.0745694488286972,0.008141902275383472
"Price increase",0.007984705708073242,0.016836835178522785,-0.050116356975423576,-0.1423636207300222,0.008714180691907238,-0.1461582516790357,-0.13562794703801867,0.04495408489048771,-0.08924854920198858,-0.12727352596053682,0.04115307570430152,0.06130761083711742,-0.03784502232677175,0.006447250834493956,-0.036697055357836426,-0.011813674095634392,0.1154086269686841,0.03619811985043854,-0.029535991369832638,0.07514500414391212,-0.16148838446929786,-0.02754499611140701,0.0009281370637282014,-0.07760287662974022,-0.11120115346554024,-0.1872767540392392,0.07956761620876232,-0.13669933514481122,-0.125932379789304,-0.0755072274504578,0.15563375000763605,-0.1410690424496214,0.08223188104111821,0.07132295028998116,-0.0005737547439569324,0.01733884651576707,0.05007426655841859,-0.10828062274395203,-0.03225057019204671,0.0034328240259034284,-0.08441033590755767,-0.07665271017847991,-0.05637317133071795,0.06742346425824329,-0.022408919411390147,0.06499880078481447,-0.01354876009453648,-0.0011621402284771895,-0.03916281641711728,-0.04314584843331525,0.1105521598570424,-0.037929011732552885,0.06763594310315997,0.07822319601998293,-0.03582004896329582,0.007575241132158937,-0.09707271516710704,-0.0313487539690259,0.16246423799323104,0.01942809636832616,-0.02446277342737646,0.038107445553652836,-0.048742790216530586,0.06874586993032758,0.0030827082844528506,0.029777816054078518,-0.031250845189447075,0.04989108326236419,0.10956604707786198,0.06627598072669942,-0.05681968145978448,0.03905143114430409,-0.03539920657481415,0.060660141624600074,0.0031099786956965106,0.1153430071022634,-0.08006438300736997,-0.04581464346337474,-0.017099987346795038,-0.03543025904547161,0.056724125246616824,0.02567836971837756,-0.08150775617886348,0.05996549508731312,0.055116359568684346,-0.07047907625543465,-0.08834357819849592,-0.0006987584589029847,-0.057552401665817085,-0.0127965277281052,0.008639946825567726,-0.02535230471677376,0.09155724177723544,0.05184321554857377,-0.09402061268744437,-0.0848098563547795,-0.04535565048336337,0.0382221883910786,-0.0073091277746745046,0.0076561357815738765,0.0776616310362928,-0.03973475313365797,-0.10972669645944218,0.07852930165456308,0.10450893722602896,0.04913409547264366,0.01490692499237371,0.037303581100448686,0.1828996924295923,0.08187501475081257,-0.07017534427681632,0.0662231654620602,0.09601013600338723,-0.03608853638231034,-0.017320969065921434,-0.05675057370614345,-0.046611123329310535,0.027821812145459646,-0.07486171199554155,-0.02499695660373497,0.03651164819570549,0.1180437522607766,0.03712594435621119,0.049681311450536635,-0.1022432359701296,0.03233348997908028,-0.09264346503100518,-0.02877944591991773,0.021722752495731436,0.0927960225142342,-0.020938647869956487,-0.09249837541173164,-0.07618571182135073,-0.04274392918489818,0.059506180897222864,0.07116225872929971,-0.06857176257646454,0.08109211898889516,0.07909885727972345,0.05248182478400962,-0.013836187417104571,-0.06904623163652718,0.019688161891597843,0.0999080322074619,-0.07891104847741927,-0.026784390111858382,0.001744406498767162,-0.057488765569050325,0.0663916370390844,0.049332353471340136,0.03062518446493788,0.08913381988350554,-0.05143236007623828,-0.02428639935238849,-0.1002817606750153,0.0335249533350629,0.028671950317302356,0.09404079376512857,0.05489954384694485,-0.002380437063474934,0.12319123786692908,-0.017482378752839887,0.01511140224547655,-0.015188033561117047,-0.021005343303459545,-0.0016410076765519832,-0.0014894240979561268,-0.052361248252423706,0.06339647945549197,0.045374794554636944,-0.08172220338183939,-0.06850680851797254,-0.04145890176714632,-0.06346785730999363,0.040990933831445656,-0.09873037872184097,-0.06186116152118756,0.07619523780914507,0.0391492287981738,-0.19505780322922175,-0.07626761930995384,-0.018619049293242988,0.028261522787098495,-0.04566625197753263,-0.052458870700795836,0.050086756979971364,0.047165554637309086,-0.031561260933343445,0.06691678726348937,-0.022056507612708942,0.06973011168783631,0.06547524617911255,0.050679999550230066,-0.016529226237512802,0.07001309235976676,0.05724642365005617,0.0062450247557319285,-0.07276845404684648,0.0018914882694390945,-0.1889106469666194
"Reduction",-0.0004947124398313463,0.07371259480714798,0.15105071663856506,-0.035995788872241974,0.024053342640399933,-0.0736880972981453,-0.02563248574733734,-0.10295160859823227,0.07556300610303879,-1.5126212929317264e-05,0.11243049055337906,0.02014398761093616,-0.03066932037472725,0.054896939545869834,0.08037424832582474,0.06123708561062813,0.00880523957312107,0.004426640924066304,-0.060645122081041336,0.015211923979222775,-0.15607532858848572,0.05014274269342423,-0.038793999701738364,0.010664287023246288,0.0007029549451544881,0.1100105419754982,0.038322340697050095,-0.13035069406032562,-0.1174531802535057,0.02186618745326996,0.05378320068120957,0.07796409726142882,-0.0745944082736969,0.17550671100616455,0.013050328940153122,-0.10218274593353273,0.0013059903867542744,0.02486555278301239,0.04411075264215469,0.02834978699684143,0.03696051239967346,-0.01401657983660698,0.09945667535066603,0.09378737956285477,-0.020295893773436543,0.10186883807182312,-0.14843925833702087,-0.0006465492187999189,-0.03171680122613907,0.15622587502002716,0.1502434015274048,-0.054554913192987435,0.0051347166299819955,-0.005465142894536257,0.014718607999384403,-0.1332807093858719,0.11590586602687836,-0.17802128195762634,-0.018316391855478287,-0.08102121949195862,0.020920585840940475,0.03568315505981445,0.00019292109936941412,-0.09463582187891006,0.03486321493983269,0.009404280222952366,0.03653426095843315,0.12126880884170532,0.015057694166898727,0.013290218077600002,-0.012056390754878521,0.008539923466742039,0.012430432252585888,-0.030204618349671364,-0.05582557618618012,0.06730501353740692,0.03055640682578087,-0.15720729529857635,0.021182507276535038,-0.12063749879598618,0.05032198876142502,-0.0016041805502027273,-0.02752994559705257,-0.05628451704978943,0.19082605838775635,-0.02872684597969055,-0.03787147626280785,0.038384880870580666,0.08544017374515532,0.06643564254045486,-0.018731852993369102,-0.0613483265042305,0.054467976093292236,-0.10057008266448976,-0.09011314809322356,0.018259752541780472,-0.06824787706136702,-0.06595862656831741,0.047004040330648415,-0.0113927461206913,0.07241100072860718,-0.02751339040696621,0.0611112006008625,0.031145839020609856,-0.02840428054332733,0.0037701062392443423,0.02118760347366333,-0.20400623977184296,0.11321843415498735,0.03175577893853188,0.08562396466732025,0.10113924741744997,0.01969527453184128,-0.02785174548625946,-0.008368270471692084,-0.07684865593910217,0.1443125605583191,0.015768462792038918,-0.09673986583948137,-0.04395729675889015,-0.11922813206911087,0.09652718156576157,-0.04728839546442032,-0.000902107043657452,0.0015660393983125687,-0.08738406002521515,0.009802916087210178,0.01924307085573673,0.040351327508687966,-0.047913022339344025,-0.0513133779168129,0.022928914055228237,-0.06821998953819275,-0.12089207023382187,0.0382087416946888,-0.007704946678131819,-0.025082046166062355,-0.01928357221186161,0.009274480864405632,-0.0001345987984677777,0.02752344682812691,-0.0015555366408079865,0.033789929002523415,0.017425708472728733,0.02347889356315136,-0.0870932787656784,0.1570972204208374,-0.079569511115551,0.08761873096227646,-0.14145895838737488,0.05272162333130837,0.061505615711212165,-0.04008660838007927,0.0841575637459755,0.014934229664504528,-0.1374015063047409,0.011302741244435309,0.02223825640976429,0.03178645670413971,-0.004611937329173088,0.015542767941951753,-0.09910560399293901,-0.031394250690937035,0.08432969450950623,-0.04263201355934143,-0.03378821536898613,0.0018868261249735954,0.030442515388131138,0.002777808578684926,-0.12036756426095965,0.0466148853302002,-0.054220758378505714,0.04839951545000076,-0.08235619962215424,-0.042709123343229294,-0.07284707576036452,-0.10291198641061784,0.0412982776761055,0.07235060632228851,-0.007980775088071823,0.0264299176633358,-0.05855748429894447,0.0783083364367485,0.010749805718660356,-0.10712756216526033,-0.11338376253843307,0.06919204443693161,-0.0007857019081711768,0.02478647232055664,0.01880195550620556,-0.006094544194638729,0.0614173449575901,-0.05735185742378235,0.0355166457593441,0.04432040825486183,-0.11832457035779953,0.004290072247385979,0.0197085440158844,0.0143516818061471,-0.054075077176094055
"Jump",0.09555850178003313,-0.0013610746245831251,0.01927456259727478,-0.022260894998908043,0.02305233292281628,-0.05560274422168732,0.002676764037460089,-0.08982222527265549,-0.020449573174119,0.12502607703208926,0.008892741985619068,0.15887314081192014,0.0791163221001625,-0.0907062441110611,-0.12012306600809095,0.011937232688069344,0.03718599677085877,0.03663437068462372,0.012490039691329002,0.0985862836241722,-0.1328599750995636,0.042757097631692886,0.00943805743008852,0.02657483890652657,-0.0015274082543328404,0.010249807499349116,0.10940271615982056,-0.061413038522005074,-0.04056772217154503,-0.011393711902201177,0.12956826388835907,-0.049271151423454285,0.05997523665428161,0.021087629720568657,0.043875645846128464,0.05920052155852318,0.0887836441397667,0.07671754062175751,0.0030666161328554158,0.06566155701875688,-0.12827962636947632,0.011115843430161476,0.0957103818655014,0.006936476565897465,-0.04177622124552727,-0.10640224814414978,0.06915411353111267,-0.037590168416500085,-0.12841714918613434,-0.006806613877415657,0.05636514723300934,0.015905523672699932,0.0020204100292176013,0.007843280211091042,-0.080013707280159,-0.10096488147974014,-0.019382122904062268,-0.033591900020837784,0.07372437417507173,0.02611318975687027,0.009358042851090431,-0.003285597078502178,0.03283500298857689,0.05606873705983162,0.07268843054771422,0.061609454452991486,-0.07181231677532196,0.13208884000778198,0.12191865593194963,0.03834347054362297,0.019531561061739918,0.04942145198583603,-0.08861787617206572,0.03976074606180191,-0.048764325678348534,0.020008521154522896,-0.030159935355186462,0.0004554371407721192,-0.06935111433267592,0.1501932144165039,-0.05200817808508873,0.04319149628281593,-0.01668635942041874,-0.02795080840587616,-0.03857725486159325,-0.04010647535324097,-0.07630850374698639,-0.07676871120929718,-0.02156633138656616,-0.041769657284021385,-0.07145613431930542,0.11153215169906616,0.09905273467302322,0.1387953907251358,0.04873496666550636,0.00048780406359583134,0.0688616931438446,0.02235612086951733,-0.027466030791401863,-0.022363008931279186,0.12477102875709535,-0.0515194907784462,-0.02122855558991432,0.01686825416982174,0.017821799963712692,-0.06574705243110658,0.009801142849028109,-0.015112709254026413,0.0033518197014927864,-0.03231057524681091,0.04291035234928131,0.1474514901638031,-0.008168801665306091,-0.02448341436684132,-0.039502929896116264,-0.017246723175048828,0.021698711439967155,0.113401859998703,0.00022925803204998374,-0.042430229485034936,0.0557292066514492,-0.055193498730659485,0.06046903505921364,-0.016500059515237808,-0.14884613454341888,0.11648397147655487,-0.002946323016658425,-0.06236258894205093,-0.013285071589052677,-0.0371541790664196,-0.0790807455778122,0.07898653298616409,-0.13013987243175507,-0.09711437672376633,0.12970152497291565,0.052897926419973366,-0.027509301900863647,0.028055986389517784,-0.0011114608496427538,0.014783809892833231,-0.08367839455604552,0.07299432158470154,0.13815857470035553,-0.1085093468427658,0.09223972260951996,0.04033692553639412,-0.09206930547952652,-0.057988166809082024,0.014410560950636862,0.0961114764213562,0.07921083271503447,0.13896027207374573,-0.08005236089229584,-0.022714123129844662,-0.07887699455022812,-0.023752231150865555,-0.050695594400167465,0.044206220656633384,-0.00836107786744833,0.06763383001089096,0.04692911729216576,-0.11169520765542984,0.08896816521883011,0.025949707254767414,0.07728077471256256,0.041240733116865165,0.08065694570541382,-0.06211838126182556,-0.002754719462245703,0.11486553400754927,-0.08800236135721208,-0.07508391886949539,-0.012481444515287876,-0.019349513575434685,0.047308310866355896,-0.025915201753377914,0.04416956752538681,-0.1326049119234085,0.04291240870952606,-0.12392372637987135,0.07413452118635178,-0.042254187166690826,0.11349058151245114,-0.10895058512687683,-0.045743931084871285,-0.028439488261938095,0.16044320166110992,-0.04342577606439591,0.04348837211728096,-0.02259260416030884,0.08321801573038101,0.016277899965643883,0.08317262679338455,0.1239263266324997,0.055755961686372764,0.05238393694162369,0.0609726682305336,-0.02598736435174942,-0.17796474695205688,0.047948986291885376
"Upward revision",-0.04560062309510368,0.024388971390714085,-0.04161239602101015,-0.0083354491773971,0.11451428375142927,-0.02105451851685371,-0.07199042932207983,0.1099854835949462,-0.1156766098147968,-0.04596923248510108,0.12885132638382726,0.03262066416584704,-0.19948921920805476,0.011913458251744636,0.03762203987210699,0.09522005881294568,0.03215869116705613,-0.000889032025574702,-0.022194055573962077,-0.08983881838851086,-0.17165200638106567,0.04173335799535427,-0.05949361472924852,-0.07201362651996375,-0.15221001113328328,-0.057150616763462836,0.08240922243060933,-0.12960213105480686,0.03335232445746895,-0.1013826093010167,-0.007661432330377273,-0.09045507519416154,0.03637808701306621,-0.09203582155503756,0.09803948750213208,-0.007974296524669314,0.13524380377501147,-0.10210604015301536,-0.00850057329245267,-0.08088407907091168,-0.09044802585930964,0.04807423304759267,0.09220530535291832,0.13265242875447453,0.02482343002303789,-0.10858346971535557,0.18466831550195345,0.02455122138516739,-0.13117477836679384,0.06166690929170635,0.17819754876887825,-0.08043151945961069,0.04748354490414778,-0.08759895482687377,-0.037371873032961855,-0.10825556144990996,-0.053746848312547,-0.021083488009601303,0.05012166568916796,-0.04148275633742389,0.11718899025492263,-0.048257673869663835,0.01610182631864084,-0.0008656846724663162,0.014017378355436488,0.038648369223208315,0.09095787504162273,0.19537007105259116,-0.042687764366476026,0.07566912279299337,-0.0591282154218741,-0.008536763721121055,0.019467278422906967,-0.005982032614500743,-0.0455461455718417,0.08897879075236184,-0.04523768007465506,-0.008555468066064137,-0.05313830116787696,-0.07118155026512155,0.08591225762199013,0.06402333173847324,-0.01859618486827859,0.0020153140410296482,0.06729630387136362,-0.14446676479358908,0.08916984968739289,0.08419152816096946,0.02197718421467894,-0.030594263824207487,0.07727382701012073,0.020938216021083426,0.07740070844929141,-0.04688827194798108,-0.06698930986792596,0.040088973269990516,-0.07837837433134273,-0.04224819990750715,-0.05252079988560825,0.011860626671308671,0.03863129050758738,-0.08046730526524279,0.04625182900963301,0.04995795312243697,0.015465423732793672,-0.022071726418456356,-0.02008191265312374,0.06690969506990832,0.09830946275260558,-0.05080112137390536,-0.053105332900131134,0.0871637122031038,0.020587615375775414,-0.0610909643599525,-0.008589387362649298,-0.11643503204972265,-0.059187989828520124,-0.016119455969427175,-0.13777091784961815,0.017620141595974543,-0.014135967492924704,-0.0022670045988441344,0.08094705093286747,-0.009440250520357357,-0.08211727345909904,-0.006428639820158099,-0.11487111625031235,0.02527524626990045,0.03298873936559437,0.02438917754532755,0.0732621938384617,-0.04182626070721568,-0.05561738423712128,0.03158656297797287,-0.1451224561493754,0.12359093703298578,0.06504293237867544,-0.05073768751699024,-0.0036743592829082475,0.034058978825843245,0.0020914959255221967,0.05072836169717235,0.006893414984453999,0.06032307767927025,0.006155280998758409,-0.001510507754675701,0.06486120887120057,-0.04824017296257086,-0.04081252600301232,-0.04518242624613759,0.13505608943093975,-0.056615830284604374,-0.05920988888370489,0.01336981857759603,0.06838438956827105,-0.019737339456758245,0.006752301945657321,-0.008108257494440876,0.04311039175533735,-0.001322975683125064,0.12802907088457932,0.0529768692037141,0.07635918020519633,0.005954820685910321,-0.02140322671222133,0.12305811272879714,-0.13519615817720876,0.004517018324246179,0.09782811725929877,-0.023187726300997996,0.031588789777206465,-0.07489577013273283,-0.01701709872458265,-0.056048481808077234,-0.005175582119280581,0.04693888770945581,0.05441776203165925,0.013915707621592823,-0.00044490306738786375,-0.025007769580401323,0.06251754879499187,-0.06020238801568052,-0.061987027808809825,0.03747145312294914,-0.09670183119486843,0.019801542069991625,-0.054722250474198916,0.0002503018964950933,0.09290600155100599,0.0026644575172772053,0.09801638281304273,-0.015215433676033459,-0.006512486483768039,0.048266277462067575,-0.0383465830256952,-0.05035135624191872,-0.02420459834351997,0.004072608271087054,0.03072283855862872,0.01562776355960018
"Fair wind",-0.002593308180963161,0.05504233742213998,0.007194758070302334,-0.0773976756200267,-0.0210516025810253,-0.09687958817577254,-0.027004677505123247,-0.008242936423039698,0.014167375946123746,-0.05035637464886912,0.06558630721653627,0.026160343500616613,0.041887357616676835,0.02707374174932384,0.009572702507592306,0.07104058134617741,-0.054018987355649015,0.008736808348042005,-0.056262409352410746,-0.08746863082861511,-0.11016295093101966,-0.10311607458288848,-0.08000297731713428,0.05614863825655352,-0.02547828934554592,-0.12519487480678193,0.13917596140629948,0.032469626549249744,-0.0002481890312464353,-0.02824426384631745,0.03884229332996639,-0.08883795099124776,-0.15866056490731734,0.040478399970437486,0.030404202123770707,0.011558067804969254,0.02103637114318646,0.04654110004067323,0.14016790445151595,-0.007046109811624542,-0.04806024631681655,0.08662883646777204,0.011081742814092629,0.01238313910451673,-0.10911591965250417,0.01146037610313825,0.05050689481551207,-0.0392863800989557,0.04763772980568976,0.1251473316707585,-0.09894649031881113,0.04176201102523126,0.017470502889756594,-0.01650855517763027,-0.03690460918490097,-0.011162649153689893,0.0461567137561362,-0.10558088662085298,-0.0657288035729331,-0.08225147612886798,-0.10122347311081098,0.006924548242411161,0.0570139566943904,-0.011971437339350636,-0.031776224774404525,-0.09457269109801716,0.015848869094001194,-0.09679815856578798,0.020748930875355467,-0.060039677849383875,0.011652113493779124,0.10115776147090393,-0.1808643363977865,0.11014632344353276,0.04745453651691349,0.01578953996272699,0.03170322309430107,-0.07873195751809241,-0.13021848301029873,0.0357277542254213,0.01587131895746967,0.034133130912294966,-0.0751350522312971,0.09707347822333874,0.0259388784937322,-0.038274430835674014,-0.04275895331331535,0.0593692413891263,0.030188444686153375,0.047865915411466745,-0.052069207423376763,-0.0405895112739798,-0.06116850512644732,-0.01214030465843362,-0.14523599758841318,-0.07616428660733778,-0.0415383246015082,0.00928644754151621,0.009565025227450851,-0.10355851409272693,-0.048296228353487326,0.003410539361007672,-0.18297848379996773,0.007581288323689008,-0.07879042578518106,-0.08153607329172137,0.05219537615501337,-0.045895366510141374,0.08326924795430428,0.1071463101493628,0.020708559621699055,0.02913846790174811,-0.09338600669793218,-0.05510270812957409,0.04089738961929548,-0.05218308426552667,-0.04080669802416356,-0.026042168295076596,0.11821179673606008,0.10653849823851763,0.0380705390133154,0.12543424271066458,0.0506256474057394,-0.04913140363683193,0.07724229708145769,-0.03191288472978332,-0.09696131169094616,0.02000403115243259,0.016762567701896575,0.046161447516233765,0.01707966868778829,0.04133856265592899,0.02437171446440203,0.0031141121476825897,0.010818973702453395,-0.005310120088402596,0.100034638536108,0.05072284016379505,-0.0991338221103848,0.019191757140146253,0.17530418242732232,-0.011019881729331526,-0.0431390794619953,0.12435762828619272,-0.00518158820017822,-0.09174895082313422,-0.08292414170111695,0.0936760871478501,0.010603588859167816,-0.07230275618770504,0.1158688937903366,0.03311376494908485,-0.059034717708591276,-0.02398837074894784,0.025420681942642808,-0.021296459362898392,-0.16184984628587276,-0.07080446377552588,0.010625317984700094,-0.03244183463627001,0.040552863729564265,-0.0430211663881104,0.1350211678463927,-0.03367502804314053,0.03497733285805111,0.0013081481663891675,-0.06209155905424608,-0.010000894566221509,0.008346696869855773,-0.03579504659864253,0.07327260111240315,-0.03274475159390505,0.09328034827892387,-0.015077247084331431,-0.014335577091488753,0.010422146093527795,-0.1450291836559115,-0.09140305817498157,0.041291982655153533,0.0006321582881503311,-0.15894269899497815,0.0030859627824458852,-0.07586063985134475,0.1941588754936017,-0.0348976706508927,-0.06663143208301459,-0.12253428021013515,-0.010010456414095564,-0.1422242557954362,0.06067694472604013,0.015871649724922738,0.10280372982197578,-0.016618030888866184,0.05019658951830998,-0.0788683394550491,0.07694163405888747,-0.0832019866099248,0.08913436653772835,0.01597832837224783,-0.009375317371291242
"Contribution",-0.03237345442175865,0.03684655576944351,0.1435641050338745,0.01554511766880751,0.0541306771337986,0.014592216350138187,0.04140802100300789,-0.03990286216139794,0.02360356971621513,-0.0226806178689003,-0.050304252654314034,-0.04378264024853706,-0.08139301091432571,0.032520197331905365,0.06124796345829964,0.17399591207504272,0.1022176519036293,0.016022266820073128,-0.13511468470096588,0.041638955473899834,-0.12520685791969302,-0.05799901485443115,-0.0019349668873474,-0.016299473121762276,-0.11712677776813507,-0.047801442444324486,-0.004825312178581953,-0.08603183180093765,0.01487600617110729,-0.20424573123455048,0.09737791866064073,-0.1455843448638916,-0.0063874591141939155,-0.028014402836561203,0.0592348612844944,-0.02214936167001724,-0.013638587668538094,-0.014716802164912226,0.002040327526628971,-0.016145924106240273,-0.0963740348815918,0.0674826130270958,0.14979645609855652,0.056712817400693886,0.006718759890645742,-0.014921861700713634,-0.01812223345041275,0.0336124487221241,-0.007740913424640894,0.07589134573936462,0.028504960238933563,0.03434913977980614,0.09361930936574936,-0.02257237210869789,0.008585202507674694,-0.01915767602622509,0.027520252391695976,-0.002584832021966577,-0.02464586496353149,0.05586142838001251,-0.05472435429692269,0.08256075531244278,-0.0013496822211891413,-0.009086562320590021,-0.06552067399024962,0.04248448088765144,0.08228618651628494,0.1503228396177292,0.02517411671578884,-0.023155642673373226,0.09677551686763763,0.1130942553281784,-0.08852442353963852,0.07864756882190704,-0.11972670257091522,0.07722804695367813,0.06616447865962982,-0.11251996457576753,-0.14933334290981293,-0.03234818950295448,0.026016389951109886,-0.03825787454843521,-0.10339238494634627,-0.0530804768204689,0.009242176078259943,0.09191012382507324,0.033151518553495414,0.033734623342752464,0.0012994091957807539,-0.0050580762326717385,-0.08256018906831741,0.11475080251693726,-0.004688068758696318,-0.0331248939037323,0.0910208821296692,-0.0014381712535396216,-0.01710205152630806,-0.09619631618261336,0.004710369743406773,-0.07210075110197067,-0.035430073738098145,0.029797771945595738,-0.05887994542717934,0.05354002490639687,0.052259527146816254,0.005848533473908901,0.07348116487264633,-0.0014511834597215054,0.1465703547000885,-0.02852110378444195,0.156022310256958,-0.003029255196452141,0.1790086328983307,-0.0882674902677536,-0.1703374832868576,-0.04346596822142601,0.05232486128807068,-0.03703969717025757,-0.13487081229686734,-0.0316966287791729,0.018532805144786838,0.019116267561912537,0.08498229086399077,-0.07176389545202255,-0.006001253146678209,0.11304912716150285,-0.020327255129814148,-0.07924637198448181,0.015311144292354584,0.03762947022914887,0.01773292757570744,-0.031739454716444016,-0.04521297290921211,-0.013419327326118946,0.05006556585431099,0.06299963593482971,0.043215420097112656,0.046249426901340485,-0.037504732608795166,-0.10477519780397417,-0.02134773321449757,0.05561723560094834,0.08008311688899994,0.07373219728469849,0.039035923779010766,0.08043885976076126,0.05405400693416596,0.08329851925373077,-0.0067589362151920795,-0.028903800994157788,0.09092125296592712,-0.0473867766559124,0.12354951351881027,-0.0005522333667613566,0.11685878038406372,0.016957128420472145,-0.03861541673541069,-0.07447178661823273,-0.06476667523384094,-0.0015371856279671194,0.02795066311955452,0.005631366744637489,-0.06386192888021469,-0.017933640629053116,0.16789120435714722,-0.11514157801866533,-0.057328421622514725,0.03472723066806793,-0.00952419638633728,-0.08915773034095764,0.02520631067454815,0.020484654232859608,0.043891359120607376,-0.01360892504453659,0.029843036085367206,-0.010658418759703636,0.07598959654569626,-0.054097477346658714,-0.07718723267316817,-0.0652930811047554,0.11005865782499312,-0.03182204067707062,-0.03809693455696106,-0.008347732946276666,-0.011227198876440523,-0.11184658110141754,-0.07799193263053894,0.0948641076683998,0.15666228532791138,-0.11521421372890472,0.02530835196375847,0.0249765869230032,-0.04380733892321586,0.07031005620956421,0.0857158750295639,-0.019069705158472058,-0.035857994109392166,0.04016135260462761,0.08072192966938019,-0.059086654335260384
"Benefit",-0.018530121073126796,-0.11485234647989273,0.0670669749379158,0.02222822792828083,0.04576390609145165,-0.09208153188228607,-0.0019312901422381399,0.14603538811206818,-0.014538957737386228,-0.1197960376739502,0.024918034672737118,0.025350354611873627,-0.08856114000082016,0.01150021608918905,0.0782652497291565,0.0696820467710495,0.0341765433549881,0.06256671994924545,-0.060269109904766076,0.02933613024652004,0.05673764273524285,0.0056599415838718406,0.11831767112016678,-0.15184634923934934,-0.04655088111758232,-0.1048378273844719,0.01036403700709343,-0.040894921869039536,0.05110570415854454,-0.07684396952390671,0.06699428707361221,-0.044122956693172455,-0.027065182104706764,0.07153638452291489,-0.04699918255209923,0.031759850680828094,0.038977231830358505,-0.10262780636548996,-0.05775713175535203,0.005722105503082275,-0.08754477649927139,0.03434009850025177,-0.060905437916517265,0.11130417138338088,-0.09405539929866792,-0.024401290342211723,-0.033925220370292664,-0.01889922469854355,-0.026162948459386826,0.06199270114302635,-0.01873605139553547,0.03617997094988823,0.02013980038464069,-0.01387654710561037,-0.0360586903989315,-0.1256994903087616,0.1162608191370964,0.026897571980953217,0.006440065801143646,0.01224551722407341,-0.027983566746115685,0.01864180900156498,-0.038985725492239,0.0006865485920570791,-0.100262813270092,0.05983603373169899,0.005858501419425011,0.014876043424010275,0.03628956526517868,0.09365201741456984,0.040578227490186684,0.1286095380783081,-0.17433831095695496,0.0875868871808052,-0.012052171863615513,-0.016476541757583618,-0.07006929814815521,-0.13069534301757812,-0.08324486017227173,0.01451690401881933,-0.05510096624493599,0.00490689929574728,-0.13714183866977692,0.051269032061100006,0.025641733780503276,0.1407221555709839,-0.05911315232515335,0.0743204653263092,-0.0540514811873436,-0.04667036235332489,-0.058317117393016815,0.03433122858405113,-0.033615656197071075,0.01125541515648365,-0.02790931612253189,0.021460343152284626,-0.02739058062434196,0.012563426978886127,0.03334443643689156,-0.05099648982286453,0.08281970024108888,-0.039043299853801734,0.05586250126361847,-0.0459015853703022,0.12965115904808044,0.03713075816631317,0.14873309433460236,-0.1674422323703766,0.061613477766513824,-0.05005219578742981,0.05675547942519187,-0.036508403718471534,-0.024755137041211128,0.04991833865642548,-0.008276716805994509,-0.1810656040906906,-0.010510042309761049,0.08421623706817627,-0.10012684017419816,-0.06662198901176453,0.06464285403490068,0.1522582769393921,-0.0061645680107176295,0.02461579442024231,-0.001853169989772141,-0.06156745553016664,-0.0422353558242321,0.05659950152039527,-0.005234916228801012,0.02478918805718422,0.032150425016880035,0.04920554533600807,-0.07040409743785858,-0.05458138883113861,0.0160022433847189,0.08626267313957214,-0.04816360399127007,0.023082440719008446,0.05993657931685448,0.0511452741920948,-0.04556066170334816,0.013332976028323174,-0.006406521890312433,-0.061662357300519936,0.020147351548075683,-0.12712369859218595,0.07838835567235948,0.09726858884096146,-0.031166331842541695,-0.04994525387883186,0.047437384724617004,0.011487212963402271,-0.03318432345986366,-0.023927023634314537,0.13434334099292755,-0.0065758354030549535,0.07263226062059402,0.07225523144006729,0.07936086505651474,0.025172017514705658,-0.023863716050982475,0.07022642344236374,-0.06394612789154053,0.030803281813859936,0.0020724062342196703,-0.06406711041927338,-0.022246019914746284,-0.16784469783306122,0.009923839941620828,-0.0959472805261612,-0.03208427131175995,0.026309596374630928,0.08054465055465697,0.035380423069000244,0.0976303443312645,0.01912867277860641,0.15169139206409454,0.10618426650762558,-0.022539347410202026,-0.08134791254997252,-0.04614419490098953,-0.08573050051927568,-0.08791012316942215,0.0759333148598671,0.08176637440919876,-0.07978960871696472,-0.1424480527639389,-0.01816895417869091,-0.08053246885538101,-0.10245653241872787,0.09254081547260284,0.018102467060089108,-0.023559635505080227,0.10971294343471527,-0.08082357048988342,-0.08553938567638397,0.1010843962430954,0.13278791308403015,0.04622555524110794,-0.05878503620624542
"Expansion",0.02808397077023983,0.14983010292053225,-0.07122005522251129,-0.03398723155260086,-0.16699543595314026,-0.022933220490813252,0.017701677978038788,-0.03782487660646439,-0.1630624532699585,-0.03567589074373245,-0.09340320527553557,-0.04516635462641716,-0.03822951763868332,-0.0019147275015711784,-0.009347532875835896,-0.09147924184799194,-0.0493471696972847,0.0356052927672863,0.0896860808134079,0.048514917492866516,-0.048981860280036926,-0.08451147377490997,0.09919189661741257,0.04015636816620827,-0.044071882963180535,0.01736863702535629,0.06826002895832063,-0.031636469066143036,-0.03384990617632866,-0.0022204364649951462,0.055289551615715034,0.014601134695112703,-0.0254985261708498,0.0007904574740678072,-0.02514427527785301,0.013837166130542757,0.05008653178811073,-0.07978009432554245,0.06544151902198793,0.10350531339645386,0.05377795174717903,-0.01599014177918434,0.07042837888002396,0.05614304170012474,-0.0960189327597618,-0.07002966105937958,-0.0468200258910656,-0.024898825213313103,-0.14008328318595886,-0.03836774826049805,0.001312187989242375,0.035779543220996864,0.030643826350569725,0.13896295428276062,0.01857625693082809,-0.0536688044667244,-0.006221085321158171,0.11301980912685396,-0.12115537375211714,-0.1358579844236374,-0.11900036782026292,0.13210350275039673,-0.11444011330604552,-0.018843827769160267,-0.0013814972480759025,-0.02641005255281925,0.024602558463811874,0.029316265136003494,0.04952256008982658,0.06380853056907654,-0.03892670571804047,0.033538755029439926,-0.06746236979961395,0.06290224939584732,-0.09533326327800752,0.025402382016181942,-0.052230022847652435,0.04718206450343132,0.02000364102423191,-0.11220241338014604,-0.05284592509269714,-0.13190045952796936,0.014805281534790991,-0.020526500418782238,-0.016541844233870506,0.03251984342932701,0.016467617824673653,0.034004628658294685,0.2024979442358017,-0.014645912684500216,-0.07226838171482086,-0.013189555145800114,0.02332190982997417,0.04553015902638435,-0.0899263322353363,0.05799093842506409,-0.08449514210224153,-0.05465688928961754,0.07722460478544235,-0.04024799168109894,0.07237135618925095,-0.03974868729710579,0.008539095520973206,-0.01647394709289074,-0.02657626941800117,0.004721724893897772,0.023980041965842247,0.01161283627152443,-0.033066146075725555,0.038881834596395486,-0.023040752857923508,0.0017745626391842961,0.035498056560754776,0.05602885782718658,0.013673246838152409,0.033164475113153465,-0.008256396278738977,0.06697718799114227,0.020456956699490547,0.006990297231823206,-0.1052289605140686,-0.09865067899227142,0.014321714639663696,-0.0348120778799057,0.06628698855638504,0.09343865513801576,-0.07019678503274918,0.0014716375153511765,-0.05483434349298477,-0.00041009133565239614,0.05148914083838463,0.12268006801605225,-0.10154591500759123,-0.10506433993577956,-0.0058849845081567756,-0.02493208646774292,-0.10603012144565582,-0.06322542577981949,-0.062364805489778526,-0.02686378546059132,0.10312590003013612,0.03426792845129967,-0.005748889874666929,0.019777098670601845,0.06753328442573547,-0.06398477405309677,-0.058858457952737815,0.22681163251399994,0.16501498222351074,-0.09004687517881392,-0.0006147436215542258,-0.020259549841284752,-0.11671029031276706,-0.05048933252692223,-0.009483578614890577,-0.006242646370083094,-0.14021959900856018,0.0917048528790474,0.008677600882947445,0.06455601751804352,-0.015011478215456009,-0.009966780431568623,0.08551198989152907,0.008628821931779385,0.1560792177915573,0.06541908532381058,0.04518124833703041,-0.005060563795268536,0.07630327343940735,0.001096860971301794,-0.08546223491430283,0.05519086867570877,0.06235994026064873,0.02242724969983101,-0.016114765778183937,-0.0016711330972611904,-0.0045774769969284534,-0.14249098300933838,-0.002340917941182852,-0.2386309653520584,0.07659009099006653,-0.057370308786630624,-0.032040081918239594,-0.01843622513115406,-0.03366487845778465,0.009217509999871254,-0.03682977706193924,-0.1024334654211998,0.09997514635324478,0.04522843658924103,0.14733567833900452,0.03168203681707382,0.08738018572330475,-0.07482191175222397,0.009428846649825571,0.039278533309698105,-0.06521831452846527,-0.06441302597522736,-0.007721396628767252,0.029504021629691124
"Reinforcement",0.0799630805850029,-0.03915753215551376,-0.04714890196919441,0.06667721271514893,0.04084349796175957,0.02196396328508854,-0.04480154812335968,-0.0050157979130744925,-0.05309266969561577,-0.04574062675237656,0.13155238330364227,0.07361489534378053,-0.11424678564071655,0.08819074928760529,-0.0710199698805809,-0.043243307620286935,-0.016042519360780716,0.03676842525601387,0.012991838157176971,-0.08251212537288666,-0.09869903326034546,0.07746437191963196,-0.09684567153453827,0.02619035355746746,0.035510607063770294,0.0184121523052454,-0.015036387369036674,-0.03130137547850609,-0.21106939017772675,-0.12028715014457705,-0.0804598405957222,-0.09254441410303116,0.0017992422217503192,-0.16793391108512878,-0.04110750928521156,-0.02017680741846561,0.06664226949214935,-0.041408464312553406,0.023198891431093216,0.07194293290376662,-0.026761608198285103,-0.016972225159406662,-0.016483653336763382,0.0043832482770085335,-0.03012622520327568,-0.015696879476308826,-0.18011674284934998,0.06486734747886658,-0.0504407212138176,0.025862473994493484,-0.02971705049276352,0.13097207248210907,-0.061995204538106925,0.003599435556679964,0.13624587655067444,-0.037043698132038116,-0.033571656793355935,0.11087258160114287,-0.11069020628929138,-0.00959094613790512,-0.00579325994476676,-0.008618680760264397,0.007382648531347512,0.07197070866823196,-0.15714092552661896,-0.12322288751602173,0.0999959483742714,-0.12099552899599075,-0.07400507479906082,0.035441216081380844,0.06435521692037582,0.06868333369493483,9.492794197285548e-05,0.034410078078508384,-0.03132365271449089,0.0904235988855362,-0.031644877046346664,-0.00882505252957344,-0.02158279530704021,-0.07226566225290297,-0.06628351658582687,-0.048981867730617516,-0.045820865780115135,0.07432310283184053,0.017125984653830528,0.012833253480494022,-0.019725454971194267,0.0007239314145408571,0.02196740172803402,0.03317420929670334,-0.04363730549812317,-0.0004579771484714002,-0.07834334671497345,-0.06653498858213425,0.004811408463865519,0.06293052434921265,0.002876076847314834,0.09359049797058104,0.058047901839017875,-0.005436744075268507,-0.07235591858625412,-0.04036325961351395,-0.04350871592760086,-0.006374915130436421,0.01987351663410664,-0.06230466067790985,-0.10654470324516296,-0.06566160917282103,-0.012325546704232693,-0.0972602590918541,0.06857690960168839,0.041215337812900536,-0.00412288261577487,0.05234798416495323,-0.025371178984642032,0.02914097718894482,-0.08585909754037857,0.04001697897911072,0.0842810571193695,-0.00924115814268589,-0.031313885003328316,-0.04245409369468689,0.006294115912169218,0.03652426227927208,-0.1604551523923874,-0.0740932747721672,0.032466646283864975,0.054968714714050286,0.12237928807735445,0.03572692722082138,0.1134231761097908,-0.11661040037870407,0.05008333548903465,0.05943220481276513,-0.11526031047105788,0.08296296745538713,0.07311743497848511,0.08989369869232178,-0.06834220141172409,0.10307706892490387,0.0024683359079062943,-0.04216180369257927,-0.03851236402988434,-0.03445252776145935,-0.012556779198348522,0.08586454391479492,-0.09177050739526747,0.14553190767765045,-0.005914454348385334,-0.02986698225140572,-0.14374135434627533,-0.12899737060070038,0.07618927955627441,-0.055179998278617866,0.0593918040394783,0.0045617371797561646,-0.041199278086423874,-0.077549047768116,-0.03873063996434212,0.05128877237439156,0.07007939368486404,-0.14704084396362305,0.11365687102079393,-0.06953790783882141,0.04831942543387413,-0.09714213758707048,0.035258948802948,0.068997822701931,-0.01683991216123104,-0.058143112808465965,0.03161545097827912,0.06720971316099167,-0.034028153866529465,-0.005412124563008547,-0.011067195795476437,0.02928274124860764,-0.013586808927357195,0.05642446875572205,-0.011726112104952335,-0.044859375804662704,-0.030238825827836987,-0.008390835486352444,-0.06614908576011658,0.07552970945835114,0.0402415357530117,-0.02589079737663269,-0.09204887598752977,0.006608906667679547,-0.08940073102712631,0.03321080282330513,0.12074583023786545,0.09039923548698424,-0.0347767099738121,-0.15803085267543793,0.11077537387609482,0.02391100488603115,-0.04460949078202248,-0.17050965130329132,0.02626769989728928,0.06873714178800583
"Tax increase",-0.01591028237886781,0.058564368401944726,-0.049202330658163165,0.009566047988391791,0.03682582078928635,-0.004001308727530185,-0.05226167031115208,0.09172101900011204,-0.12284086003163602,-0.11279190002163557,0.049328643008753184,0.0994163054704236,-0.09383952163370284,-0.023377749910053227,-0.05514434289063977,0.06738393084334711,0.1167774417878314,-0.058971092192049074,-0.2476219132741657,0.0735302130693105,-0.17145940304444515,0.04579690835141488,0.07076655865222646,-0.03654108028704869,-0.12107587050588782,-0.02908583041242068,-0.010960275393548177,-0.1146457216179034,0.01773789285916979,-0.08465365191833682,0.2257891448244323,-0.07498676614363442,0.05272260645290633,0.047512174374700934,0.08224691291032507,0.05187050486517416,0.03745685051722458,-0.0007774958813715339,0.06361983317549276,-0.06901405241205412,-0.030294908000252467,-0.10362994561031454,-0.022982863356891783,0.02892076613716175,0.0300929074858772,0.042968052875778685,-0.021205847151368463,0.10252213914968487,-0.06337472636354928,0.09721535915699003,0.08598172338102966,0.0015015029242040694,0.04129624979344944,0.050985442333816765,-0.062086178658063075,0.003166871597354713,0.07355454049460454,-0.07727676132586253,0.13990592762562432,0.07077836188660973,-0.07262556090915842,0.06925302240113035,-0.05093697762912136,0.003293415318745236,0.08581196010542494,0.09347973467012108,-0.06615647218762295,0.02852909755556465,0.12310008122938422,-0.027513541828818253,-0.038206701550642284,0.06642627150497439,-0.03984700752510421,0.034072966403247334,0.039061217064449816,0.05081167027147797,-0.09278393492359714,-0.09001567252053744,0.04145276076318232,-0.08940735087794817,0.002122504197976684,0.029622084013362707,-0.03240695705028894,0.03097284771058725,0.03077655118950441,0.06308600321564313,-0.1934450756360073,0.02259248687256061,0.06848112236957213,-0.061969376030860536,0.039577623396901934,0.010694485054674564,0.11017359248575884,0.0217202232370036,-0.025196813987604417,-0.025640987634436348,0.00012702947224237288,0.006629181464654889,-0.09030196691418434,-0.02969334673122925,0.13588538316436088,0.030858741256270836,0.026212362555917204,0.05504783697929429,0.00964717553908438,-0.010544339977684357,0.03371231991631613,0.07475409659876503,0.11510049383700602,0.0717073442842976,-0.0036943696670213117,0.14878559636611796,0.12086825752390695,0.016886206971903458,-0.0021157343650519507,0.006974282901693514,-0.00585029531321369,0.062255604464654925,-0.033415195835256414,-0.07477322597862758,0.05109703330178103,0.08267665413237353,0.053773665453756114,-0.03204804955140736,-0.19723847277261186,0.02390357034967254,-0.06060799279738116,-0.06371121722759299,0.10207013315385437,-0.00800132791437788,-0.04554057609294347,-0.0560217091471517,-0.05508873004258647,-0.13823288306638107,0.08182625880842305,-0.039345049979569564,-0.08073070963139396,0.05906736903351915,-0.07542402640538197,-0.016967086022686578,-0.05472421595624117,-0.028306998971864894,-0.08325331504575588,0.09467309054814524,0.034600352238901316,-0.00617212314864846,-0.0008807245845066197,-0.11915069159816652,-0.07151041079045299,-0.03286486670857782,-0.0015424767755326625,0.06403628220896783,0.0601205494872998,-0.0743905325388226,-0.09598851203602253,0.055129814849635965,0.02707867925884126,0.14256535115886845,0.09710921799401058,0.04780763667653065,0.01613901448165949,-0.03869689421054514,-0.0672804960795875,-0.003700523618997568,0.008303045153229362,0.020764321613654144,-0.01752683564799094,-0.03895876454004432,0.013990917141868132,-0.01560650284203192,-0.05628751814908437,-0.05817173138654405,0.04346626247000381,-0.1358198446367959,0.027850557303781973,-0.004641017033582579,-0.012199449848502266,0.08165504339342962,0.04716677637398434,-0.03524155768021079,-0.01101208225584806,-0.0381278831061044,-0.046630775874801966,0.038507446776473386,0.003796988625008153,-0.03934073446673838,-0.07235404663564161,0.03495837209201574,0.018015686101592626,0.09598005281276673,-0.06715938714325415,0.13343303879847732,-0.0013940405189075944,-0.015966953652461455,0.07481078116659252,0.0030003265489726705,-0.06400536288895585,-0.04152718495211937,0.04419409109374869,-0.03333668929389707
"Fall",0.031034268438816067,-0.17025016248226166,-0.062237009406089776,-0.019416622817516327,-0.06884437799453735,-0.08033564686775208,-0.009248229674994946,-0.11306431889533995,0.02359537594020367,-0.0794677808880806,0.0233207456767559,0.051962457597255714,0.11294333636760713,0.031961243599653244,-0.08195381611585617,-0.07799605280160904,0.03512580320239067,0.044167160987854,-0.004659084137529135,-0.0192020945250988,-0.04425978660583496,0.015465933829545975,-0.015940511599183086,-0.07969872653484343,0.05012505128979683,-0.040580589324235916,0.05785379558801651,-0.0503939688205719,-0.11076310276985167,-0.0006663650274276732,0.15282078087329865,-0.10674871504306792,0.1516394019126892,0.01713363640010357,0.04847851023077965,0.06460165977478027,0.11024369299411774,-0.008074147626757622,-0.007079523988068105,-0.0926368162035942,-0.0957486480474472,-0.014258115552365782,0.009697884321212769,-0.015515982173383238,-0.06828955560922623,-0.11562083661556245,0.056184206157922745,0.13970941305160522,-0.09065326303243636,-0.0016963222296908498,0.11817267537117004,-0.07311394810676575,0.07271798700094223,0.0873960331082344,-0.0076809823513031015,-0.09118230640888214,0.03529597818851471,0.06449373811483383,-0.013806669972836971,0.009056085720658302,0.14331255853176114,0.02074754610657692,0.015240894630551338,0.0930735170841217,0.04033417999744415,0.10441844910383223,-0.011569181457161905,0.08605711907148361,0.048653878271579735,0.07701180130243301,-0.07299711555242537,0.1052536740899086,0.057021647691726685,-0.05662186816334725,-0.06647396832704544,0.15326228737831116,-0.016381101682782173,-0.02293545752763748,-0.051879826933145516,-0.029945630580186844,0.09225016087293623,0.051901400089263916,0.012621577829122543,-0.034203968942165375,0.05336379259824753,-0.05100390315055847,-0.09426618367433548,0.014520808123052118,-0.06957115232944489,-0.012572367675602436,-0.05928288400173187,0.0191611610352993,0.06416068226099014,0.14327602088451385,0.029834268614649776,0.006388282869011164,-0.01514543779194355,0.09179548174142838,-0.07430918514728546,-0.05241858214139938,0.026946185156702995,0.020210256800055504,-0.007254404947161674,0.024478334933519363,0.06930322200059891,0.004044291563332081,-0.04805928096175194,-0.16274422407150269,0.05771230161190032,0.10408571362495422,-0.02600665204226971,0.08170400559902191,-0.04374635592103005,0.0021906779147684574,0.09097584336996077,-0.040696095675230026,0.021382700651884082,0.024374885484576225,-0.04597734287381172,0.011588283814489841,-0.019614133983850483,0.0973695144057274,0.07956574112176895,-0.052832692861557014,0.03636856749653816,0.07141309976577759,-0.0013077487237751484,0.02676630206406116,-0.004094732459634543,0.08864680677652359,0.04954901710152626,-0.018524261191487312,-0.11124975979328157,-0.10781347006559372,0.0037179868668317795,-0.02116013877093792,-0.014337731525301932,0.12384936958551407,0.12764741480350494,-0.011479372158646584,-0.06062759831547738,0.03283131122589111,0.09877985715866087,0.0923842191696167,-0.007250105030834675,-0.04444539919495583,-0.03583614155650139,-0.009720013476908209,0.09191831946372986,-0.013134288601577282,-0.01741522736847401,0.06250162422657013,-0.04123982787132263,-0.01226183120161295,-0.07202587276697159,-0.03898997232317925,-0.02258692868053913,0.1390782594680786,0.07857727259397508,-0.016136903315782547,0.09641613066196443,0.06599114090204239,0.08355801552534102,-0.04147806391119957,-0.030720401555299762,-0.042342226952314384,0.005824824795126915,0.034085690975189216,0.10293363034725188,0.08006905019283295,-0.10365381091833116,-0.06930442899465561,-0.02929288148880005,-0.05193483084440231,0.02805253490805626,-0.10684005171060562,0.012840420007705687,-0.08956456184387207,0.07248491048812866,-0.13962730765342712,-0.049985043704509735,0.017128098756074902,0.1084527149796486,-0.009508373215794563,-0.13128699362277985,-0.04809973016381264,0.14017556607723236,-0.13272584974765778,0.13588936626911166,-0.06585367769002914,-0.04265636578202248,-0.048569198697805405,-0.023911869153380397,-0.0004830504476558417,0.09179569780826567,0.11645468324422835,0.1127711609005928,0.0568712092936039,-0.036094870418310165,-0.054331082850694656
"Upward spiral",-0.03267908357297501,-0.0225976990264108,0.032115719697863206,-0.06037112454482928,0.05843911298697941,-0.02721924336478259,-0.05404980439750861,0.07137853757104386,-0.10230699364858528,0.009902785459841702,0.15013523956676827,0.031448931494840016,-0.1846803970266391,0.03124825376767928,-0.02774508952684886,-0.005413905455889177,0.07443749175367358,-0.032083882451113675,0.02429341600048029,-0.06335797208633501,-0.16677462047059852,0.15482804503726802,-0.056392256014941786,-0.08292097984875815,-0.09499305936957657,-0.09725239873970834,0.05293994262124234,-0.10802389237326222,0.03538041738723085,-0.07901248889129993,-0.03349158722164783,-0.0599864671937181,-0.0022665975416655986,-0.1240884983879491,0.04184792777463076,-0.035133609338346534,0.10996036425686152,-0.056299482386470076,0.027894294165976184,-0.1534326496690468,-0.11833199112007195,0.0833178290926593,0.07846097207448517,0.05040668575528316,-0.013406402951689196,-0.08916292790902197,0.12550297506441974,0.029611339957813683,-0.15019685372663172,0.03946686658483469,0.1809872719271404,-0.11631525911316384,0.06327828943839607,-0.09467500691443613,0.06326986008861693,-0.13669275335756714,-0.05674728319995044,0.024458629948158863,-0.016913175854012304,-0.033628535057962976,0.13763643764303982,-0.06119481873728585,0.01780308358501725,0.06511883997712398,-0.01137734195754765,0.0426747247780622,0.11243856399433752,0.1351096583496406,-0.01649317996199089,0.0833727422719769,-0.09155627010299627,0.009045334698427523,-0.0309132597180559,-0.0424712699091759,-0.04670347721957758,0.05797539410969345,0.019358061082164615,-0.02562447294639783,-0.08547251448165749,-0.09847524983926903,0.05017093255466206,0.049128088190497625,0.04780397852298765,0.015189668437335798,0.0812340377584222,-0.1600880174946543,0.10303578547160508,0.06454313508404187,-0.06532056913473047,0.033552566690195094,0.05984566280677379,-0.008863888244050253,0.0735553735051169,-0.0835855499196435,-0.07933910045506104,0.03557102230999869,0.0017010186120463002,-0.030454230170196824,0.0014233522127062705,-0.04881844047283671,-0.05508468614503033,-0.045933623652257165,0.017386836683941143,0.01941055426477101,0.06828768682733398,0.008235964916817785,-0.050340846848285305,0.05374301669026808,0.028356660564609983,0.01513519773732901,-0.12821186502078544,0.039111972577285374,0.015908090044955837,-0.033342259477305985,-0.001751618002787397,-0.06036716839089017,-0.0797884065095734,-0.015205581185234412,-0.13464734455050753,0.04160667289005928,0.012356507963688534,0.043460519911092815,0.042351527705296335,0.06966473413273971,-0.07709239895433727,6.565760659102247e-05,-0.08841489697925049,-0.005118858069129035,-0.017804366397309385,-0.01540444870617266,0.08796355745042206,-0.031360980373254535,-0.04880200816497593,0.022826318839420056,-0.06787535374529294,0.1575750774656429,0.10200267699874152,0.01891787600490932,0.04093540365722784,0.028818139486560982,-0.004603734371246794,0.062305119215771115,0.1360268526312268,0.09637027825287504,0.06350819737960448,-0.03705462480269466,0.047677123075985886,-0.03214896370147312,-0.059949757218750524,0.02523640110429141,0.05169753793706384,-0.03606837632973522,0.0012798398607733988,-0.015294215121083568,0.10651961044280478,0.02992680154655492,0.07850367713350723,-0.006068059146919293,0.05852958748567784,-0.022239372761545504,0.094567851160805,0.08313489418432475,0.050709286206522784,0.04366275932582425,-0.038193788977429824,0.0750340853633818,-0.15496263261087947,-0.0431547052946161,0.11921840238320018,0.007558297570246649,0.002786305230080957,-0.06904423551881138,-0.08686112115686752,-0.09003774378008142,-0.03020466960062985,0.03756164370090874,0.08723225484059535,0.011473925272731654,0.011798486575101982,-0.030365071218586236,0.05574537504424358,-0.05703798595188433,-0.056290925874600016,-0.0056002196023621,0.004315708458267113,0.10561716976160876,-0.016489021313963143,0.02141774841540021,0.1108573289942884,0.04926094328553978,0.06754703213818841,0.02631208299753289,0.025167918792596482,-0.009631093930120344,-0.06960676815394065,-0.07295943906787547,0.024175549752199144,-0.0045770972006720975,0.11657202525476387,0.013864401143646005
"Personnel expenses",0.06800363996658451,0.011810234483081845,0.007722042621524866,0.09862498170335553,0.03553031899855152,0.04082923389954688,-0.16583645675574185,-0.016772431669713882,-0.01402452992401338,-0.04043805985037148,0.013948936718796654,0.17382626202721782,-0.030234208902083982,-0.06940214994368255,-0.012766529256332228,0.05054614409892907,0.10103939715495346,0.024969164187624016,-0.0545658493977151,0.010409471974913898,-0.05819191248139445,-0.02429335367276236,0.06601385299427401,0.00812964990873303,-0.05446229424603168,0.024475389054677044,0.03226920822193878,0.015956151331630176,-0.08888564712667829,-0.1399990504337623,0.005249735608883486,0.06971874070343083,-0.07931032205978543,-0.05641901345721721,-0.13556389742626165,0.08778820985900104,-0.030942930881579376,-0.02062526661239372,0.05819984055304238,-0.12203687746202088,-0.07100713456670535,-0.034933816348443024,0.07535247293961551,0.020554574815936318,0.007121075146896816,0.0727709916643392,-0.11675023978615452,-0.05284074646109381,0.0991965707703254,-0.044102158441469634,-0.030542294495447413,0.03026495160746445,-0.0562552267571952,-0.10480317489988504,0.015346137373427052,-0.017800594202053585,0.029475902151614174,-0.05602482556180485,0.0025290370153937714,0.09335879831272108,0.018063380185563728,0.14421567690088266,0.00046909735195893495,-0.08269038765254318,0.027043852344779,0.08353968494569641,0.10702852977194427,-0.0017614699886918234,-0.004800188698551401,-0.10503624981242346,0.02066215103299857,0.009500727718538188,-0.09700412736289993,0.09409785034383347,-0.05985549044834136,0.09714172877706667,-0.19441217760440532,-0.1087049744693966,-0.0674577983225949,0.020032874792704568,-0.031181924239028738,0.017254838656875514,-0.07273307871198549,0.013790572304740277,0.1135097938878128,0.059671276223528816,0.01000407378153738,0.08568446671012066,0.0270827558212981,-0.047145556738087055,-0.2103333526512544,-0.07428709710472413,-0.015462968031054531,0.042161550179522264,-0.1218017765125835,-0.034587240707988964,0.03388236137274988,0.006633301430772947,-0.07212558488926657,0.021035382400111564,-0.03156556568449274,-0.05743946704326273,0.022917719606929426,0.011049335072453231,0.0908955268273871,0.06909684355790296,0.0391917539561462,-0.02229065343004829,0.050802895408980565,0.01978819922880637,0.19883895343024105,-0.018538125929826763,0.08393011358083663,-0.08157726808748125,0.005320520273041276,-0.015581723889135013,-0.006114678646209731,0.07321400223989395,-0.03718384279617053,-0.058752477022160236,-0.1239356060209632,-0.05323261162775657,-0.0037397848761111592,-0.1004338324110124,-0.08514890120895746,-0.011352831831860193,0.07694405756246674,-0.028702291531306438,0.1329012598766111,0.05167898572149224,-0.12535246357723742,-0.09870896915486653,-0.08564453561083507,-0.040667920407278436,-0.10577311291699336,0.05552307135723825,-0.02776777580633643,-0.1262049379941036,-0.14023292893520856,-0.014600233117978725,0.05158528073924987,0.025359768898712186,-0.04505087581635666,-0.04866788844117797,0.14492639389067827,-0.07563285478598883,-0.010033997384710615,0.09418614816557708,-0.05042173674588461,-0.07071398556581704,-0.1515645164670659,-0.039642184154961714,-0.02255625352606589,-0.0068130842816177175,-0.10259247389041977,-0.03805084852056553,-0.06746353203804557,0.029301769632235932,0.0564168683557455,-0.06283746306040043,-0.12182734863528075,-0.15321187644300893,0.02400578829615324,-0.02505194005045348,0.022392865905670408,0.015674190910086892,-0.012742571365153992,0.013848443116745792,0.038530086140663916,-0.05256460856864016,0.008885518356372852,-0.05973464092507243,-0.05370797635266485,0.005969014970355399,0.06601503355635678,0.023789563929400917,-0.0375311111054419,0.053190690038843184,-0.08323846321164348,0.008188239762164791,0.02089050292154087,0.05103906832740508,0.040187683730700016,0.05747931062572423,0.08028109158974049,-0.10526860180521078,-0.12799820171420884,0.044078710089457435,-0.06596643038940063,-0.011774476328011957,-0.04875487461345904,0.04412782364396318,0.02340361941344636,-0.01961755371129616,0.016198563699065142,0.03935906799261465,-0.06660663167686642,-0.08367678528029322,0.03382043848694642,0.007602701912057774
"Leveling off",-0.01633364254942959,0.020489786077948883,-0.0800908521704626,-0.04808815567297491,0.07767646780864007,-0.04601764411653494,-0.047839363499116085,-0.021422888926472792,-0.04253463456592877,-0.05635506539338338,0.02142553024839604,0.005830007154247472,0.1264544585806648,0.033133512772022713,0.0012408107645835848,-0.016847104398968422,0.027717924418048368,0.0899985107148578,-0.001603349375404688,-0.026493666053479054,-0.10578767218929096,0.032215614701412286,-0.14727986344170035,0.14450918719105665,0.005256406309532804,-0.0700218077259283,0.025029656628667355,0.008525540100917222,-0.14234364066308666,-0.009528080493626663,0.11414607062171607,-0.001821070140955948,0.01954154933321605,0.03071416103773897,0.028181977805795982,0.09032664691211416,0.03379573053257669,-0.04643223772935552,-0.006744631403307156,-0.05048533839315799,-0.015497297576199257,-0.028155717656256744,0.04296922986514741,0.0712055191463475,-0.12342888824157106,0.008365321357189379,-0.00011150300927013149,-0.09031235055064744,-0.05276627729215008,0.0021168512317951732,-0.000630730628874883,0.012516525452815069,-0.05843004336692473,0.036569614289065966,0.016654873216205002,-0.08981800153962866,-0.03537336159036778,0.028879439863227756,0.0027355563228917204,0.009194212010299798,-0.03678119661203102,-0.0805640932186637,-0.02368517637031009,-0.02718205351329897,-0.06933469004879128,0.013761970815476943,-0.01945526412105677,0.14803366906168594,0.015643326063588682,-0.002879170483755314,0.054189086834901264,0.05591321232944641,0.05191930136780718,0.005943301339843234,-0.019291182107001932,0.2256371961174784,-0.07803496181373049,0.03805746172814884,-0.02401326821214396,-0.06560907894976246,0.1125249025424709,-0.106503605236188,-0.01413421456668052,0.1328505713829412,0.032673708060281345,-0.004481322262752917,0.06541789229371285,-0.054528988742828736,-0.053814320695186685,-0.08884249534206652,-0.07867614901602757,0.14593774315273353,0.1825437428036636,0.08597213636738774,-0.045753381032227716,0.06039788299173982,-0.03376366765011945,0.06708430116446402,-0.0015141182239353846,-0.007732910005687995,0.024798132194724626,0.04422453919974139,0.01211365547824283,0.019136950475595348,-0.07979523806474333,0.007083967997026505,-0.14926739687409865,-0.12109339956549325,0.051293596817099725,0.040566377913170866,0.01905299174883109,0.022374840872695798,-0.00314333137664799,-0.0907281707865854,-0.05118809874929126,-0.04040815342402651,0.13310875820922513,0.032752581446011314,-0.026257567357878327,-0.029671652930514207,0.06436495370449086,-0.05923615011801886,0.11246715526125256,0.0417041962564593,-0.0345492613228857,-0.07015178215952078,0.06917329282877872,-0.08308900650989004,-0.02220613002241902,0.05185731075117115,-0.01540503829743121,0.02894796725153818,-0.12606253580701887,-0.17762166157739498,-0.057252152943421016,-0.029236638537781637,0.1324218914446251,0.06991668493978262,0.03638295101639562,-0.027545374432012715,-0.043843936190827784,-0.022286502482818268,0.04428768566650452,0.014705269758030238,-0.029229879010566374,-0.05224350906617406,0.031744468794637964,0.13921992655917526,0.04429886671182731,0.05723629495581144,0.06589701087025024,0.10484214329961512,-0.00862517107695938,-0.07536078469841584,-0.13938486611139808,0.0012404389617774634,-0.002679925056240155,-0.07352525121087324,0.04984202691400955,0.09239799469872507,-0.05134859145298151,0.05412219951008005,0.09641574365595022,-0.05384093394867746,-0.03076174440435208,0.1318229919193821,-0.14533805958016954,0.04960693752169889,-0.025940211267714067,-0.03292728788832247,-0.07618857364110601,-0.0798037612635737,-0.02207360819603325,0.046635611255161316,0.18368077231620308,0.05342708133232663,0.004857398844287665,-0.09409312674953466,-0.014407116956659334,-0.02827610523059338,0.07035414638203652,0.061787079169103684,-0.008932286282814679,-0.13489199926280085,-0.003970107754619973,0.06690994956553274,0.04413983686736489,-0.10782164487931653,0.042490705738242734,0.00716846246771724,0.06283451072822425,0.05517719573430538,0.013329439347975085,0.1135276951522886,-0.07615927536255512,0.015600222812075069,-0.1070774513402976,-0.04150332995352371,-0.0802881729205276,-0.16434446595939345
"Counteraction",0.058777965605258935,0.04629930853843689,0.016542993485927582,0.015666143968701363,0.02489134855568409,0.042718980461359024,0.08415471762418747,-0.058005578815937035,-0.06521063297986984,0.0006477504502981901,0.008635349571704866,-0.0003878384013660252,-0.07365897297859192,-0.07029594480991364,0.05646250769495964,-0.05509129911661148,-0.0028989759739488363,-0.04814314469695091,-0.01720297336578369,0.05628760159015656,0.035165537148714066,-0.1023971363902092,0.035861201584339135,-0.09111779928207396,0.07216689735651016,-0.010852782987058164,0.04276535287499428,-0.016484871506690982,-0.020100126042962074,0.02200055494904518,-0.07321986556053163,-0.05060181394219399,-0.1349608600139618,-0.03357140347361565,0.010841052979230879,0.08078911900520325,-0.09636063873767853,0.12312721461057664,0.0566372349858284,-0.05689699947834015,-0.044501740485429764,-0.006755803246051073,-0.042754344642162316,-0.031038232147693638,-0.0684051364660263,-0.00945865549147129,-0.0030093418899923567,0.005850737914443016,0.011272887699306013,-0.13710571825504306,0.07793141901493073,0.022399283945560452,-0.003097210079431534,-0.10728517919778824,0.09701504558324814,0.07571805268526077,0.046482246369123466,-0.08564949035644531,-0.13583631813526156,-0.1099051907658577,0.0792405903339386,-0.17962558567523956,-0.02190694585442543,0.014595047570765018,-0.0843861773610115,-0.11675234138965608,0.1586802303791046,-0.05528247728943825,0.06794016808271408,-0.08938748389482498,0.04514588788151741,-0.032338421791791916,-0.09738248586654663,0.0660712867975235,0.1444074958562851,0.020586701110005382,-0.05444606393575668,-0.009994341060519218,0.01382997911423445,-0.03325167670845985,0.11922308057546616,-0.02124977856874466,0.05597639083862305,0.028164774179458618,0.04357478395104408,-0.030422845855355263,-0.08760102093219757,-0.06002477556467056,-0.04504833370447159,0.04239238053560257,-0.120761938393116,0.045837026089429855,0.09370533376932144,-0.00495464401319623,0.1044825315475464,-0.040995724499225616,0.05197480320930481,0.04842739924788475,0.03099142014980316,0.005152976140379907,0.019185621291399,0.1894427388906479,0.015942834317684174,-0.08063522726297379,0.08452411741018295,-0.038225986063480384,0.08414419740438461,0.0168157871812582,0.060973916202783585,-0.09489751607179643,-0.03234146535396576,-0.028958622366189964,-0.059153866022825234,-0.06625019013881682,-0.026902265846729282,0.030758997425436974,-0.05247921124100685,-0.02364257164299488,0.12300067394971848,-0.027611169964075092,-0.02841626107692718,-0.03211851045489311,-0.040716122835874564,-0.0006263580289669335,0.0431714840233326,0.11948182433843613,0.004635003861039877,0.053946297615766525,-0.009253836236894129,0.07879596948623657,-0.1995420604944229,0.028397830203175545,-0.03267305716872215,0.0076574012637138375,-0.061202257871627815,-0.009279406629502772,0.11465033143758775,-0.012252309359610079,-0.06203035637736321,0.014010059647262095,-0.017393695190548897,0.08938561379909515,-0.060673594474792474,-0.052252255380153656,0.09310692548751832,0.06783465296030045,-0.12217207998037337,0.14170172810554504,-0.028643636032938964,-0.027801910415291783,-0.10115554928779602,-0.045539259910583496,0.053497251123189926,0.05078662186861038,0.0997069850564003,-0.08795203268527985,-0.10273151844739914,0.0834362581372261,-0.1083698645234108,-0.010999088175594808,-0.10050611197948456,0.014795977622270584,-0.03581064566969872,0.00796568114310503,-0.06765232235193253,0.010473514907062055,0.07408164441585541,0.10143543779850006,0.06409759819507599,0.03080229088664055,0.10998299717903136,0.08073970675468445,0.11074531078338624,-0.0036916797980666156,-0.08847249299287796,0.011346489191055298,-0.06261584907770157,0.0911661610007286,-0.05023835971951485,-0.08535242825746536,-0.004554114770144224,0.02304021082818508,0.045873556286096566,-0.01949446462094784,-0.0853743925690651,-0.03307955712080002,-0.058285165578126914,0.03747301921248436,-0.035283204168081284,0.19741840660572046,-0.04339227080345154,0.017612332478165627,-0.04392416775226593,-0.009007967077195644,0.18488185107707975,-0.059694647789001465,-0.05792229250073432,0.05137498676776886,-0.026946116238832474,-0.08541861921548842
"Increase",0.015561432577669619,0.053107228130102165,-0.06035470217466354,-0.10586301237344742,0.0778910294175148,-0.05087551847100258,-0.13652336597442627,0.02146937884390354,-0.11259172856807707,-0.06575150042772293,0.07897694408893585,0.08948714286088942,-0.08403173089027405,-0.04718026146292687,-0.04285853728652,0.07905058562755585,0.12278860062360765,-0.040922034531831734,-0.09488704800605774,0.08498691767454147,-0.2172417938709259,0.009525911882519722,0.03472823649644852,0.01935138739645481,-0.034932676702737815,-0.09762761741876602,0.0032222289592027664,-0.14703500270843506,-0.04103768989443779,-0.055106006562709815,0.16911762952804565,-0.17940418422222135,0.013624918647110462,0.017087049782276154,0.03291913866996765,-0.07203666865825653,0.029900092631578445,-0.0726044625043869,0.017509767785668373,0.02468552254140377,-0.05533231794834137,-0.0550009235739708,-0.030005451291799545,0.038004305213689804,0.03260819986462593,0.08436285704374312,0.020982885733246803,-0.03924918919801712,-0.08675765991210938,-0.040034960955381386,0.10354093462228776,-0.02337606623768806,0.06433849036693573,0.0903606042265892,-0.05679464340209961,-0.01886844076216221,-0.010610073804855348,-0.09973151981830597,0.09276296198368073,-0.06708972901105881,0.01766275428235531,0.04747907817363739,-0.03561487048864365,0.0406072698533535,-0.05543117225170136,0.08350628614425659,-0.04779189825057984,0.07876784354448317,0.11369503289461134,0.07910561561584473,-0.0493081770837307,0.05639608576893808,-0.019837891682982445,0.07077886909246445,-0.027142859995365143,0.05035670846700668,-0.05723118782043458,0.011495464481413364,0.06257685273885727,-0.04717405140399933,0.03992336243391037,0.07028959691524506,-0.15988747775554654,-0.01115981210023165,0.03878875076770783,-0.06636008620262146,-0.10733969509601593,0.1167534664273262,0.035964619368314736,-0.0007256519747897983,0.019399143755435944,0.035582706332206726,0.13559149205684662,0.0014809253625571726,-0.03124790638685226,-0.0742165595293045,0.048343982547521584,-0.013042495585978031,-0.07315792888402939,-0.009371073916554451,0.11761824786663055,-0.03032929264008999,0.008461588062345982,0.039102684706449516,0.0745132714509964,-0.05887465551495553,-0.07457585632801056,0.08920440077781677,0.19187669456005094,0.0031956988386809826,0.007057647220790386,0.12200458347797395,0.13946786522865295,-0.03778635710477829,-0.036319728940725333,-0.02201187238097191,0.057106565684080124,0.049219265580177314,-0.07311838865280151,-0.06298098713159561,0.003965856041759253,0.11870363354682922,-0.022959351539611816,0.07421798259019853,-0.13135512173175812,0.06992052495479584,-0.03708140179514885,-0.01203093770891428,0.04010549932718277,0.028299704194068912,-0.06094209477305412,-0.045598745346069336,-0.04082752764225006,-0.11771002411842345,0.0636059045791626,0.07533760368824005,-0.11504039913415907,0.08789952099323273,0.0017716118600219488,-0.04257730394601822,0.009615542367100716,-0.023648522794246674,-0.07667382806539537,0.0712251216173172,-0.03619563952088356,-0.02375518530607224,0.04578296840190888,-0.0929073914885521,0.0017733487766236067,-0.018300484865903854,0.012403818778693676,0.08323846012353897,-0.028101613745093342,-0.011399519629776478,-0.11442580074071886,0.1067017912864685,0.0766131803393364,0.08704967051744461,0.11433029919862747,0.06391587108373642,0.02820458821952343,-0.06531175971031189,-0.01155840139836073,-0.04637453332543373,-0.006832280196249485,-0.010402536019682884,0.11584410071372984,-0.08345764875411987,0.09137476980686188,5.212196265347302e-05,-0.06604209542274475,-0.013808266259729862,-0.04328854754567146,-0.08984170854091644,0.005688737146556377,-0.09226226806640624,-0.005999287124723196,0.096050962805748,0.07504067569971085,-0.12721003592014313,-0.05336565151810646,-0.09830765426158904,-0.05954009294509888,0.007971215061843395,-0.04169311746954918,-0.02293473482131958,0.023442750796675682,0.01956864818930626,0.042245950549840934,0.07874655723571777,0.04690377414226532,0.03738854452967644,-0.018435761332511902,0.03170077502727508,0.08974844962358475,-0.03287193551659584,-0.08159669488668443,-0.06474827229976654,0.05859152227640153,-0.07762350887060165
