"jp","0","1","2","3","4","5","6","7","8","9","10","11","12","13","14","15","16","17","18","19","20","21","22","23","24","25","26","27","28","29","30","31","32","33","34","35","36","37","38","39","40","41","42","43","44","45","46","47","48","49","50","51","52","53","54","55","56","57","58","59","60","61","62","63","64","65","66","67","68","69","70","71","72","73","74","75","76","77","78","79","80","81","82","83","84","85","86","87","88","89","90","91","92","93","94","95","96","97","98","99","100","101","102","103","104","105","106","107","108","109","110","111","112","113","114","115","116","117","118","119","120","121","122","123","124","125","126","127","128","129","130","131","132","133","134","135","136","137","138","139","140","141","142","143","144","145","146","147","148","149","150","151","152","153","154","155","156","157","158","159","160","161","162","163","164","165","166","167","168","169","170","171","172","173","174","175","176","177","178","179","180","181","182","183","184","185","186","187","188","189","190","191","192","193","194","195","196","197","198","199"
"赤字",-0.07697059959173203,0.05680276453495025,0.035036060959100716,0.05642226710915565,0.08206170797348022,-0.031464777886867516,0.004264859016984701,0.10154304653406143,0.18547506630420685,-0.06721863150596619,-0.04886091500520706,0.03359273076057434,-0.10087350010871887,0.0008418236975558102,0.09069469571113586,-0.0008967509493231773,0.02270477265119553,-0.05071674659848213,-0.008721797727048397,0.06232612207531929,0.12349378317594527,-0.054679684340953834,0.023272117599844933,0.014438910409808159,0.023325426504015926,0.09704268723726273,0.011934466660022736,-0.1289222687482834,0.05126452445983887,-0.033650454133749015,0.12663939595222473,0.03833010792732239,-0.06869013607501984,0.056756015866994865,0.13940858840942386,0.0009843144798651338,-0.027841651812195774,-0.004915397148579359,0.008973062969744205,-0.10842622816562653,0.11167580634355544,0.07196758687496185,0.02510715089738369,0.13807912170886993,-0.008980478160083294,0.046952735632658005,-0.004722378682345153,-0.102768637239933,-0.04942025244235992,-0.05014970526099205,-0.05198008567094803,0.03140602633357048,-0.037736158818006516,0.003417209722101689,0.1664310097694397,-0.003164011286571622,-0.06793848425149918,0.022652050480246544,-0.06252841651439668,-0.007792490534484386,0.03831914812326431,0.041752345860004425,0.07486632466316223,-0.0099078007042408,0.034477941691875465,0.1347258687019348,0.04329026117920876,0.100703626871109,-0.010492140427231787,-0.04811031743884087,0.16424886882305145,0.03915097936987877,-0.0894244834780693,0.02020952105522156,-0.0003240602381993085,-0.05929707363247873,0.02234073169529438,-0.020005960017442703,0.009048203937709332,-0.030960161238908768,0.14431293308734894,0.07738833874464035,0.046813394874334335,-0.009685634635388851,-0.01703011617064476,0.03722499683499336,0.07685655355453491,0.1552826464176178,0.12028518319129945,0.05525340884923935,0.19103196263313293,-0.017663432285189632,-0.01655784249305725,0.04953502118587494,-0.0006798070389777423,-0.03787119686603546,0.016306983307003975,-0.060372199863195426,-0.053887683898210526,0.045990217477083206,-0.008018774911761284,0.012847326695919035,-0.043127499520778656,0.021412016823887825,0.08391442149877547,0.03533226251602173,-0.004080380778759718,0.04400094226002693,0.008946640416979791,0.016356224194169044,0.0984075963497162,-0.050994444638490684,0.05666821077466011,0.054246362298727036,-0.031977109611034386,0.06180955097079278,0.1533685326576233,-0.0005465017165988684,0.0016670407494530082,0.013564215041697024,-0.06436540931463243,-0.011661716736853123,-0.028710488229990005,-0.03094689175486565,0.08722314238548279,-0.015027035959064959,0.040585894137620926,-0.03304876387119293,-0.02929498441517353,0.007406498771160841,-0.17046907544136047,0.0339631550014019,-0.02464926615357399,0.03171998634934425,-0.03582795709371567,0.035766661167144775,0.010907438583672048,0.15366698801517487,-0.021684983745217323,0.16556736826896667,-0.013262368738651277,0.11829458922147752,0.09399767220020294,0.023817688226699833,-0.08927945792675017,-0.0545215904712677,-0.022433500736951828,0.09866034239530563,0.04521942511200905,0.041054144501686096,0.12305231392383575,-0.08167354017496109,0.0469316765666008,0.0676392912864685,0.08618751168251038,0.051238078624010086,-0.0613877959549427,-0.047721825540065765,-0.10882733017206192,-0.08901461213827133,0.016779648140072826,0.04034164920449257,0.014590273611247541,-0.04812262952327728,0.04917525127530098,-0.1762797385454178,0.010358101688325405,-0.096974179148674,-0.13188563287258148,-0.11693555861711502,-0.0501525029540062,-0.01276665274053812,-0.04878173768520355,-0.032266806811094284,0.04294762015342712,0.033514179289340966,0.07483480870723724,-0.09357330948114397,-0.025804940611124042,-0.1544552594423294,-0.038576640188694,0.036314725875854485,-0.027121668681502342,0.058324750512838364,-0.11929909884929656,0.04635335877537728,0.1345367580652237,0.054843943566083915,-0.05418980494141579,-0.012939288280904291,-0.0736575499176979,-0.007255012635141611,0.09242494404315947,0.07586890459060669,-0.007759358733892441,0.10089609026908876,-0.0058633433654904366,0.006998506374657154,0.048951059579849236,-0.003058580681681633
"注意",0.03710445016622543,-0.03775839880108833,-0.03730558976531029,0.0039505427703261375,-0.1145469695329666,-0.006035263650119305,0.12863613665103912,0.08500875532627106,-0.08542487025260925,-0.008080766536295414,-0.06269201636314392,0.11580726504325868,-0.07843015342950821,0.024546023458242416,0.019961351528763768,-0.07117239385843277,0.10026324540376663,-0.062359724193811424,0.08348264545202255,0.01400411780923605,0.07938186824321747,0.043534152209758765,0.03563395142555237,0.018541557714343068,-0.06846773624420166,0.01620464026927948,-0.08057818561792374,0.01885083504021168,-0.030544903129339218,0.015728428959846497,0.0632350966334343,-0.03713114559650421,0.0595533549785614,0.07421626150608063,-0.025605088099837303,0.08999629318714142,0.09090174734592438,0.10219184309244156,-0.07232552021741867,-0.01333931926637888,-0.03445740044116974,-0.13798454403877258,-0.030009686946868893,-0.028830263763666156,-0.03006337396800518,0.03639572113752365,-0.003922208677977324,-0.033878471702337265,-0.03819681331515312,0.015148166567087172,-0.20054970681667328,-0.034806091338396065,-0.1438414305448532,0.1621626317501068,-0.019534418359398842,0.013127018697559834,0.049645662307739265,0.17491422593593595,0.00790343713015318,0.08070443570613861,-0.057316146790981286,0.04397856444120407,0.06415047496557236,-0.10229887813329697,-0.05416208878159523,-0.07355724275112152,-0.03692260757088661,-0.004468889907002449,0.07647576928138733,-0.0004361009341664612,-0.10424777120351793,-0.014629458077251913,0.02625489793717861,-0.0033705008681863546,-0.01759819313883781,-0.047533027827739716,-0.11127504706382753,0.058297153562307365,-0.022033173590898517,-0.14503341913223267,0.049748513847589486,-0.14054404199123385,0.054252400994300835,-0.08543113619089128,0.05132480338215828,0.1230173483490944,0.07543722540140152,-0.09676559269428253,0.041159305721521385,-0.012401182204484941,0.03897422179579735,-0.13345950841903687,-0.052479919046163566,0.04020416736602783,0.06540006399154663,-0.008842178620398045,0.09138399362564087,-0.031450927257537835,0.02720420621335506,0.005408185999840498,-0.0030217966996133327,-0.12417095899581908,-0.09405086189508438,0.1668418049812317,-0.0829620510339737,0.026027286425232887,0.05986536666750907,-0.003330752719193697,-0.029478242620825768,0.04948248341679573,-0.0017324765212833881,0.04085390642285347,0.06270944327116013,0.018634427338838574,-0.044901277869939804,-0.13052330911159515,0.04124072566628456,-0.11401700973510742,-0.0791442021727562,0.06535641103982925,0.009882876649498941,-0.03842014819383621,-0.026795480400323868,0.08604385703802109,0.028914330527186394,0.07422345876693726,0.0910249799489975,0.06904494017362595,-0.04406609386205673,0.06049975752830505,-0.09042289853096007,-0.12307222187519072,0.016684191301465034,-0.013213359750807284,-0.012137902900576591,0.013817695900797844,0.06721697747707367,-0.1369028240442276,-0.016963697969913483,-0.022092288359999657,0.14729802310466766,0.02942152321338654,-0.0558391660451889,-0.10487320274114607,0.05356695130467415,0.0684085339307785,0.008484511636197567,-0.01794443093240261,-0.04269204288721085,0.026152705773711205,0.03908710926771164,0.05952156335115433,0.048783943057060235,-0.11076248437166214,-0.003460065694525838,-0.05941588059067726,0.13626229763031006,0.08797035366296768,0.00873525720089674,-0.01483588665723801,-0.037708304822444916,-0.03578012064099312,-0.04770112410187721,-0.1406700164079666,-0.0647776871919632,-0.01859329827129841,0.04650460183620453,0.09200004488229753,0.013175182975828648,-0.006792950909584761,0.10567078739404677,-0.04446273669600487,0.03359796851873398,-0.06747360527515411,0.023682355880737305,-0.05564289912581444,-0.0946786403656006,-0.04026864096522331,0.00021935687982477248,0.06232646107673645,-0.08831824362277985,0.025780851021409038,-0.13128583133220673,-0.12834300100803375,-0.03758838400244713,-0.03561495989561081,0.006513514555990696,0.020154058933258057,0.0724291205406189,0.05468754097819328,0.054047860205173485,0.06968890130519867,0.022327829152345657,-0.08477427810430528,-0.08126922696828842,0.015456107445061209,0.13817641139030454,0.07772418111562729,-0.06466551125049591,0.06190131232142448
"参入",0.05897797644138336,-0.03840174153447151,-0.14856375753879547,-0.02637788094580173,0.0094768013805151,0.03412715345621109,0.06119571253657341,-0.04996086657047272,0.0951327532529831,0.04982200637459755,0.01280352845788002,-0.08672770857810974,0.004638445097953081,-0.0759487897157669,0.039995811879634864,-0.005149798467755318,0.02348374016582966,0.00486421724781394,-0.08501273393630981,-0.01532458420842886,0.07962355017662047,0.0942271426320076,-0.12200681865215303,0.016770469024777412,-0.04662081971764565,0.033229298889636986,-0.10051590949296953,-0.0694718286395073,0.1962019205093384,0.021778607740998268,-0.03688585385680199,0.06343311071395874,0.1766868531703949,-0.05150792747735977,-0.013511046767234802,0.08709494769573213,-0.004999639000743628,0.10194537043571472,-0.006839873269200325,-0.029638361185789112,0.1051231250166893,0.16193626821041107,-0.049502473324537284,-0.003558761673048138,-0.05545706674456597,-0.018419284373521805,-0.03345827758312225,-0.07590919733047485,0.05075988546013832,0.012227964587509632,-0.09571583569049837,-0.028648154810070988,0.08489572256803513,-0.08667376637458801,-0.1035601869225502,0.004366063512861729,-0.1320383995771408,-0.13327734172344208,0.016603004187345505,0.1027941182255745,0.009115506894886494,-0.09222302585840224,-0.17178456485271454,-0.05091849714517594,0.056098129600286484,-0.06730600446462631,-0.021620182320475582,0.04349937662482262,0.04808446392416954,0.10767392069101334,-0.029764397069811818,0.05921468883752822,-0.05935068428516387,0.07832764834165573,0.08711359649896623,0.015454025007784368,0.12221930176019667,0.034998312592506416,0.02894629165530205,0.06366656720638275,-0.11546722054481505,0.005481387488543986,0.017146321013569832,-0.04488278552889824,-0.06871534138917923,0.03375434875488281,-0.06274683773517609,0.03890511393547058,0.0029010195285081863,-0.13146643340587616,0.06880825757980348,-0.061228252947330475,0.08401817828416824,-0.06241559237241745,-0.051791101694107056,0.050964698195457465,0.061599954962730415,-0.02853236347436905,-0.00468388432636857,-0.014762186445295809,-0.012612787075340748,-0.01595671847462654,0.034757442772388465,-0.028138227760791782,0.044346988201141364,-0.11811055988073348,0.07679983228445053,-0.1180443838238716,-0.01760580949485302,-0.010850691236555576,0.07319777458906174,-0.039611827582120895,-0.028208727017045018,-0.06012123078107834,-0.016846556216478348,0.08864445239305496,0.16751371324062347,-0.028712492436170575,-0.04358140006661415,-0.014719904400408268,0.06126220896840096,0.06622343510389328,-0.0697253867983818,-0.03386872634291649,-0.06594941020011902,0.04565563425421715,-0.07480105012655258,0.06245806813240051,0.025259966030716896,0.1058800145983696,0.06888428330421448,0.03763068839907646,0.00839029811322689,-0.03920489177107811,0.014909989200532438,0.02142944931983948,-0.019829878583550453,0.04163514450192452,0.08029210567474365,0.00185526383575052,0.14013029634952545,-0.14768722653388974,0.1042628139257431,0.13657730817794803,0.06824976205825806,-0.006209796760231257,0.06512617319822311,0.031754452735185616,-0.08807887136936188,-0.0439157597720623,-0.09688378870487213,-0.07608085870742798,-0.11839745938777925,-0.04407389834523201,-0.015678636729717255,-0.041883941739797585,-0.03376873955130577,-0.03308400511741638,-0.0214444100856781,-0.021739484742283818,0.01675746776163578,-0.025606781244277958,-0.039422132074832916,-0.15221565961837769,0.004471187479794025,0.08084027469158173,-0.0408809594810009,0.09351488202810287,0.045122116804122925,0.065541572868824,0.10193419456481934,-0.013180592097342014,0.02322714775800705,-0.05540336295962334,-0.07225638628005981,-0.011183767579495909,-0.01191854290664196,-0.10344291478395462,0.10834921896457672,0.02212302759289741,-0.10065092146396636,0.02216579020023346,-0.07692593336105348,0.03363710641860962,0.05261807516217232,0.005619940347969532,0.040542300790548325,-0.019167816266417503,-0.0757506936788559,0.05742916837334632,-0.08316022902727127,0.07622355967760086,-0.1142112985253334,0.03653374314308167,0.05349255725741386,0.049339238554239266,-0.18086868524551392,0.03191318735480308,-0.03881500661373138,-0.053757429122924805
"下支え",0.0985952764749527,0.08856876194477081,0.08190801739692688,-0.00595191540196538,-0.12118685990571974,-0.04572363942861557,0.06567830592393875,0.08906123787164688,-0.03462477773427963,0.035971328616142266,-0.07836183905601501,-0.1121753379702568,-0.016322501003742218,0.0011774636805057526,-0.07061497867107391,0.043747469782829285,0.047232959419488914,0.1028451919555664,0.09792390465736388,0.02343118190765381,0.0740680992603302,-0.07369861006736755,-0.07829217612743378,-0.09379767626523973,0.0471956804394722,0.09932366758584976,0.07378341257572174,-0.09990551322698593,0.02881198190152645,0.001873440109193325,0.04478928074240685,0.1239854097366333,-0.013080215081572531,-0.09041301906108856,-0.07752004265785217,-0.005007108207792044,0.09552121162414552,-0.045730281621217735,0.09643642604351044,-0.14088007807731628,-0.046156726777553565,0.07231398671865462,-0.12779739499092102,-0.028337325900793083,0.01498174574226141,-0.036824401468038566,0.014248293824493885,-0.15982861816883087,0.0679541826248169,0.04666940122842789,-0.020450500771403316,-0.1047319993376732,-0.04225807636976242,-0.08590366691350937,0.010714272037148477,0.059684347361326225,0.023887088522315025,-0.06828849017620088,0.1226956993341446,-0.0443231426179409,-0.04918094724416733,0.04468779265880585,-0.009641051292419434,-0.011891880072653294,-0.02434116043150425,0.032551802694797516,-0.04380655661225319,0.10617122054100037,-0.12965549528598785,-0.05418342724442482,0.03176683560013771,0.0731441006064415,-0.028755201026797295,-0.03039195016026497,0.03765122592449188,-0.09079839289188384,-0.016875080764293667,-0.049095533788204186,-0.07925710827112198,-0.060109920799732215,0.023120203986763958,-0.048232845962047584,-0.08922634273767471,-0.029609054327011112,-0.017408091574907303,0.05753930658102036,0.000299292616546154,0.12736457586288452,0.08437573164701463,0.0028743373695760965,0.1086493879556656,-0.01689014583826065,0.0815262570977211,-0.037035159766674035,-0.02680128253996372,-0.08493613451719284,0.05513611808419228,-0.04099638015031815,0.014034289866685869,-0.1034431904554367,0.05295940488576889,0.04594635218381882,0.05443592369556427,-0.02906084433197975,-0.008209237828850746,-0.006506979465484619,0.13964374363422394,0.015893438830971718,-0.011365056037902832,-0.059971921145915985,-0.06584758311510086,0.06972309947013855,0.053798165172338486,-0.03281926363706589,0.028725333511829376,-0.09629765152931212,-0.08755138516426086,-0.02066605538129806,-0.05987384170293807,-0.1549953669309616,0.06874524056911469,0.05720989406108856,-0.03537694364786148,0.002987573854625225,0.005843901541084051,-0.08791574090719223,-0.19924375414848328,-0.0077152769081294545,0.01193544827401638,-0.08795547485351562,-0.03523306176066398,0.05345945432782173,0.022509008646011356,0.007493798620998859,-0.08210405707359314,0.11053583770990373,0.10594070702791214,0.03591710329055786,0.05092022940516472,0.11862988770008087,0.03249809890985489,0.013541917316615582,-0.031350459903478615,-0.12735576927661896,0.03183495625853538,-0.035487484186887734,-0.068483866751194,0.051753155887126916,-0.020922599360346798,-0.031997233629226685,-0.0029752443078905344,-0.02529966086149216,-0.06735318899154663,0.07955630868673325,0.1002192124724388,-0.0666549876332283,0.0500689335167408,0.06863967329263687,0.05106448382139206,-0.0638841837644577,-0.1340278685092926,0.03484193980693817,-0.028379553928971287,-0.021768227219581604,-0.10406792163848876,0.05928540974855422,0.05772614851593971,-0.10372573882341383,0.09051942825317384,0.019380046054720882,-0.00919873733073473,0.11668045073747635,-0.004172295797616243,-0.05800300464034081,0.06463968008756638,0.101475328207016,-0.04282756894826889,-0.020339462906122208,-0.0074838874861598015,-0.00212872656993568,0.04088747128844261,-0.09231598675251007,-0.04943158477544785,-0.1932329088449478,0.009451795369386671,-0.06519678980112076,0.10785692185163498,0.04179652035236359,0.06663399189710617,-0.13594913482666016,-0.0018719350919127464,0.0986737310886383,-0.026071421802043915,0.04982660338282585,0.13622403144836426,0.07957343757152557,-0.06140813976526261,0.04732827469706535,-0.052044115960597985,0.07311607897281648
"復配",-0.13836921751499176,0.02736920677125454,0.01949291490018368,-0.009313279762864113,-0.09504542499780656,-0.009494860656559469,-0.10011202841997148,-0.008250603452324867,0.12007535248994827,0.024576766416430473,-0.1257026642560959,-0.03492756187915802,0.0765305757522583,0.10004942119121553,0.04235650599002838,0.1220824420452118,0.0062236213125288495,0.016921298578381542,-0.034232139587402344,-0.04752909764647484,0.01871070079505444,-0.1553756445646286,-0.1035092920064926,0.15742127597332,0.017527692019939426,0.08170904964208603,-0.0765502080321312,-0.18802009522914886,-0.050480592995882034,-0.01031309086829424,0.12079215794801712,-0.00644152332097292,0.05528203025460243,-0.012055381201207638,0.0807887464761734,0.09271834790706636,-0.029556773602962494,0.0028793755918741226,0.08131802827119827,0.003539064899086952,-0.03798052668571472,-0.07861578464508058,-0.03015406802296638,-0.04862163588404656,-0.03556593134999275,-0.06192673742771149,0.03182069957256317,-0.02274095825850964,0.03180411085486412,-0.01969260163605213,-0.08359576761722565,-0.09850665926933287,-0.051798887550830834,-0.06885706633329391,0.0353236086666584,0.042982496321201324,0.07382354885339737,-0.00463533028960228,0.0030427922029048204,-0.025675224140286446,0.05263359472155571,0.13859157264232635,-0.019345581531524655,-0.07868486642837524,-0.050539344549179084,-0.13940970599651334,0.02358884736895561,0.19671477377414706,0.1154910996556282,0.05176181346178055,-0.10476528108119963,0.05773171782493591,0.007039508782327175,0.12508830428123474,0.0040923841297626495,-0.1615622341632843,0.05340865626931191,-0.07063477486371994,0.036884285509586334,0.039891403168439865,0.0038119903765618797,0.043823417276144035,-0.07636220008134842,-0.0011676151771098375,-0.0308892372995615,0.03823636844754219,0.12278861552476884,0.09849460422992706,0.09151756763458252,-0.04838871583342552,-0.0006201331852935255,0.02013350464403629,-0.013574076816439629,-0.002252628561109305,-0.06402745842933655,0.0038165699224919076,-0.03180412948131561,0.02913501672446728,-0.03022065572440624,-0.029306313022971157,-0.025249797850847244,0.031338680535554886,-0.022135155275464058,0.0009772356133908033,0.021471504122018814,0.013829070143401623,0.01141542475670576,0.023552417755126957,0.028479602187871933,0.026347517967224118,0.08104673773050307,-0.12966036796569824,0.01188007462769747,-0.12165319919586183,0.06837928295135498,-0.048506379127502434,0.12703007459640506,-0.0635838657617569,-0.016824351623654366,0.003653202671557665,0.001336314948275685,-0.101443313062191,-0.08875983953475952,-0.049383360892534256,0.04089625552296639,0.023239288479089737,0.037061475217342384,0.10294359922409058,0.0739661231637001,-0.05845752358436585,-0.10622046887874603,0.09431791305541992,-0.03230778127908707,0.052324187010526664,-0.011430901475250721,-0.036196533590555184,0.06800868362188339,0.03140752762556076,-0.07048799097537994,0.1011653169989586,-0.03394163772463798,0.029195612296462062,-0.06905758380889893,0.04716760665178299,-0.15127640962600708,-0.025930579751729962,0.10072647780179976,-0.016313755884766582,-0.052145682275295265,-0.06428088247776031,-0.049747828394174576,-0.0027768900617957115,0.0039873337373137465,-0.0038892060983926053,-0.023775506764650345,-0.16038261353969574,-0.05081126093864441,-0.07953954488039018,0.003070963779464364,0.14961625635623932,-0.0853537991642952,0.06021544709801674,-0.13590872287750244,-0.07450538873672485,-0.020393479615449902,-0.0685693547129631,-0.023478740826249126,0.0907071903347969,0.07543706893920897,-0.06661228835582733,-0.031719233840703964,0.06497902423143387,-0.11175565421581267,0.02468937449157238,-0.034915082156658166,-0.012597111985087395,0.07766996324062347,-0.07100914418697357,-0.10467680543661118,0.04904055967926979,0.10617395490407944,0.044068317860364914,-0.0086677810177207,-0.003890950465574861,0.14076869189739227,-0.08640330284833908,0.055732760578393936,-0.09763336181640624,-0.0616007000207901,-0.03016658872365952,0.0033760936930775642,-0.002999881282448769,0.13519386947155002,0.0018323817057535046,0.04831458255648613,0.032854903489351266,0.048007987439632416,-0.046131335198879235,-0.011258878745138643,0.06194677948951721
"上乗せ",-0.07865852117538452,-0.005805115681141615,-0.028403207659721375,-0.0007166279247030616,0.1645776331424713,-0.06622428447008133,-0.12892942130565646,-0.031819596886634834,-0.002269850810989737,0.02489560842514038,0.10580354928970337,-0.08210122585296631,0.039313003420829766,-0.027358271181583405,0.023677609860897064,0.11515481770038605,-0.056359864771366126,-0.1780509501695633,0.1009431928396225,-0.0010061030043289065,0.08359106630086899,-0.06603965163230896,0.015622208826243876,0.13853883743286133,-0.03224016726016998,-0.010698444209992886,0.1113770306110382,-0.1450503021478653,0.12232128530740738,-0.11533499509096146,-0.05072087049484253,0.1414082944393158,0.00250971200875938,0.018019629642367363,-0.07587864995002748,-0.056412722915411,-0.17955748736858368,0.039718981832265854,-0.034212470054626465,-0.03702451288700104,-0.014951159246265888,0.016278501600027084,0.11085905134677887,0.001422949368134141,-0.18065516650676727,-0.16924947500228882,-0.009987421333789824,0.10005421936511992,-0.03799709305167198,0.04656567052006722,-0.07415389269590378,0.010769521817564964,-0.05051232874393463,-0.05316681787371635,-0.054811470210552216,-0.0031978865154087548,0.015582710504531859,0.0059013450518250465,-0.07594887912273407,0.09393969923257828,-0.017601415514945984,-0.03908933326601982,0.14396196603775024,-0.05127518251538277,0.11708825826644895,5.661915201926604e-05,0.0561271458864212,0.013640771619975569,-0.018482469022274017,0.03904680907726288,-0.04964282363653183,-0.04231853038072586,-0.03735404834151268,-0.019790763035416603,0.09401097148656844,-0.237921804189682,0.028556814417243007,0.028605489060282707,0.0609220489859581,0.050057847052812576,-0.07278858125209807,0.10182669758796692,0.06061628088355064,0.1302741914987564,-0.09713912755250932,-0.1284710019826889,0.09620817750692368,0.006460010539740324,0.009234920144081116,0.023983702063560486,0.15078727900981906,0.003370227292180061,-0.01962457224726677,0.017771495506167412,-0.0008505138684995472,0.0674828290939331,-0.024797886610031128,0.018818937242031097,0.008603451773524284,0.022886678576469418,0.011565555818378924,-0.04373837634921074,-0.007255071308463813,0.044070065021514886,-0.07357428967952727,0.008685356006026268,0.10553890466690063,0.016482515260577202,0.1810890287160873,0.0019198922673240304,-0.05529993399977684,-0.015730835497379303,0.0708145946264267,-0.036631129682064056,0.01621680147945881,0.013861197046935558,0.016406221315264702,0.04442132636904717,0.024231571704149246,0.029264163225889206,-0.010174022056162356,0.08218856155872345,-0.025199707597494125,0.1532757580280304,0.04873326793313026,0.07069677114486694,0.00673215975984931,0.0017102103447541597,-0.052344921976327896,0.010772991925477982,0.06176659837365151,-0.06072459742426872,-0.09489631652832033,-0.06086571142077446,0.001238306169398129,0.020615777000784874,-0.04354192316532135,0.010394049808382988,-0.07035225629806519,0.005447854287922382,0.03551772981882095,-0.04201555997133255,0.04911451786756516,0.04447762668132782,-0.030351290479302406,0.040474019944667816,-0.11173512786626816,-0.04685091227293015,-0.0018526235362514851,0.02343050204217434,0.0053376308642327785,-0.04258535802364349,-0.050119534134864814,0.031181199476122856,0.01823707297444344,0.0877835676074028,0.1639879047870636,-0.05362948775291443,0.038061052560806274,0.044639669358730316,-0.03932806476950645,-0.057576343417167664,0.07017701119184494,-0.09039901196956636,-0.01239866204559803,0.033133216202259064,-0.009207038208842278,-0.04037326946854592,0.006026664283126593,-0.014000438153743744,-0.0189280416816473,0.06285367906093597,-3.9028240280458704e-05,-0.08206639438867569,0.06851216405630113,0.026656074449419972,0.04551378265023232,-0.1219070851802826,0.03753113001585007,0.09221123903989792,0.017250841483473778,-0.08263275027275085,-0.03791630640625954,-0.002642362378537655,-0.044284604489803314,-0.0595555305480957,0.11591900885105133,0.015876635909080502,-0.04235386475920677,0.023588461801409718,-0.07267463207244873,-0.04015317186713219,8.541339775547385e-05,0.0331856831908226,0.16278092563152313,0.019149092957377437,-0.1460331380367279,-0.0118453036993742,0.020838048309087757,-0.0291160698980093
"上場廃止",-0.009508192539215088,-0.12880656123161316,0.010304619558155537,-0.05919860303401948,-0.0049208845011889935,-0.037562515586614616,-0.0859132707118988,0.07979846745729446,-0.06638083606958389,-0.018851548433303836,0.040185529738664634,-0.040400296449661255,-0.014545638114213943,0.01889234036207199,0.12581147253513336,0.16423481702804565,-0.037012923508882516,-0.08194159716367723,0.052952270954847336,0.00609129760414362,0.12666308879852295,-0.1317751407623291,-0.14777596294879913,-0.04761987179517746,-0.07813691347837448,0.03830861672759056,-0.004539869260042907,-0.140883207321167,0.07640687376260757,0.04582401365041733,-0.010727377608418465,0.04988740384578705,0.043485376983881004,-0.00995776429772377,0.09542889893054962,0.02397896908223629,-0.13279452919960022,-0.041691996157169335,0.0512966588139534,0.019884705543518063,-0.02276429906487465,-0.004509978927671909,-0.1194225326180458,0.01776822842657566,-0.04895443841814995,0.06519121676683426,-0.1310025304555893,-0.06976336985826492,-0.09548267722129823,-0.10331710427999496,-0.057706847786903374,0.009930554777383804,-0.02119582518935204,-0.1369154155254364,-0.010985727421939371,0.06079665571451188,-0.06996887922286987,-0.10747701674699783,0.0011249613016843798,-0.0744960680603981,-0.03268137201666832,0.10045456141233444,-0.12912331521511078,-0.15241356194019318,0.049623783677816384,-0.01748235896229744,0.05983133986592293,0.003683424554765225,0.001871626824140549,-0.004335775505751371,-0.0068759205751121035,0.05513984337449074,-0.06841965764760971,0.07747139036655426,-0.08541517704725267,-0.08499247580766678,-0.026099121198058132,0.01133684627711773,-0.04692525789141655,-0.08305713534355164,-0.06142693012952805,0.030873510986566544,0.04710264503955841,0.030527563765645024,-0.009508460760116577,-0.048582274466753006,0.018044322729110718,-0.08267448097467422,-0.03856420516967773,0.05271372944116592,0.02854810655117035,0.007858727127313614,0.010527687147259712,-0.06352924555540085,-0.09099161624908447,-0.05472221225500107,-0.091806098818779,0.08266179263591766,-0.08823315054178238,0.08030278235673904,-0.010791368782520294,0.05280076712369919,0.06371933966875076,-0.09609157592058183,0.0015861712163314225,0.03551976755261421,0.09490799903869628,0.006636852398514748,-0.08103840798139572,-0.042583946138620384,0.026167439296841618,0.06837059557437898,-0.0909717008471489,-0.0022202120162546635,-0.057675879448652274,-0.040954552590847015,0.0971708744764328,0.02792396768927574,0.10744401067495346,0.06183705106377601,0.026341676712036133,0.13364177942275998,-0.07486667484045029,-0.01037586759775877,-0.04500801861286163,-0.092538483440876,0.1285857856273651,-0.02138164639472961,0.04117191582918167,-0.026053456589579586,0.00878357607871294,0.01362905278801918,-0.07586079835891724,0.03614206984639168,-0.0925757735967636,0.054558828473091125,-0.050452910363674164,0.08194393664598465,-0.07079555839300156,0.12761098146438601,0.10390549898147584,-0.0906093642115593,0.09837730973958968,0.012141846120357512,0.027693526819348332,0.037145428359508514,0.13071133196353912,0.09367657452821733,-0.0002390447916695848,0.08635462075471878,-0.004666843451559544,0.04386374354362488,-0.06544513255357742,-0.020928118377923962,-0.008482866920530796,0.10299419611692427,0.048252999782562256,-0.10335681587457657,-0.10351911187171936,0.16458767652511594,-0.024188628420233727,0.08019894361495973,-0.1393686681985855,-0.06290943920612335,-0.08218687027692795,-0.015148653648793697,0.0006064686458557844,0.001796047086827457,-0.12747490406036374,0.05870933458209038,0.14201620221138,0.004372896160930395,-0.020022375509142883,-0.0002663115737959742,0.08461082726716995,0.007830394431948662,0.08905822038650513,-0.08704843372106552,-0.058835793286561966,0.01477716863155365,0.03673296421766281,0.023795586079359055,-0.08004391193389893,-0.04884900152683258,-0.035866495221853256,-0.13295185565948486,-0.009128942154347895,0.06604700535535812,0.02937820181250572,0.03936246037483215,0.04207535833120346,-0.0010814648121595383,0.07092509418725967,0.10522740334272383,0.08010205626487732,0.025902561843395237,-0.10438384860754013,-0.06341877579689026,0.028100622817873955,0.030353303998708725
"値上げ",-0.066136434674263,0.11114412546157837,0.03607301786541939,-0.0050634085200726995,0.08683684468269348,-0.0533287525177002,-0.05353040248155594,-0.0998922735452652,0.10324741154909134,-0.04126764461398125,0.013240884058177471,0.028758415952324867,0.06641791760921477,-0.05356500297784805,0.17179261147975922,-0.022991154342889786,0.03703591600060463,0.026476522907614708,0.05917801335453988,0.10437651723623276,0.02216498553752899,0.07669751346111298,0.02093183435499668,-0.01703585311770439,0.047001615166664124,-0.09280957281589508,-0.0547882504761219,-0.06293906271457672,0.1215091347694397,0.09072794765233994,-0.0001634478394407779,-0.08676454424858092,-0.09463527798652648,-0.005066403653472662,-0.0124107850715518,0.07377726584672928,0.08431464433670044,0.07923555374145508,0.0670638233423233,0.12200822681188585,0.08331583440303802,0.02095235325396061,-0.08582385629415512,-0.08368418365716934,-0.06006849184632301,-0.12651170790195465,-0.0206520427018404,0.11571995913982393,-0.02386613562703133,0.06125397235155105,0.02938068471848965,0.057909447699785226,-0.12460369616746902,0.0010059558553621173,0.2371489852666855,-0.10104338824748993,-0.0318584069609642,-0.043654445558786385,-0.01829960756003857,0.05127887800335884,-0.05755005776882172,-0.04110424593091011,0.017540043219923973,-0.04083821922540665,0.04249025136232376,-0.04839373379945755,-0.015038773417472841,0.0630638524889946,-0.09606026858091354,0.06518588215112686,-0.10000372678041458,0.039560042321681976,0.11638177931308745,-0.013277971185743807,0.0285178292542696,-0.12908236682415009,0.001311954576522112,-0.0950949415564537,-0.0694689005613327,0.01569761149585247,-0.009984621778130531,0.0003412778314668685,0.10336846113204956,-0.036881163716316216,-0.03709011897444725,0.054802890866994865,0.13655278086662292,-0.007658942602574825,0.09217407554388046,-0.035881854593753815,0.03209564462304115,-0.11987216025590895,-0.07340700924396515,-0.048613477498292916,-0.10034061968326567,-0.05979730561375617,0.0240568146109581,0.026053043082356453,-0.03617595508694649,0.02015393786132336,-0.06406303495168686,0.02544238232076168,0.03548851981759072,-0.07751915603876114,-0.04625524580478668,-0.03662170097231865,0.0313146598637104,-0.03191163018345833,0.047238044440746314,0.09854486584663393,0.03984292224049568,-0.03243820369243622,0.06216372549533844,-0.1583286076784134,-0.015372402034699915,0.0318538211286068,-0.06241481006145477,0.037461720407009125,0.021634763106703758,0.02054496854543686,8.454519411316141e-05,0.01961728930473328,-0.07242366671562195,-0.0054958248510956756,-0.11071204394102097,0.040199384093284614,-0.09779340028762816,0.10300779342651367,0.012274782173335552,-0.12293633073568346,0.00447058817371726,-0.09707019478082657,-0.031470395624637604,-0.029660647734999657,-0.05225884914398194,-0.005520762410014868,0.018591491505503654,-0.01814587228000164,-0.07515687495470047,0.023414773866534237,0.1047138124704361,-0.04426266998052597,0.010009607300162315,-0.041634194552898414,-0.16699865460395813,0.003732585581019521,-0.0039539202116429814,0.14293186366558075,0.036478426307439804,-0.07242882996797563,0.030969971790909767,-0.07754791527986526,-0.058246232569217675,0.04237285628914833,0.06717447191476822,0.06386299431324005,0.10991904139518738,0.05779808387160301,0.015549893490970138,-0.010311109945178032,-0.13561435043811798,-0.040946636348962784,-0.023836217820644382,-0.05518369749188423,0.025222200900316242,0.018156450241804126,-0.09848818182945253,0.013053360395133495,0.03148890286684036,-0.04543590545654297,0.00973600521683693,0.07375720888376236,0.09560113400220872,-0.06940731406211853,0.08077313005924225,0.051870476454496384,-0.08224543929100038,-0.04946379736065865,-0.07886667549610138,0.001157481106929481,-0.006668593268841505,-0.16591964662075046,0.0006198192131705582,0.007777022197842599,0.08638004213571547,-0.001864546095021069,0.027014685794711116,0.07860741019248962,0.07102354615926743,-0.05326448008418083,-0.043153539299964905,0.020689120516180992,0.04793816059827805,0.05423466116189957,0.1903530955314636,0.11210779845714568,-0.03447061777114868,0.026858901605010036,0.08577834814786911,-0.13775403797626495
"引き下げ",0.009393996559083462,0.10500403493642807,0.17418715357780454,-0.005070784594863653,-0.009799793362617493,-0.03819455951452255,0.1723877340555191,-0.0041417768225073814,0.007445065304636954,0.09735618531703948,-0.06883274018764496,0.015352278016507626,-0.07822538167238235,0.048191394656896584,0.028592176735401157,0.024763885885477063,0.012646684423089027,-0.08345852047204971,0.08119645714759828,0.11439647525548935,0.13249117136001587,-0.04079422354698181,-0.011733001098036766,-0.02350077033042908,0.10974302887916564,0.04274844005703926,0.02959616482257843,-0.16774839162826538,-0.025526873767375943,-0.10679715871810913,0.027108702808618542,0.053402289748191833,-0.034619394689798355,0.0357309952378273,-0.06116129085421562,0.018787533044815063,-0.0396149680018425,-0.11083023250102997,0.09165477007627487,0.023877354338765144,0.08947528153657912,-2.229912752227392e-05,0.07630762457847595,-0.12820124626159668,0.046584457159042365,0.008677225559949875,-0.004287354648113251,-0.0942183881998062,-0.10667067021131517,0.07351701706647873,0.0005085334996692836,0.056407202035188675,-0.02183192037045956,0.015364577993750572,0.12581826746463776,-0.04787707328796387,0.16261088848114014,-0.09286871552467346,0.03003608621656895,0.0590386688709259,0.005177771672606468,0.02992122061550617,0.0007071675499901174,-0.04398801550269127,-0.014149720780551434,0.028318535536527637,-0.05121321603655815,0.07124972343444824,-0.11928197741508485,-0.026621952652931213,-0.1610121726989746,-0.05276774987578392,0.010705752298235892,-0.01732107251882553,-0.0441720075905323,-0.19066545367240906,0.055378124117851264,0.016691947355866432,0.0032635307870805264,-0.005825134459882975,-0.04821335524320602,0.061645228415727615,0.03839679807424545,-0.08563869446516037,0.03394022211432457,-0.015411006286740303,0.13684876263141632,0.025407429784536358,-0.04706712812185288,0.06856803596019745,0.04141061753034592,0.008265363052487373,-0.002628366928547621,0.03344341740012169,0.04606485366821289,-0.014160328544676304,0.14096370339393616,-0.007988456636667252,-0.1669255793094635,-0.04426908865571022,-0.015038187615573406,0.06892088800668716,0.053929667919874184,-0.10362987965345384,0.00466272933408618,-0.02033543772995472,-0.06916487216949463,0.03107031248509884,0.0617532916367054,-0.03409546986222267,0.02296646311879158,0.014196045696735382,-0.08505553007125853,-0.07554640620946884,-0.07185698300600052,0.09030719846487044,-0.1149798333644867,0.10874421894550323,0.005898948758840561,-0.04805497080087662,-0.057823162525892265,0.014500735327601431,-0.05115629360079765,0.09143608808517456,-0.09154296666383743,0.033243853598833084,-0.06604546308517456,0.015532230027019978,0.013123405165970324,-0.1170469895005226,0.1313454806804657,-0.024232247844338417,-0.06492768973112106,0.09301608800888063,-0.07372419536113739,-0.011104627512395382,-0.07159776985645294,-0.0950482040643692,-0.0002482525305822492,-0.05598689615726471,0.03772443905472755,-0.11948318034410475,-0.04634559527039528,0.10608623921871184,-0.041588108986616135,0.05862512066960335,-0.037909474223852165,-0.05854975804686546,0.0380934588611126,0.08610449731349945,0.029070978984236717,-0.09385146200656892,0.13353809714317322,0.11836659908294678,0.07204705476760864,-0.0006641046493314207,0.06590411812067032,0.04006578028202057,0.055678892880678184,0.0761653259396553,-0.09647423028945924,-0.01050595473498106,0.06949514895677568,-0.13681188225746155,-0.09581895917654036,-0.005231669638305903,-0.06039809435606003,0.017605477944016457,0.02888284809887409,-0.0034355416428297762,-0.015236561186611652,-0.019205370917916298,0.03932100534439087,-0.06611388176679611,-0.027761856094002724,0.07433009147644043,-0.1449333429336548,-0.031532399356365204,-0.10747011005878447,0.05019638314843178,0.032100111246109016,-0.05480894073843956,-0.07141101360321045,0.056692056357860565,0.05356235802173615,-0.034533929079771035,0.08037813752889633,0.07458864152431488,0.003885419806465506,-0.015773463994264603,0.028362831100821495,-0.030273329466581345,0.026606770232319832,0.06324076652526855,0.03355979546904564,0.04176352545619011,-0.08047077059745789,0.10533002018928528,-0.0921872928738594,0.06293928623199463
"高騰",-0.0993506908416748,0.0016303767915815115,-0.08531851321458818,-0.08012455701828003,-0.06395740807056427,-0.12205442786216734,-0.030144236981868744,0.04661751165986061,-0.026355063542723656,0.019722316414117813,0.0372154638171196,0.0010407976806163788,0.021881811320781708,0.01454863604158163,-0.04058583825826645,-0.06943070888519287,0.031038504093885425,0.003291300963610411,0.028279962018132213,0.08442305773496628,0.09499070048332214,0.000228895791224204,0.006117653101682663,-0.0096298111602664,0.12378928065299988,-0.032745260745286935,-0.03600633889436722,-0.017917297780513763,0.12649422883987427,0.028217175975441933,0.01921655423939228,-0.048894226551055915,-0.117266908288002,-0.013721845112740992,0.028819814324378967,0.0691906213760376,0.06421013921499252,0.05399398133158684,0.10129914432764052,-0.05608395114541054,0.06933055818080902,-0.044797126203775406,0.032173145562410355,-0.05769436806440354,0.0012558961752802136,-0.03947451338171959,-0.07938513159751892,0.052087154239416115,-0.02770212292671204,0.12200404703617095,-0.09837908297777176,0.058124031871557236,-0.1613687127828598,-0.1436948925256729,0.029979638755321506,0.0808425322175026,-0.07903970032930374,0.07123403251171112,-0.09866537153720856,0.11433757841587068,0.031519956886768334,0.04033566266298294,0.02377762086689472,-0.06217530369758606,-0.03680681809782982,0.0001276521943509579,0.02723708190023899,0.050882935523986816,-0.04814081639051437,0.0824299305677414,-0.06839028745889664,-0.031452909111976624,0.00878238398581743,-0.02707020193338394,-0.02510735206305981,-0.0719502866268158,-0.0012694067554548385,-0.019393950700759888,0.03807318955659866,0.07426007837057114,0.021253909915685654,-3.889142681146041e-05,0.09300193190574646,-0.14247414469718933,0.10424311459064484,0.09865807741880417,-0.02979193814098835,0.1664772778749466,-0.058431196957826614,0.08915556967258452,-0.06478404998779297,-0.05515370517969132,-0.13033917546272278,-0.09569837898015976,-0.14295300841331482,-0.08030349761247635,0.0524132065474987,-0.14322791993618011,0.023285005241632458,0.029542608186602592,0.061657786369323724,0.020039675757288933,0.06450585275888443,-0.04635130614042282,0.021081982180476192,0.007408314384520055,0.04576322436332703,0.06627142429351808,0.1453552395105362,-0.00958078820258379,0.14692017436027527,-0.026891212910413742,0.12831750512123108,-0.0530521497130394,0.060951367020607,0.01091816555708647,-0.07647088915109634,0.01615078188478947,-0.00042492471402511,0.034982241690158844,0.09727293998003006,-0.043337415903806686,0.11579984426498413,0.07237990200519563,-0.06908635050058365,-0.04285485669970512,-0.012214956805109978,0.034462329000234604,0.1428479701280594,-0.0992387905716896,0.0792129784822464,-0.037468340247869485,-0.06377441436052322,-0.007286843843758106,-0.050103668123483665,-0.10889851301908493,0.003950450569391251,-0.11948924511671065,0.03644759580492973,0.05913225933909416,0.0810944065451622,0.029915262013673782,-0.022161602973937992,-0.04788428917527199,-0.0629950761795044,0.0006555082509294152,0.0008384594111703336,0.16040843725204468,0.02271668240427971,-0.09201277047395706,-0.05737891048192977,0.034454412758350365,-0.10158483684062958,-0.005422255489975214,0.019490247592329982,0.018004432320594788,0.09427962452173233,-0.0494256392121315,-0.025343181565403942,-0.010755223222076893,-0.0007693226216360928,-0.08472204953432083,0.08429247885942459,-0.004798296838998794,-0.047832291573286057,-0.013752816244959831,0.05850686877965928,-0.0147295743227005,0.12654529511928558,0.09170298278331757,0.03676603734493256,0.060347117483615875,0.06672240048646927,-0.06634394824504852,0.02989842370152473,0.08461818099021913,-0.07947877794504166,-0.009647129103541374,-0.05210352689027786,0.10765376687049866,-0.10371217131614684,-0.11083721369504927,-0.12050510197877885,-0.017977399751544,0.058229196816682816,-0.026753179728984836,-0.10660427808761597,0.05207798257470131,0.09960192441940308,-0.0011082097189500928,-0.026319265365600586,0.014413917437195778,0.13418994843959808,-0.037071023136377335,0.11058123409748076,-0.02873141132295132,-0.026201950386166573,-0.02308549731969833,0.005615901667624712,-0.15954537689685822
"上方修正",-0.027585851028561592,-0.03951248899102211,0.027327146381139755,0.018055960536003116,0.10549190640449524,-0.0795406922698021,0.00539509067311883,0.1452808976173401,-0.05127331241965294,0.06261885166168213,-0.097764290869236,0.10319369286298752,0.08051025122404099,-0.043396975845098495,0.0017693691188469531,-0.1650596261024475,0.1024717390537262,-0.04119381681084633,-0.0065974099561572075,-0.05909350514411926,-0.03267141431570053,-0.01943065226078033,-0.013451828621327877,-0.16127696633338928,0.12042974680662155,0.04511339589953423,-0.011123351752758026,-0.07621503621339798,0.07871517539024353,-0.08427770435810089,-0.027426451444625854,0.029051715508103367,-0.05514315143227577,-0.06017633154988289,-0.006146316882222891,0.023405740037560463,0.06258919835090637,-0.1304740458726883,0.027258923277258876,-0.029311913996934887,0.10572949796915054,-0.01703998632729054,-0.03992820158600807,0.047587059438228614,-0.03812134265899658,-0.11299845576286315,0.09002720564603807,0.002580247120931745,-0.07945063710212708,-0.03322309255599976,-0.023818820714950558,-0.03191743046045303,0.0016088323900476098,0.06311091780662538,0.1632775217294693,0.10651187598705293,0.03723724558949471,-0.09400645643472673,-0.1713801473379135,-0.1109822541475296,-0.028387628495693207,-0.07535577565431595,0.03600933030247688,0.04091685265302658,-0.056274861097335815,0.01206720434129238,0.011332400143146515,0.10104832053184508,0.003105966141447425,0.08812980353832245,0.044892095029354095,0.13245166838169098,-0.03688973560929298,0.015203191898763182,-0.017896106466650963,-0.1067463830113411,0.07594016194343567,0.0007133023464120923,0.10599903762340546,0.0985223725438118,-0.07476861029863358,-0.011553371325135231,0.07755917310714723,-0.062213752418756485,-0.02343058027327061,0.00851456169039011,0.13319887220859528,0.0638253465294838,0.2711724042892456,-0.12032152712345125,-0.009210703894495964,0.051918815821409225,-0.03581070899963379,-0.0015873812371864915,0.014746492728590962,-0.07694007456302643,0.025314848870038983,-0.07674659043550491,-0.1550046056509018,-0.02133907563984394,-0.028041668236255646,-0.01659959927201271,0.0060442700050771245,0.121110238134861,0.09099861234426497,-0.02276664227247238,0.018872424960136414,0.051188815385103226,0.043153375387191766,0.0016085556708276274,0.036477863788604736,-0.1342531442642212,0.0038412266876548533,-0.020345380529761314,0.018500449135899544,0.0273685771971941,-0.002127848332747817,-0.0046028364449739465,-0.0668276697397232,-0.03730698302388191,-0.061742853373289115,0.07148580253124237,0.07518314570188522,0.03321143984794617,-0.01918192021548748,0.03394649550318718,-0.057043593376874924,0.12800756096839905,0.03364027291536331,-0.07896097004413605,-0.15236882865428925,0.15478938817977905,0.00040273799095302815,0.015428567305207253,-0.026605762541294098,-0.015383438207209109,-0.0252821184694767,-0.020261384546756744,-0.09266788512468338,0.05780696868896485,0.056454334408044815,0.062050998210906975,0.04662081226706505,-0.00027020511333830655,-0.08468697220087051,0.09164323657751083,0.052618902176618576,-0.05473530665040016,-0.08472180366516112,-0.02108214981853962,-0.11097169667482376,-0.12735728919506073,-0.03206446021795273,-0.010866913013160229,-0.05013436824083328,0.040511291474103935,-0.045221030712127686,0.02726953662931919,-0.004669201094657183,0.08582951873540877,-0.10238321125507356,0.1849879324436188,0.041305989027023315,-0.0579652413725853,-0.03602927178144455,0.04115723446011543,-0.028544098138809208,-0.028175856918096542,-0.1128792241215706,-0.009081671945750713,-0.02055617049336433,0.0723433718085289,-0.006699716672301292,0.03245054930448532,-0.07651425898075104,-0.009196416474878788,-0.058353424072265625,-0.06940962374210358,0.004141311161220075,0.033541779965162284,-0.008043507114052774,-0.013291157782077791,-0.039931438863277435,0.11953025311231613,0.017882151529192924,0.08256735652685165,-0.03003313392400742,0.02708545885980129,0.05803653225302696,-0.05969038605690001,0.010233632288873196,-0.04694608226418495,0.018791070207953453,0.09365681558847427,0.034231293946504586,-0.009579330682754515,-0.01645934209227562,0.08303108811378479,0.004002614412456751,0.044446084648370736
"追い風",0.014163747429847716,0.0012992667034268381,0.02242034301161766,-0.005052282940596342,-0.02986989915370941,-0.0635208711028099,-0.13281764090061188,-0.0400671549141407,0.006635454948991537,-0.07167582213878633,-0.11954440921545027,-0.039399299770593636,0.048521962016820915,-0.14989373087882996,0.0339408703148365,0.04269896075129509,0.049602348357439034,-0.06493087112903595,-0.07882021367549896,0.059250585734844215,0.022212464362382892,0.04744256287813186,-0.12918521463871002,-0.05017581209540367,-0.009208342991769314,0.055278290063142776,0.02759314514696598,0.03648998960852623,-0.002698492491617799,-0.008591979742050171,0.12760256230831146,-0.09681077301502228,0.004391775932163,-0.024631733074784282,-0.02435874938964844,0.03731168806552887,0.024616258218884468,0.02505212277173996,-0.03508276864886284,0.0807766392827034,-0.00938522070646286,-0.15024474263191226,-0.002719152020290494,0.020258279517292976,0.04855702444911003,-0.013728508725762369,0.06250099092721939,-0.1718406230211258,-0.005568452179431914,-0.038760147988796234,-0.04796584695577622,-0.08952345699071884,-0.11184225976467133,0.045365363359451294,0.06522881239652634,-0.028125470504164696,-0.030621234327554706,-0.09112764149904252,0.1273811012506485,-0.13393902778625488,-0.014579849317669868,-0.04997549206018448,-0.11990594863891603,-0.09423881024122238,-0.02019459009170532,-0.053224537521600716,0.09398817270994186,0.08237698674201965,0.03223402053117752,0.10185874998569487,-0.04947865381836891,0.13313902914524078,0.032836902886629105,-0.09259162098169328,-0.049168720841407776,-0.046167194843292236,0.18074625730514526,0.053979527205228806,-0.03437945246696472,-0.008181464858353138,-0.03123687393963337,-0.05956624820828438,-0.015722861513495445,-0.008485307916998863,0.024302233010530472,0.14085480570793152,-0.010954243130981922,0.01668035052716732,0.0181629229336977,0.00660066120326519,0.03969210386276245,-0.045112576335668564,0.10360800474882126,-0.04939272999763489,-0.0815044716000557,-0.07299642264842987,0.03502518683671951,-0.034002404659986496,-0.10852891206741333,0.0482797920703888,-0.03306760638952255,-0.028897741809487343,-0.2169623225927353,-0.1042320430278778,-0.057743296027183526,-0.10559874773025513,0.0607977919280529,0.0014355095336213708,-0.03891444206237793,-0.015941737219691277,0.010821375995874405,-0.018572665750980374,0.09500236809253693,-0.13007773458957672,-0.07590430974960327,-0.11423186212778093,3.3473163057351485e-05,-0.03914259746670723,0.02283043973147869,-0.15621359646320346,0.05953465029597281,-0.05923867225646973,-0.05594553425908089,0.015339616686105728,0.059913106262683875,-0.04646427184343338,0.014605195261538029,0.02588759921491146,0.022790547460317608,-0.02539623342454433,-0.014958655461668968,0.09864213317632677,-0.009092021733522415,-0.010535541921854021,-0.032287899404764175,0.08481220155954361,0.05283423513174057,0.12755949795246124,0.031915582716465,0.2410053908824921,0.0980081856250763,-0.022420527413487438,0.13583730161190033,-0.12210329622030258,-0.013626525178551674,-0.031813401728868484,-0.059200327843427665,-0.04524282366037369,-0.004901014268398285,0.06889490783214569,-0.0012368032475933433,-0.05307826772332192,-0.07896949350833893,-0.07586480677127838,0.015469782054424288,-0.1242321878671646,-0.01102709025144577,-0.037650566548109055,0.009043795056641102,-0.045060239732265465,-0.1281781941652298,-0.020365750417113304,-0.057236220687627785,0.02572752721607685,-0.018712183460593224,0.004126792773604393,0.058288916945457465,0.0033002954442054033,0.03272739052772522,-0.06215357780456542,0.014295578002929688,0.06254568696022034,0.05336461961269379,-0.04632726684212685,0.09912109375,-0.0410643108189106,0.0751737654209137,-0.056917723268270486,-0.04686857387423515,0.011939259245991709,-0.0010233495850116014,-0.10394299775362016,-0.027481148019433018,0.051770750433206565,-0.036930151283741,-0.11005307734012604,0.09433813393115996,0.0378866083920002,-0.07406686991453171,0.07933711260557175,-0.017875077202916145,-0.0762452632188797,-0.06755778193473816,-0.002360939979553223,0.08618204295635222,-0.02154015004634857,-0.047444917261600494,0.15153610706329346,-0.021594593301415443,0.04302626848220825
"寄与",-0.04315774887800217,-0.016033567488193512,-0.022407781332731247,-0.12174545973539352,0.1887117028236389,0.06691587716341019,-0.06244301795959473,0.0855942815542221,-0.03019887395203114,-0.0856788381934166,-0.058161012828350074,0.015279012732207775,0.1098582074046135,-0.14603108167648315,0.015735376626253128,0.010512731969356535,0.02409673109650612,-0.024612318724393845,-0.026191506534814838,-0.02246801555156708,0.12428469210863112,0.08776858448982239,-0.04595393314957619,0.006059580482542515,0.14876669645309448,-0.019138051196932796,0.024163903668522838,0.09516802430152893,0.05251897498965264,-0.0576215572655201,0.07134787738323213,0.023669743910431862,-0.04137875512242317,0.09475738555192947,-0.054628077894449234,0.020101707428693768,-0.0673227459192276,0.03847755119204521,0.06939288228750229,0.014876645058393478,-0.04391129314899445,-0.024692291393876083,0.009351291693747044,0.0027242833748459816,0.02732129953801632,-0.03329513221979141,0.011778760701417923,0.04222916066646576,-0.06565898656845093,-0.03609931841492653,-0.10434070229530333,0.040041912347078316,0.07310362905263901,0.02807341329753399,0.07190993428230286,-0.02780047245323658,-0.036430735141038895,-0.012637198902666569,-0.07716947048902513,-0.004085468128323555,-0.011682981625199318,-0.13691070675849915,0.02839398756623268,0.090419203042984,0.03751899302005768,0.1169663667678833,-0.040271677076816566,0.05348147451877594,0.025379959493875504,0.16527143120765686,0.07072142511606216,-0.07085420936346054,0.041701048612594604,0.03979048505425453,-0.03247200325131416,-0.15606679022312164,0.08877988159656525,-0.08628744632005693,0.0897362232208252,0.04453431442379952,-0.11259367316961287,-0.107488714158535,-0.06768033653497696,-0.02498353086411953,0.13982541859149933,0.08496734499931335,0.04012329876422882,0.07258926331996918,0.08402691036462784,0.05368774756789208,-0.025895865634083748,0.003785234875977039,-0.035681042820215225,-0.01164951268583536,-0.06256911158561708,-0.1656055450439453,0.19201745092868805,-0.14629682898521426,0.03333578258752823,0.11560562252998352,-0.09137862920761107,-0.0810108631849289,-0.07858937233686447,-0.10733392089605333,0.0962061956524849,0.07795727252960205,0.08279874175786972,-0.08424802869558334,-0.048403941094875336,-0.09642302244901656,0.023161808028817173,-0.038974117487668984,0.03725021705031395,-0.1082296222448349,-0.048479977995157235,-0.1087353378534317,0.06792182475328445,-0.04672768712043762,0.03185461089015007,-0.05785996839404106,-0.01741490513086319,-0.029688460752367973,0.054343748837709434,-0.10615237057209016,-0.014169334433972837,0.05361761152744293,-0.015563457272946838,0.024436034262180332,-0.04905121773481369,-0.05508454889059067,0.06576672196388245,-0.03646339476108551,0.04474098980426788,-0.03494928777217865,0.15848059952259064,0.03868282213807106,0.08413878828287125,0.03163889795541763,-0.008266815915703773,0.08726902306079865,0.007524523418396711,0.04787701740860939,0.016550770029425618,-0.014548178762197496,0.06766379624605179,0.04167886823415756,-0.09256108850240707,-0.0009139697649516164,-0.14986054599285126,-0.07878232002258301,0.02986165508627892,0.030477315187454224,-0.08061666786670685,-0.061474412679672234,-0.025623038411140442,0.006660536862909794,0.05168526992201805,-0.003018796211108565,-0.10080095380544662,-0.06481621414422989,-0.046418510377407074,0.06204449757933616,0.1325421929359436,0.02737780101597309,0.09619994461536407,-0.08847496658563614,-0.06630711257457733,-0.012189053930342196,-0.009736856445670128,-0.018029864877462387,-0.031331617385148995,-0.07846900820732118,-0.02338794805109501,0.034857138991355896,-0.058721128851175315,0.05316909775137901,-0.06677646189928055,-0.0637257993221283,-0.06371976435184479,0.025991743430495262,0.0870153158903122,-0.05563144385814667,-0.0590064637362957,0.08081645518541336,0.0740073025226593,0.10367896407842636,-0.028775131329894062,-0.032315153628587716,0.05840140953660011,-0.02902089059352875,-0.06965415924787521,-0.06214142590761185,0.01295724045485258,0.04658577591180802,-0.016036590561270714,0.0007415772415697576,-0.13805261254310608,0.012165495194494724,-0.10316678881645204,-0.030268168076872826
"恩恵",-0.04329647496342659,0.043008487671613686,-0.12197092920541765,-0.016439622268080708,-0.11872534453868865,-0.033556357026100166,-0.01541139930486679,0.04261454194784165,-0.09665575623512268,0.06356454640626907,0.012598770670592785,0.0107458820566535,-0.027339670807123184,-0.007858573459088802,-0.0053838794119656095,0.15953315794467926,-0.04190092906355858,0.06154753640294075,0.01978377252817154,0.09297970682382584,0.05297786369919777,-0.04034041240811348,-0.1890075206756592,0.002835176652297377,0.05025804415345192,-0.08527413755655289,-0.03384645655751228,0.1308571696281433,-0.012135375291109085,0.012597894296050072,0.06043968722224236,-0.016058214008808136,0.0004795388376805932,-0.03011322394013405,0.01376719493418932,-0.0065761920996010295,0.07198723405599594,0.10584456473588943,0.047475922852754586,-0.02548938058316708,0.05623423308134079,-0.046322271227836616,0.20162059366703036,0.030456800013780594,0.038572017103433616,0.03050256706774235,-0.05311312153935432,-0.047828901559114456,-0.09778627008199693,0.11450694501399995,0.03095615841448307,-0.08173933625221252,-0.16334693133831024,0.11180315911769867,0.07214034348726273,0.08524995297193527,-0.09469104558229446,0.06402717530727386,0.09407136589288713,0.007207599934190513,0.01649031974375248,0.016457557678222656,-0.14019647240638733,-0.0003712592297233641,-0.04083438590168953,0.047977056354284286,-0.08128377050161363,0.007821120321750641,-0.004222255200147629,-0.08609666675329207,-0.07794727385044098,0.0052548726089298725,-0.0392184779047966,0.06451424211263658,-0.08136717975139618,0.006727047264575957,0.0983324721455574,-0.07156562060117723,0.026735065504908558,-0.02578338049352169,0.03470735624432564,-0.0012720167869701982,0.04855157807469368,0.01840839721262455,-0.04979467391967773,0.002316005527973175,-0.11171777546405792,0.061460081487894065,0.09289682656526567,0.007141444832086562,-0.049502968788146966,-0.0963912159204483,0.023788001388311386,0.10303980112075806,0.01828699372708797,-0.06053378432989121,-0.039727386087179184,-0.060681864619255066,-0.0301299411803484,0.07442627847194673,0.07494840770959854,0.0270419716835022,-0.008226950652897358,-0.004320803564041853,0.017416397109627724,0.0052086240611970425,0.1535198539495468,-0.027099693194031715,-0.07824297249317169,0.08767358958721161,0.18142835795879364,-0.0527481809258461,0.14077360928058624,-0.13404639065265656,0.0076615982688963405,-0.01206102594733238,0.11153313517570496,0.019417805597186092,0.1385062038898468,-0.04437119513750076,0.008543261326849459,0.042813558131456375,-0.09613113850355147,-0.01848362386226654,0.007227242924273014,0.016366980969905853,-0.02902428433299065,0.06423674523830414,-0.04117738455533981,-0.04273415356874466,-0.02831610105931759,-0.029561934992671013,-0.014466702938079834,-0.032718002796173096,-0.01022755354642868,-0.06014199927449225,0.034801770001649864,-0.05409013479948044,0.024968916550278664,0.24100878834724426,-0.04788951203227043,-0.003181281499564648,0.009171110577881336,0.023752566426992416,-0.0064921677112579354,0.007254797033965588,0.07714588195085527,-0.07156242430210114,0.006145364139229059,0.032741542905569083,-0.0358436219394207,-0.043034058064222336,-0.05380854383111,-0.0030466255266219373,0.11388829350471495,-0.035684440284967416,0.1260279268026352,-0.0902455747127533,-0.032738514244556434,-0.04019179567694664,0.008999219164252281,-0.01396164856851101,0.0060567548498511314,0.04589028283953667,-0.10675746947526933,0.04705268517136574,-6.33541276329197e-05,-0.011122860945761206,0.09529177099466324,-0.0038478989154100422,-0.011130289174616335,-0.020727764815092087,0.09114450961351396,-0.09179756045341493,0.12292895466089247,0.0888642817735672,-0.16859030723571775,-0.0353895016014576,0.00920008309185505,-0.04242576658725738,0.059528648853302,-0.05795018747448921,-0.023431159555912014,0.006449303124099971,0.05651986226439476,-0.01273573376238346,0.028278525918722156,0.16807851195335388,-0.043095577508211136,-0.05464249476790428,-0.007449419237673283,0.10301944613456726,-0.034410126507282264,0.15323926508426666,0.05502478033304215,-0.017466012388467792,-0.11525540798902513,0.06456734985113144,0.09705184400081636,0.057145819067955024
"拡充",-0.006240861490368843,-0.003447751281782985,-0.038567695766687386,0.027254601940512657,0.05127592384815216,0.1055370271205902,0.10943587869405746,-0.0816999226808548,0.03432818129658699,-0.029308520257472995,-0.09412165731191637,-0.013869578950107098,-0.12852177023887634,-0.055022157728672035,-0.11349115520715715,0.05532480776309967,0.1402081996202469,-0.051338780671358115,-0.023419372737407684,-0.02303558774292469,0.1283608227968216,-0.014869231730699541,-0.07387194782495499,0.10238631814718246,0.044789489358663566,0.10028168559074402,0.02967185154557228,0.0010063123190775514,0.13256599009037018,-0.05723710358142853,0.0810026302933693,0.07803020626306534,0.13354286551475525,0.06105339154601098,-0.14245831966400144,0.07703525573015213,-0.11191347241401672,0.08891821652650833,0.00255657103843987,0.042040128260850906,0.03623024746775627,0.02483512833714485,-0.10590962320566176,0.041150879114866264,-0.09075796604156494,0.004390394780784845,-0.005940025672316551,-0.051244363188743584,-0.11403493583202362,0.07709327340126038,-0.05537574738264084,0.04259873926639557,-0.06265120208263397,0.0109503623098135,-0.07046855241060257,-0.003881842363625765,-0.11631637066602707,-0.11909420043230055,0.054286930710077286,0.07994188368320465,-0.047998979687690735,-0.00034365511965006584,-0.10285240411758424,-0.037102777510881424,0.011808291077613829,-0.05347754806280136,0.09193535149097444,0.05051092058420181,0.04475860670208931,-0.007453317753970623,0.014123139902949331,-0.02856706827878952,0.029052875936031338,0.027747776359319687,0.02062663808465004,-0.12545181810855865,-0.012934153899550438,0.12451187521219255,0.05942491814494132,0.0815381184220314,-0.08086767047643661,-0.021047690883278847,0.04408687725663185,0.07737880200147629,0.03980737179517746,0.06654706597328186,0.07994050532579422,0.08158232271671295,0.09835739433765413,0.008554103784263134,0.005350223276764154,-0.08509454876184464,0.03535336628556252,0.015931176021695137,-0.07267767935991287,0.061796944588422775,0.07975901663303375,0.0791790708899498,-0.07308685034513474,0.018847443163394928,-0.03813096135854721,0.040758747607469566,0.06745773553848268,-0.03267846256494522,0.11663010716438292,-0.00798730831593275,-0.08037127554416656,0.03651829436421394,-0.12369804829359055,-0.028723202645778656,0.03247956931591034,-0.035488255321979516,-0.07031664997339249,-0.03484724834561348,-0.029494524002075195,-0.035563576966524124,0.09325160831212996,-0.05137842521071434,-0.0865071564912796,-0.0868474468588829,0.06576494872570038,-0.022927043959498402,0.061226923018693924,-0.02470189891755581,0.034411411732435226,-0.01738222874701023,-0.005890536587685347,0.030546329915523533,-0.004934938158839941,0.20976851880550385,0.11551448702812195,-0.013159045018255709,-0.06142547354102135,0.006891026161611079,0.055361710488796234,-0.08378470689058304,0.1168791726231575,-0.09336937963962556,0.1023874133825302,-0.04023769125342369,-0.031171383336186412,-0.0487486831843853,-0.007978938519954681,0.09761964529752733,-0.045371733605861664,0.08570608496665955,0.05109648406505585,-0.0734100341796875,-0.07652837783098221,0.02278648503124714,-0.11281540244817735,-0.02110479772090912,-0.0003273673355579376,0.055568791925907135,0.057184837758541114,-0.012714824639260769,0.00282161682844162,0.016656555235385898,-0.1191706359386444,-0.03267095237970352,0.04657430574297905,-0.019123952835798264,-0.045037031173706055,-0.10612445324659348,0.08915580064058304,-0.012634127400815487,-0.021749051287770268,0.13958756625652313,0.17122037708759308,0.14082428812980652,0.025094574317336082,0.016169659793376926,-0.17600946128368378,-0.041102245450019836,0.02702408656477928,-0.013194851577281952,-0.06109371408820152,0.007992318831384182,-0.057437125593423836,-0.09887900203466417,-0.024281378835439682,-0.062497880309820175,0.05509791895747185,-0.005983791779726744,0.09650839120149612,0.02163427509367466,-0.05509830266237259,-0.008681591600179672,-0.002553862286731601,-0.02728935331106186,-0.1090344563126564,-0.035464353859424584,-0.03139539808034897,0.015418058261275291,0.1685808300971985,0.03152010217308998,-0.08795355260372162,0.02483045682311058,-0.017114844173192978,-0.06971554458141327
"増強",-0.01279497891664505,0.13310667872428894,-0.045990269631147385,-0.05686630308628082,0.0010644334834069014,0.09713198989629744,-0.014065613970160484,0.061543989926576614,-0.04374416545033455,0.119309663772583,-0.13682495057582855,0.12291668355464935,0.005172924604266882,0.05176953226327896,0.003758452367037535,0.06988640129566193,-0.09658709168434143,-0.14148995280265808,0.21486778557300568,-0.12288738042116165,0.11059822887182236,-0.02747104130685329,-0.02445150353014469,-0.0545492134988308,0.050468504428863525,0.033761262893676765,-0.01857218891382217,-0.1181526854634285,0.11635648459196092,0.05282289534807205,-0.09693098813295364,0.09824313968420027,0.09222280979156494,-0.0384494885802269,-0.06891997158527374,0.036058075726032264,-0.1288970708847046,0.0024501399602741003,0.05508225783705712,0.03233042731881142,-0.0017948445165529847,0.11111270636320114,-0.0779581218957901,-0.016427626833319664,-0.0453825481235981,-0.10263733565807344,-0.04860266298055649,0.062337905168533325,-0.11286163330078125,0.07715175300836563,-0.15801319479942322,-0.03695904463529587,-0.07488159090280533,-0.08051597326993942,0.006695973686873914,0.036437176167964935,-0.030448056757450107,-0.1010417491197586,-0.01967709697782993,0.022523755207657814,-0.048332273960113525,0.06361708045005797,-0.05584954470396042,0.03028373792767525,0.1139606311917305,-0.05411570146679878,0.13212242722511292,0.11727062612771988,0.04532105475664139,-0.07010920345783234,-0.1140008345246315,0.049943216145038605,0.021644368767738342,0.11156968772411346,0.002387921791523695,-0.055839437991380685,-0.0942259430885315,0.0749867707490921,0.017596198245882988,0.030281521379947662,-0.02567734755575657,-0.05178330093622208,0.05961496010422706,-0.020150087773799896,0.017832867801189426,0.02576236985623836,0.0377422496676445,-0.08838178217411041,0.028215430676937107,0.10885559767484664,0.1004071980714798,-0.08240481466054916,0.07730413973331451,-0.053233172744512565,0.0026805808302015066,0.03383954986929893,0.029889645054936412,0.10364233702421187,0.0876617282629013,0.032052505761384964,0.08362235873937607,-0.014193410985171797,0.02080222778022289,0.014877533540129663,0.04841475933790207,-0.009512098506093023,-0.045855268836021416,0.0223937276750803,-0.1119883581995964,0.0580115057528019,0.020561574026942253,0.010408398695290087,-0.10560807585716248,0.0120262261480093,-0.1277434229850769,0.033316772431135185,0.09436804056167604,0.008248236030340195,-0.08874192833900453,-0.1267923265695572,0.023537658154964447,-0.028134249150753018,-0.14490121603012085,-0.13069599866867065,-0.10359249264001846,0.007436612620949745,0.024177072569727898,-0.07405710220336914,-0.04451911523938179,-0.030649371445178982,-0.08365330845117569,-0.10823127627372743,-0.11582937091588975,-0.03062362223863602,-0.05728882923722268,-0.03629210963845253,0.04661715030670166,0.002786474768072367,-0.01686607487499714,-0.011539867147803308,0.023445390164852142,-0.054589305073022835,0.03387884423136711,0.06400248408317566,0.01598615944385529,0.05339481681585312,0.012593921273946762,-0.04160608351230621,-0.12227848917245865,0.0843459963798523,-0.051334705203771584,0.03496517986059189,0.05952673032879829,0.006584398448467255,-0.05206703767180443,-0.004374926909804344,0.03051285818219185,0.04863361269235611,0.013788274489343166,0.02181934006512165,-0.08658209443092346,-0.1063392013311386,-0.05417968332767487,-0.0497952364385128,-0.01790008880198002,0.074586421251297,0.03772316500544548,0.021901212632656097,0.06791633367538452,-0.029285749420523643,-0.058318018913269036,-0.09450049698352814,-0.008584514260292053,0.021047832444310192,0.15070997178554535,0.04010724648833275,0.06384602934122086,0.0094789182767272,0.012475102208554743,-0.10459235310554504,0.000562274653930217,0.03941534832119942,0.10351791977882384,-0.07977324724197388,-0.07785999774932861,-0.05552605539560318,0.09026753902435304,0.018180569633841515,0.02206901647150516,0.0009654780733399092,-0.09375833719968796,-0.013289802707731724,0.10514107346534728,-0.08233700692653656,0.1140988990664482,0.054685670882463455,-0.03054736740887165,0.005438248161226511,0.021521011367440224,-0.003117698011919856
"増税",-0.09188158810138702,0.09475814551115036,-0.1109343096613884,0.12682880461215973,-0.049219269305467606,0.035819802433252335,-0.10455624014139177,-1.978913815037231e-06,0.09834011644124983,-0.02320350706577301,-0.12502019107341766,0.08172227442264557,-0.07977637648582457,-0.03953050449490547,0.0504048727452755,0.08487658947706223,0.1006043404340744,0.08518268913030624,0.1452629268169403,0.08682567626237869,0.08260578662157059,-0.049069341272115714,-0.09351367503404616,-0.03320695087313652,0.05054833367466927,0.04488417133688927,0.003230854868888855,-0.004893537610769272,0.001973399426788092,-0.043150540441274636,-0.03073974512517452,-0.09355659782886504,-0.04472735151648522,-0.012860874645411968,-0.05962587520480156,0.020750025287270542,0.03520870953798294,0.06613469123840332,0.07681301981210709,-0.02820909209549427,0.09226533770561217,-0.03274747356772423,-0.03882549703121185,0.023687761276960373,0.013135408982634544,-0.11938149482011795,0.0002513256331440061,-0.05852008983492851,0.0006148217362351716,0.08169856667518616,0.016167230904102325,-0.05970946326851845,-0.10409606993198396,0.036756627261638634,0.16272790729999542,-0.14319272339344025,0.03786509484052658,-0.0369546078145504,-0.0715436339378357,0.09771229326725006,-0.10624735802412033,0.09625718742609024,0.0009638841729611158,-0.009581119753420351,-0.04740509018301964,0.02281660959124565,0.007607033010572195,0.1103176549077034,-0.018533855676651,-0.005228528752923012,-0.1391454041004181,0.010136622004210949,-0.04479186981916428,-0.09876462817192078,0.005098672118037939,-0.07201843708753586,0.11225416511297226,0.030505403876304626,-0.0737513080239296,-0.06380583345890045,0.03661704808473587,0.04516751319169998,0.12007386982440947,-0.08131532371044159,-0.06196076050400734,-0.09017927944660188,-0.015430107712745668,0.0963333249092102,-0.00815871637314558,-0.06026723608374596,0.10867828130722046,-0.0786358118057251,0.048995282500982285,-0.10267939418554306,-0.05930651724338532,-0.06965871155261992,0.05697378143668175,-0.01350116916000843,-0.10528841614723206,0.14927171170711515,-0.05952460318803787,0.06328801810741425,-0.07450982183218002,-0.04304347559809685,-0.09262780845165253,-0.03415292501449585,0.059593021869659424,-0.11300099641084672,-0.04527977854013443,0.04017278552055359,0.07106394320726395,0.02615380473434925,-0.07279183715581894,-0.17298389971256256,-0.061583362519741065,-0.19145618379116056,0.06440357863903046,0.002811308717355132,0.012421214021742344,-0.05646350607275963,-0.10522165149450302,0.08895964175462723,0.09422541409730913,0.08460965752601624,0.12234295904636384,0.006517717614769936,-0.01563260331749916,-0.0337202362716198,0.005476072896271944,0.02398686483502388,0.09652366489171982,-0.044577285647392266,-0.0051428438164293775,-0.0454096756875515,-0.044255871325731284,-0.019678687676787376,0.08298813551664352,-0.003247900167480111,0.08681672811508179,0.10322275012731552,-0.057945173233747475,-0.02349940873682499,-0.06697583943605423,0.07648231834173203,0.07976633310317993,0.04792331531643868,0.098497174680233,-0.022306708618998528,0.04924506321549416,0.0150687787681818,0.055982541292905814,-0.06961382180452348,0.005348833743482828,0.03792686387896538,-0.12187837064266205,-0.02975785546004772,0.027427481487393383,0.01669614017009735,-0.05918685719370843,0.05873110145330429,-0.08705676347017287,-0.0018557123839855196,0.011665096506476402,-0.056630365550518036,0.002320990664884448,0.013951360248029232,0.035727951675653465,-0.0038887802511453633,-0.06038147956132889,0.02804712764918804,-0.011548477225005628,-0.015281985513865948,0.10765109956264496,-0.08554770052433014,-0.06338895857334137,0.1433306336402893,0.036331698298454285,0.0994950234889984,-0.06606714427471161,0.06843094527721405,-0.01031310111284256,-0.05423661321401596,0.06378400325775146,0.06447212398052216,-0.004065144807100296,0.008324597030878067,0.021197155117988583,0.0230986662209034,0.14466693997383118,-0.0094140050932765,-0.015499096363782884,0.0898551270365715,-0.024922316893935204,-0.017981266602873802,0.09053116291761397,0.02201281301677227,0.02445218525826931,0.12157967686653134,-0.05178636312484741,0.07826165854930878
"低下",-0.06478948891162872,0.22441594302654266,0.020003274083137512,-0.025023281574249268,-0.1011357381939888,-0.00818183645606041,-0.0004987700958736241,0.02483442239463329,0.08486908674240112,0.13051897287368774,-0.1098896786570549,-0.007246750872582197,0.05000685527920723,-0.08057752251625061,-0.03735455870628357,-0.10385606437921524,-0.006793735083192587,-0.01853567361831665,0.07112571597099304,0.12302134186029436,0.00154210499022156,-0.018318768590688702,-0.05871784687042236,-0.036506753414869315,0.048258882015943534,-0.0017945856088772414,0.10532121360301973,0.0265963114798069,0.08742007613182068,0.03487395495176315,0.08449267596006392,0.18969643115997314,-0.054084591567516334,0.04631486907601357,0.04259974882006645,-0.04189318418502808,0.07431653887033463,-0.009299198165535929,0.16225534677505493,-0.0206430796533823,0.022184351459145542,0.044944878667592995,0.00043296272633597255,-0.035026665776967995,0.002868381096050143,-0.04180862009525299,0.058900199830532074,-0.032764166593551636,-0.04644765704870224,0.017858041450381282,0.0243986789137125,-0.008790519088506699,-0.11433354765176773,0.10703464597463608,0.051369298249483115,0.042895618826150894,-0.0469530001282692,-0.024691104888916016,-0.08837933093309402,0.0290904063731432,-0.10552997887134552,-0.1555602252483368,0.08594658225774765,0.03412972390651703,0.060751095414161675,-0.08516870439052583,-0.035173267126083374,0.15611125528812408,-0.008795805275440216,0.047460317611694336,0.0534251481294632,0.032597292214632034,0.032639019191265106,0.014807013794779778,0.024024078622460362,-0.14569520950317386,0.05877997726202011,-0.010052902624011041,0.04736185073852539,-0.08156059682369232,-0.043647263199090965,0.05357706919312477,0.06742848455905914,0.0531703531742096,0.0915382206439972,0.06668875366449356,0.017203213647007942,0.08600074797868729,0.021301817148923874,0.047358278185129166,0.0300305113196373,0.04349991679191589,0.013736962340772152,-0.09333814680576323,-0.05529141798615456,-0.13526999950408936,0.06280951201915741,-0.05045675858855248,0.09859386086463927,0.03867506980895996,0.04529837891459465,0.08560390025377274,0.09503480792045592,-0.004201482050120831,-0.027719371020793915,0.15537218749523166,-0.04536411166191101,0.0595109835267067,0.13505440950393674,-0.09432443976402284,0.023812510073184967,-0.07349777221679688,0.0006210723659023643,0.054148014634847634,0.09797856211662292,0.04593244194984436,-0.09285186976194383,0.01052695233374834,-0.07190848141908646,-0.09486066550016403,-0.053137455135583885,0.026019390672445297,0.1132684051990509,-0.030865008011460308,0.11152515560388564,0.08317458629608154,0.058139696717262275,0.0351274311542511,0.036677852272987366,-0.12352238595485687,-0.05851492285728455,0.10841131955385208,-0.04588839411735535,0.061099383980035775,-0.0009549681562930346,0.021397273987531662,-0.06172937899827957,-0.10400913655757904,0.06707713752984999,0.05451252311468125,0.002196972258388996,0.04645692929625511,0.0030262460932135578,0.03339158371090889,0.023804545402526852,0.08525682240724564,-0.10225500166416167,0.038599248975515366,-0.08043714612722397,-0.04577487334609032,0.015023740939795973,-0.15064233541488647,0.09275373071432114,0.02395719289779663,0.018082121387124058,0.016396351158618927,-0.005994732026010753,-0.056664999574422836,0.019572298973798752,0.1515684723854065,-0.17342770099639893,0.01680521480739117,0.08021041005849837,0.10567532479763032,0.006820730865001679,0.017866522073745728,-0.0013952923472970724,0.018142331391572952,0.07185176759958267,-0.05240350216627121,0.0024024839513003826,0.07450786978006363,0.07465392351150513,0.010482896119356155,0.04878412559628487,0.0857388824224472,-0.05321785062551498,-0.037686411291360855,-0.0012449966743588448,0.1139577180147171,-0.0968763530254364,-0.034464769065380096,-0.074915312230587,0.17085817456245422,-0.005030895117670298,-0.020956465974450108,-0.017430560663342476,0.0041242893785238275,0.013371311128139496,0.006368124857544899,0.010475253686308859,0.07879119366407394,0.057986102998256676,-0.025984236970543858,0.07467319816350937,0.0009529379894956945,-0.09411787241697313,-0.01903743483126164,-0.016341323032975197,0.05100896954536438
"続伸",0.025886381044983864,-0.0980612263083458,-0.04559165984392166,-0.03920036554336548,-0.1294737607240677,-0.037114478647708886,-0.08047483116388321,0.1403811126947403,0.04006685689091682,0.0351470485329628,0.13255482912063601,0.021927645429968837,0.08467034995555878,0.12657451629638672,-0.007684623822569847,-0.001325173769146204,-0.07635603845119476,-0.12037081271409987,-0.022393377497792244,-0.0424850732088089,0.018865503370761868,-0.016578616574406624,0.028782447800040245,-0.0028586687985807657,0.053524870425462716,-0.0443568155169487,0.012902258895337582,0.023329980671405792,-0.017632229253649708,-0.05243698507547378,0.08464371412992477,-0.011926036328077316,-0.02704475261271,0.0438041090965271,0.006687254179269075,0.04636334255337715,0.06379823386669159,0.022407099604606632,0.007478654384613037,-0.2109033614397049,-0.08036170899868011,-0.002130948007106781,0.016366874799132347,-0.03497675061225891,0.0604347474873066,-0.02280960977077484,-0.014006293378770351,-0.08208483457565308,0.04909595102071762,0.08904774487018585,-0.031152078881859783,-0.0595245324075222,-0.029259311035275463,-0.023041848093271252,0.02656411938369274,0.11087091267108916,-0.07362429052591324,-0.06788709759712219,-0.005712474696338178,-0.1336050033569336,-0.15221859514713287,0.044484231621026986,-0.016724666580557827,0.1348567008972168,-0.023455362766981125,-0.013640854507684708,-0.00796218030154705,0.034246839582920074,0.014611479826271534,0.0010722186416387556,-0.0880204364657402,-0.009342378936707972,-0.09504836797714232,-0.08290103077888489,-0.07958164811134337,-0.03994949162006378,-0.09873470664024353,0.015320174396038055,0.04551361873745918,0.07246102392673492,0.05787283182144165,0.0660761371254921,0.07940039783716203,0.02097346819937229,-0.048286303877830505,0.01147750113159418,-0.05035634711384773,0.012827655300498007,-0.0017995926318690179,0.05603981018066406,0.03580910712480545,0.06628301739692688,0.053882136940956116,-0.20762918889522552,-0.08407396823167801,0.15423861145973206,-0.02489634603261948,0.07864160090684891,0.05003659799695015,0.05567103996872902,0.07472235709428787,0.033874012529850006,0.04463400319218636,0.03603928908705712,0.10931195318698883,-0.019564105197787285,0.07323940843343735,0.032310694456100464,0.09201158583164216,0.00925193075090647,0.021005036309361458,-0.012466362677514551,-0.0907389372587204,-0.08387914299964905,-0.08898074924945831,-0.06877545267343521,-0.029382681474089626,-0.06628958135843277,-0.013530946336686613,-0.06888076663017273,0.10701566934585573,-0.050678811967372894,0.11282100528478622,0.12792691588401794,-0.014216638170182703,0.002185162389650941,-0.010423791594803332,-0.14759115874767306,0.044070612639188766,0.019214050844311714,-0.03864892572164536,-0.002254944294691086,0.16365884244441986,0.015405320562422276,0.01441202871501446,0.1730193793773651,-0.041579194366931915,-0.03735821321606636,0.1185988262295723,0.09367452561855316,0.09209068864583968,-0.03124783933162689,-0.05977955088019371,0.0766981989145279,-0.007609402295202017,-0.02656753733754158,-0.0660729631781578,0.01137317530810833,-0.06804986298084259,-0.04321127012372017,0.05431195348501205,-0.1418168693780899,-0.05779090151190758,-0.08211707323789598,0.1080676168203354,0.009446891956031322,0.02463159896433353,0.07781773060560226,0.05061986669898033,0.12000899016857147,0.03999550640583038,0.0781494528055191,-0.0987890213727951,-0.07841911166906357,0.07493551820516586,-0.02772941067814827,0.06897971779108047,-0.01780918799340725,0.0285838283598423,0.01406984869390726,-0.03960678726434708,0.0473993681371212,-0.020952183753252033,-0.00916423462331295,0.009775687009096146,0.2026682198047638,0.05062166973948479,-0.07678496092557907,-0.043680116534233086,0.1020890399813652,0.05212623998522759,-0.1210453435778618,-0.03357364982366562,-0.0056511606089770785,0.08314770460128784,-0.014171673916280268,-0.007892591878771782,-0.0108548728749156,-0.055934134870767586,-0.05919832736253738,-0.025301499292254448,0.1350516825914383,0.04419950023293495,0.03583087399601936,0.10082244873046876,-0.07945165783166885,-0.028759410604834564,0.07786183804273605,0.03397829085588455,-0.07814523577690125
"人件費",-0.09868019074201584,0.031336456537246704,-0.08605630695819855,-0.0038808898534625773,0.12172435224056245,0.010343399830162523,-0.12031350284814835,0.025686275213956836,-0.028306514024734494,-0.007870973087847233,0.0046294135972857475,0.017227143049240112,-0.1270224303007126,0.027757927775383,0.1543111354112625,0.03535890579223633,-0.06863872706890106,0.0026904051192104816,0.019385967403650284,-0.19397138059139246,0.004193856380879879,0.04135191813111305,-0.1455909013748169,0.084711953997612,0.12151534855365753,-0.01342127937823534,-0.07668612897396088,0.031794216483831406,0.010815474204719068,0.06480229645967484,0.014365088194608688,-0.0314495824277401,-0.03529110923409462,-0.05330835282802582,-0.0793520137667656,0.047470323741436005,-0.07612105458974837,0.08530176430940628,0.0855197012424469,0.031427763402462006,-0.0006147730746306479,0.02556795440614224,0.0377996638417244,-0.006798026151955128,-0.14399094879627228,-0.07594972848892212,-0.0743527039885521,0.02677423506975174,-0.06833113729953766,-0.02356807142496109,-0.0630408227443695,0.021322181448340416,-0.06607089936733246,0.16451412439346313,0.06263934820890428,0.0647544115781784,-0.13676589727401733,-0.08860141783952713,-0.029466824606060982,0.009110105223953724,0.04079749062657356,0.21781186759471893,-0.038013871759176254,-0.023882107809185985,0.07344027608633041,0.053949285298585885,0.0716387927532196,-0.010894408449530602,-0.11295640468597412,0.01626451313495636,-0.01175264734774828,-0.029571257531642917,-0.023088565096259117,0.0742378681898117,-0.05859653651714325,-0.09343159943819046,0.017662884667515755,0.06645261496305466,0.030545361340045932,0.03612641990184784,-0.0255748238414526,-0.015233851969242098,0.11930453777313232,-0.0540209710597992,0.15163880586624146,0.10845959931612016,0.027784956619143486,0.11300046741962433,0.11403584480285645,-0.12619751691818235,0.026249542832374573,-0.0671948790550232,0.12465450167655945,-0.14901454746723175,-0.03076739236712456,-0.1256200522184372,0.06678026169538498,-0.04821193590760231,-0.05338447168469429,-0.009833106771111488,-0.051450006663799286,0.007303724065423013,-0.033391173928976066,-0.11970274895429613,0.13472039997577667,-0.05175212770700455,0.003031941596418619,-0.026044629514217377,-0.028346290811896324,0.0278165265917778,0.07146010547876358,-0.025476709008216858,7.662489224458113e-05,-0.03586176037788391,-0.026819087564945217,-0.06326787918806076,0.07991497218608856,-0.011155429296195507,-0.11151149123907088,-0.07815060764551163,-0.003531734459102153,0.025012562051415443,0.00020441236847545952,-0.022255238145589832,-0.08198540657758713,-0.010757757350802422,-0.0040742182172834865,-0.03929699212312698,0.07108477503061295,0.023267319425940517,0.0025193076580762863,0.06699464470148088,-0.09814682602882384,0.004867679439485073,-0.03783885017037392,-0.051343623548746116,0.11856505274772645,0.014632230624556541,0.06609310209751129,0.03186846897006035,0.1233619898557663,0.16560567915439606,0.040094956755638116,0.012258326634764671,-0.06325399875640869,0.03564809635281563,0.01634436845779419,-0.04311496764421463,0.017755469307303432,0.039005957543849945,-0.0010243316646665337,0.02237820439040661,0.051699258387088776,-0.004045041278004646,0.0830351933836937,-0.03317776694893837,0.023125462234020237,-0.08028485625982285,-0.09270601719617844,-0.08398379385471344,-0.019970577210187912,0.11302439868450165,-0.04219867661595345,-0.10246489942073822,0.006253078579902649,-0.03447284176945686,-0.02127872779965401,-0.029188761487603188,0.034692808985710144,-0.0428699254989624,0.16709715127944946,-0.036498036235570915,-0.05687205865979195,-0.012051215395331384,0.07408219575881958,-9.761287219589576e-05,-0.06858528405427933,0.027962151914834976,-0.0766596719622612,-0.07182373106479645,-0.024376317858695984,-0.011642560362815857,-0.03466767445206642,-0.025017930194735527,0.03759756684303284,-0.04394146800041199,0.06469385325908661,0.03271235153079033,0.08839300274848938,-0.031995642930269234,-0.0049003283493220815,0.06523390859365462,0.06818537414073944,0.09630923718214036,0.19312578439712524,0.04964793846011162,-0.03475295752286911,-0.055421382188797004,-0.002444523852318525,-0.08893920481204988
"横ばい",0.07135028392076492,0.050887029618024826,0.06134983152151108,0.06297428160905838,-0.0824679583311081,-0.03514676168560982,-0.07082222402095795,0.09751976281404497,0.10942237079143524,0.024997351691126823,-0.03384967893362045,0.10670571029186247,0.02071431279182434,0.04059463366866112,-0.014228900894522669,-0.07366176694631578,0.003247530432417989,-0.11184524744749068,-0.008957686834037304,0.02355553582310677,-0.0549890398979187,0.002421487355604768,-0.024147920310497284,-0.08820971101522446,0.1658712923526764,0.017543863505125046,0.026767764240503308,0.0849255844950676,0.04376484453678131,-0.03457459434866905,0.1620301604270935,0.10655225068330763,0.006455980706959964,0.07094376534223558,0.06168169528245926,0.011065498925745487,-0.07561302185058594,-0.03424273058772087,-0.0252806693315506,-0.14279423654079434,-0.060651715844869614,-0.04820853471755981,-0.007258961908519269,-0.07350488752126694,-0.00218707206659019,-0.019881384447216988,0.0920260027050972,0.004835898522287607,-0.0013310378417372706,-0.058916423469781876,-0.033921677619218826,0.015715127810835842,-0.08646707236766815,0.06371824443340303,0.1716921478509903,0.018769478425383568,-0.10409649461507796,-0.04304495081305504,-0.09288550168275833,-0.14254650473594666,-0.0017705379286780953,-0.1039016917347908,0.0967634990811348,0.10279570519924164,0.1126137301325798,0.022983968257904053,-0.05689151585102081,-0.018672788515686992,-0.01167958602309227,0.15818338096141815,-0.03542402759194374,0.08069507032632828,-0.03321167826652527,-0.06551139056682588,-0.1019507646560669,0.004546399228274822,0.1503249853849411,0.15058563649654388,-0.022861193865537643,-0.0076944385655224315,0.010783787816762924,-0.0010980137158185244,-0.006779678165912628,0.04582580551505089,-0.012260599993169308,0.005003876518458128,0.0666181668639183,0.05116226151585579,0.11728203296661376,0.05067351460456848,0.1082298532128334,0.09445108473300934,0.057212281972169876,-0.10218804329633713,-0.009366307407617569,-0.07753198593854904,0.00612336490303278,0.049419883638620384,-0.0005877491203136742,0.0795006975531578,0.08935090154409409,0.04752744734287262,0.07870344817638397,0.0008674394339323044,0.050366923213005066,0.07432626187801361,0.07092196494340898,0.09326885640621184,0.09221373498439787,-0.09389108419418336,-0.0014513046480715275,-0.08666092157363893,-0.027734147384762764,-0.06565215438604355,0.06449440121650696,-0.03245425969362259,-0.08130398392677307,-0.12880438566207886,-0.07969629019498825,-0.052511751651763916,0.10021562874317168,0.01035781018435955,0.113657645881176,0.0691094920039177,0.07093510776758194,0.08198408037424088,0.05508145317435265,-0.01965415105223656,0.17580828070640564,-0.040528081357479095,-0.16284310817718506,0.09076578170061113,0.05055762082338333,0.05867324024438857,0.011730745434761049,0.06419739127159119,0.003283477853983641,0.10125565528869628,-0.0013792912941426039,0.05906593427062035,0.19023334980010986,0.008171899244189262,-0.03424546867609024,-0.010164416395127772,-0.025524523109197617,-0.01621379144489765,-0.0842909887433052,-0.08128267526626587,-0.027088994160294533,-0.0125987334176898,0.07967924326658249,-0.1711418479681015,-0.01506878063082695,-0.08561566472053528,0.07296150177717209,0.037245482206344604,-0.035624176263809204,-0.005706354975700378,-0.03050131537020206,0.08723609894514084,-0.04321130737662315,0.038733936846256256,-0.05365758389234543,-0.06684033572673798,0.08806398510932922,-0.07496627420186996,-0.03072533942759037,-0.006234075874090196,0.008472777903079988,-0.07906937599182129,-0.027912449091672897,0.030539199709892276,0.044789157807827,0.0068229460157454005,0.09422414004802704,0.10160300135612488,-0.12800738215446472,-0.10010062903165816,-0.04873974993824959,0.03237266838550568,0.008122953586280346,-0.06410404294729233,-0.04163506999611855,0.08611202985048294,0.007243948057293892,0.030038470402359962,-0.012784075923264028,-0.05868009477853775,-0.021184278652071956,-0.04385996609926224,-0.016610119491815567,0.002468944527208805,0.03250739723443985,-0.02609194442629814,0.04585680365562439,-0.043225627392530434,0.015554024837911127,0.03650708496570587,-0.009428385645151138,0.030802160501480106
"反動",0.0013582968385890124,-0.07317463308572769,-0.0916520431637764,0.06337446719408035,-0.03524934500455856,-0.12259470671415328,0.04055478051304817,0.16268150508403778,-0.0482553169131279,-0.0012161521008238196,-0.05371744558215141,0.09270820766687393,-0.0697256550192833,-0.07220493257045746,0.06456679850816728,-0.0291577260941267,0.08884464204311371,0.0016273693181574345,0.031194491311907768,-0.042389314621686935,-0.10904423147439957,0.15996389091014862,-0.16129648685455322,-0.0263309758156538,0.1128811091184616,-0.02587566338479519,-0.05622486025094986,0.06771014630794525,0.017830995842814442,-0.032162319868803024,0.03307810798287392,-0.09054793417453766,-0.041177183389663696,-0.026139814406633374,0.08662828058004379,0.06638358533382416,-0.03394829109311104,-0.050687842071056366,-0.006228897254914045,-0.08209694176912308,0.012051879428327084,0.0031144232489168644,-0.04686954244971275,-0.049562100321054466,-0.023686882108449936,0.11092986166477203,0.04558506980538368,0.016026666387915608,-0.013075029477477074,-0.02377569116652012,0.005516593810170889,-0.04472637176513672,-0.04338150843977928,0.008308717980980873,0.06222442165017127,0.1001809388399124,0.03111199103295803,-0.06086818873882294,0.07893762737512589,-0.00942907389253378,-0.10503482073545456,-0.034795455634593964,-0.08960295468568802,0.029277106747031205,-0.07587827742099762,0.040961794555187225,-0.048355445265769965,0.06885700672864914,-0.005445931572467089,0.1145159900188446,-0.03893012925982475,0.0061107384972274295,0.06270528584718704,-0.059889215975999825,-0.03411731496453285,-0.141826793551445,0.08271759003400803,-0.07371548563241959,-0.1074061244726181,-0.045436941087245934,-0.02564329653978348,0.01943742297589779,0.03812172263860703,0.03205835446715355,0.049216441810131066,-0.05574366822838783,-0.016187679022550583,0.10462555289268494,0.027437884360551838,0.10770749300718307,0.005260832607746124,-0.0067703346721827975,0.06370768696069717,-0.14031881093978882,-0.09356041997671127,-0.19910526275634768,0.0651848167181015,-0.08117235451936723,-0.11068381369113922,0.06895790249109268,-0.05228612944483757,-0.06197451055049896,0.0012755929492413998,0.037437714636325836,-0.0001753555698087439,0.13820108771324158,0.054916970431804664,0.050031621009111404,0.04013809934258461,-0.08129533380270004,0.023108495399355892,-0.020356472581624985,0.11699030548334123,0.07807938009500504,-0.11599738895893096,-0.0513974204659462,-0.0036859363317489615,-0.05592101067304611,0.05757306888699532,-0.05409550666809082,0.07625096291303635,0.028972933068871495,0.04555734246969223,-0.06415612995624542,0.10646244138479233,0.12390507757663727,-0.08458969742059708,-0.03330344706773758,-0.01936890184879303,-0.1635741889476776,-0.12029239535331725,0.07372034341096878,0.0008533342625014484,0.06448439508676529,0.033986493945121765,-0.0012261889642104506,0.044032406061887734,-0.13233231008052826,-0.01765349507331848,0.07193738222122192,0.01679648645222187,0.014028236269950868,0.021976172924041748,-0.14442579448223114,0.06886017322540282,0.10313302278518677,-0.055685441941022866,0.06674551963806152,-0.024662254378199574,-0.002103256294503808,0.03082308918237686,-0.13227614760398865,0.022676309570670128,-0.11258294433355333,0.006048131734132768,-0.03181145340204239,-0.015366939827799797,-0.00956912524998188,-0.04653706774115562,-0.0842689648270607,-0.15128538012504578,0.04397070780396462,0.01691366545855999,-0.03162653371691704,-0.025103529915213585,-0.13187004625797272,-0.0150930006057024,-0.07801048457622528,-0.0749877542257309,-0.10893946886062622,0.048891324549913406,0.0868966355919838,0.10553747415542604,0.008997451514005661,0.002084288513287902,0.08301672339439392,-0.033467214554548264,-0.024796782061457637,-0.14817848801612854,0.010258195921778679,-0.11183810979127884,-0.0614151880145073,-0.033095400780439384,0.005596874747425318,0.06762092560529709,-0.07710102200508118,0.015579069033265112,0.036680210381746285,-0.039564885199069984,-0.0014265079516917467,-0.00114611373282969,0.02749801799654961,-0.015373355709016325,0.09898769855499268,0.010322918184101582,-0.04369576647877693,0.018164550885558132,0.16233190894126892,-0.006385779473930597,0.0049489764496684074
"増額",-0.0493304654955864,0.02675037644803524,-0.03012176975607872,0.1163499876856804,0.03148063644766808,0.017819354310631752,-0.055978462100028985,0.10584574192762376,-0.02288420870900154,-0.029184160754084587,0.06968957185745239,0.007077273912727833,0.13713814318180084,0.07309620082378387,0.06498660147190094,0.09842459857463837,0.02037180028855801,-0.06387808173894882,-0.018137691542506214,-0.0490778386592865,0.011488553136587143,-0.053203511983156204,-0.12164616584777832,0.0182373970746994,-0.064630888402462,0.0998760461807251,0.09008298069238664,-0.012236708775162695,-0.04581709206104279,-0.0218360498547554,0.003853736445307732,0.02312948554754257,0.06985540688037872,0.09341394901275636,-0.0073877270333468905,0.038758743554353714,-0.1325434297323227,0.06492340564727782,0.004712213296443224,-0.008266563527286053,0.015084049664437769,-0.003654567524790764,-0.10124650597572328,-0.02576351910829544,-0.12448254227638245,-0.09955279529094696,-0.02657659724354744,-0.008667758665978909,-0.159954771399498,0.06958997249603271,-0.007103451527655125,-0.04065055772662163,-0.05056650191545488,-0.09162264317274094,0.028404470533132557,0.03261680528521538,-0.05059414729475975,-0.04435769468545914,0.013888913206756115,-0.12952160835266113,0.08240476995706557,0.08889705687761308,-0.02096306532621384,-0.06091916933655739,0.01887870766222477,0.011059335432946682,-0.03798966482281685,0.09695865958929062,-0.07945570349693297,0.046231929212808616,-0.03115417249500752,0.02509177289903164,-0.1876545250415802,0.013546647503972055,0.07385536283254622,-0.0267757959663868,-0.08433125913143158,0.03169943764805794,-0.011733649298548698,0.05379317700862885,-0.08098243921995163,-0.035603418946266174,0.1247529312968254,0.05813387781381608,-0.016847867518663406,-0.030663119629025463,0.08607371151447296,-0.05373936519026756,0.12419402599334715,0.01285903062671423,0.1328837275505066,0.011031880974769592,-0.05263461917638779,-0.1037365049123764,0.08404919505119324,0.1101951003074646,-0.010627715848386288,0.0672636404633522,-0.045953519642353065,0.03928164392709732,-0.100846529006958,-0.011426170356571673,-0.03296462446451187,0.08950129896402359,0.09804055839776993,-0.13932333886623385,-0.06729480624198914,0.0488099567592144,-0.1732499748468399,0.0497903935611248,0.08554765582084656,-0.16288220882415771,-0.022490715608000755,0.030334949493408207,0.08041764795780182,-0.07298064231872559,-0.05066946521401405,-0.02992470189929008,-0.057484198361635215,-0.0650879442691803,-0.06675945222377777,0.09492459148168564,-0.00799570418894291,-0.16991961002349856,0.03955398127436638,0.012067693285644054,-0.08984479308128357,-0.0552976056933403,0.061921168118715286,0.035497654229402535,0.05763183161616325,0.026339991018176082,-0.07369343191385269,0.01159520260989666,-0.0997757539153099,0.027228042483329773,0.003448755946010351,0.004832934122532606,-0.08342862874269485,0.07911365479230881,0.02605073340237141,-0.15960286557674408,0.036434199661016464,0.05546468868851662,-0.03613565117120743,0.02612976543605328,0.06867048144340515,-0.005664212629199028,0.03940819203853607,-0.038885869085788734,0.014220713637769222,0.04825006052851677,0.1550578773021698,-0.02235359698534012,-0.01637235283851624,-0.028835257515311238,0.03639865294098854,-0.01572577841579914,0.0015045435866340995,-0.07604894787073135,0.03157621994614601,-0.07677483558654785,0.036228418350219734,-0.12840522825717926,0.04794847592711449,-0.06465723365545273,-0.030421284958720207,-0.0010282619623467326,0.03660313412547112,-0.02356001362204552,0.009550914168357849,-0.009961178526282309,-0.03152886778116226,-0.01941713131964207,-0.0004255675594322384,-0.0076921042054891595,0.005010227672755718,-0.06845717877149582,-0.006901110056787729,-0.007931926287710667,0.10422185063362123,0.10671566426753998,-0.09222958236932756,0.04976651445031166,0.0005895794020034372,0.0667380541563034,0.04008664935827255,0.08695624768733977,-0.015138357877731325,0.17944937944412231,-0.05277493223547936,0.043364834040403366,0.047777999192476266,0.13844051957130432,0.060552224516868584,-0.036133043467998505,-0.06712064146995544,-0.13331384956836698,0.042222503572702415,0.18592986464500427
